	PC1	PC2	PC3	PC4	PC5	PC6	PC7	PC8	PC9	PC10	PC11	PC12	PC13	PC14	PC15	PC16	PC17	PC18	PC19	PC20	PC21	PC22	PC23	PC24	PC25	PC26	PC27	PC28	PC29	PC30	PC31	PC32	PC33	PC34	PC35	PC36	PC37	PC38	PC39	PC40	PC41	PC42	PC43	PC44	PC45	PC46	PC47	PC48	PC49	PC50	PC51	PC52	PC53	PC54	PC55	PC56	PC57	PC58	PC59	PC60	PC61	PC62	PC63	PC64	PC65	PC66	PC67	PC68	PC69	PC70	PC71	PC72	PC73	PC74	PC75	PC76	PC77	PC78	PC79	PC80	PC81	PC82	PC83	PC84	PC85	PC86	PC87	PC88	PC89	PC90	PC91	PC92	PC93	PC94	PC95	PC96	PC97	PC98	PC99	PC100
direct_vc_estimate	1.108	-0.2083	-0.0461	-0.0205	-0.0232	-0.0195	-0.0082	-0.006	0.0627	0.0062	-0.0072	-0.0073	0.0005	0.004	-0.0066	-0.0066	-0.0057	-0.004	-0.0033	-0.0061	-0.0061	0.0028	0.0033	-0.0024	0.0197	-0.0049	-0.0057	-0.0054	-0.0039	-0.0053	-0.0019	-0.0054	-0.0024	-0.0047	0.0562	-0.0053	0.0008	-0.0027	0.0165	-0.0028	-0.0042	0.0091	-0.0059	0.0065	-0.0044	-0.0042	-0.0034	-0.0032	-0.0056	-0.0033	0.0031	-0.0004	-0.0027	-0.0056	0.0055	-0.0042	-0.0036	0.0027	-0.0051	0.0026	-0.0036	-0.0056	-0.0053	0.0045	0.0091	0.0097	0.0248	0.0209	0.0058	0.013	-0.0042	-0.0053	0.0022	0.0096	-0.0053	0.0194	0.0021	0.014	-0.0051	0.0012	-0.0038	-0.0047	0.0074	-0.0024	-0.0012	-0.0046	0.0129	-0.0003	-0.0039	-0.0049	-0.0049	-0.0037	0.0078	-0.0056	0.0026	-0.0041	0.0048	-0.0051	-0.005	-0.0021
direct_vc_estimate_se	0.0949	0.0574	0.0222	0.0184	0.0064	0.0048	0.0024	0.0025	0.0021	0.0018	0.0019	0.0018	0.0017	0.0016	0.0017	0.0016	0.0014	0.0016	0.0015	0.0015	0.0015	0.0017	0.0017	0.0014	0.0014	0.0013	0.0014	0.0014	0.0014	0.0014	0.0013	0.0013	0.0014	0.0013	0.0013	0.0014	0.0014	0.0014	0.0013	0.0014	0.0014	0.0015	0.0015	0.0014	0.0014	0.0013	0.0014	0.0016	0.0014	0.0013	0.0014	0.0014	0.0014	0.0014	0.0014	0.0013	0.0015	0.0013	0.0013	0.0014	0.0014	0.0014	0.0014	0.0013	0.0013	0.0013	0.0013	0.0012	0.0014	0.0014	0.0014	0.0014	0.0013	0.0013	0.0013	0.0013	0.0014	0.0013	0.0013	0.0014	0.0014	0.0012	0.0013	0.0014	0.0013	0.0013	0.0013	0.0015	0.0013	0.0014	0.0013	0.0013	0.0012	0.0014	0.0014	0.0013	0.0013	0.0015	0.0013	0.0014
direct_vc_pvals	0.055	0.798	0.518	0.445	0.807	0.937	0.736	0.555	0.008	0.272	0.847	0.959	0.318	0.226	0.939	0.96	0.93	0.587	0.579	0.928	0.951	0.238	0.278	0.545	0.06	0.819	0.98	0.859	0.619	0.884	0.522	0.893	0.543	0.754	0.012	0.833	0.356	0.542	0.11	0.561	0.667	0.229	0.973	0.244	0.701	0.686	0.627	0.585	0.986	0.61	0.326	0.444	0.578	0.862	0.249	0.672	0.603	0.324	0.827	0.329	0.641	0.928	0.868	0.273	0.174	0.141	0.039	0.067	0.258	0.134	0.654	0.847	0.261	0.146	0.903	0.066	0.312	0.115	0.87	0.345	0.639	0.841	0.174	0.575	0.472	0.753	0.093	0.484	0.678	0.763	0.765	0.644	0.149	0.982	0.282	0.659	0.241	0.673	0.872	0.486
upper95_perm_direct	1.3342	1.0388	0.3644	0.3547	0.1297	0.0877	0.0398	0.0493	0.0372	0.038	0.0409	0.0385	0.0248	0.0247	0.0273	0.0346	0.031	0.0314	0.0305	0.0359	0.038	0.0274	0.0272	0.0295	0.0251	0.0254	0.0345	0.0256	0.0288	0.0252	0.0311	0.0282	0.0346	0.0275	0.0296	0.0322	0.0328	0.0292	0.032	0.0286	0.0301	0.0408	0.0333	0.0299	0.0272	0.0288	0.0281	0.043	0.0262	0.0267	0.0299	0.0279	0.0386	0.0278	0.0337	0.0223	0.0327	0.0282	0.0253	0.0337	0.0303	0.0281	0.0274	0.0288	0.0258	0.0263	0.0233	0.0287	0.0308	0.0274	0.0279	0.033	0.0241	0.0233	0.0278	0.0245	0.0286	0.0294	0.0284	0.0304	0.0302	0.0221	0.0244	0.0311	0.0271	0.0282	0.0244	0.0396	0.028	0.026	0.0185	0.0222	0.0197	0.0257	0.0254	0.0231	0.0278	0.0237	0.019	0.0264
lower0_perm_direct	-0.5004	-0.3049	-0.1149	-0.0979	-0.0328	-0.0257	-0.0126	-0.0133	-0.011	-0.0097	-0.0098	-0.0094	-0.0086	-0.0083	-0.0087	-0.0087	-0.0074	-0.0083	-0.0081	-0.0081	-0.0081	-0.0089	-0.0089	-0.0075	-0.007	-0.0069	-0.0073	-0.0073	-0.0075	-0.0072	-0.0071	-0.0072	-0.0077	-0.007	-0.0071	-0.0076	-0.0075	-0.0076	-0.0069	-0.0074	-0.0074	-0.0078	-0.0076	-0.0073	-0.0073	-0.0071	-0.0072	-0.0085	-0.0072	-0.0068	-0.007	-0.0072	-0.0071	-0.0077	-0.0071	-0.007	-0.0079	-0.0068	-0.0071	-0.0074	-0.0072	-0.0075	-0.0073	-0.0069	-0.0068	-0.0068	-0.0068	-0.0064	-0.0073	-0.0071	-0.0075	-0.0073	-0.0071	-0.007	-0.0071	-0.007	-0.0075	-0.0068	-0.0069	-0.0071	-0.0074	-0.0065	-0.0066	-0.0073	-0.0067	-0.0068	-0.0068	-0.0077	-0.0069	-0.007	-0.0069	-0.0067	-0.0066	-0.0073	-0.0071	-0.0068	-0.0069	-0.0078	-0.0067	-0.0073
sad_vc_estimate	1.4943	-0.2256	-0.0799	-0.0444	-0.0087	-0.0191	-0.0083	-0.0099	0.1093	0.0135	-0.0066	-0.0073	-0.0059	0.0046	-0.0042	-0.0053	-0.0057	-0.0002	0.0043	-0.0049	-0.0058	-0.002	0.0013	-0.0049	0.0308	-0.0046	-0.0057	-0.0052	-0.0004	-0.0053	-0.0012	-0.0052	-0.0013	0.0006	0.0654	-0.005	0.0041	-0.0038	0.0172	-0.0031	-0.0052	-0.0013	-0.006	0.0225	-0.0051	-0.0005	-0.0035	-0.0047	-0.0046	0.0025	0.0123	0.0012	0.0003	-0.0059	0.0036	-0.0054	-0.0031	0.0002	-0.0049	-0.0002	-0.0021	-0.0056	-0.0056	0.0094	0.014	0.0119	0.0413	0.0118	0.004	0.0159	-0.0053	-0.0051	0.0073	0.014	-0.0053	0.0266	0.0172	0.0375	-0.0027	-0.0009	-0.0043	-0.0034	0.0116	0.0005	0.0063	-0.0044	0.0214	-0.0029	-0.0033	-0.0042	-0.003	-0.0018	0.0024	-0.0034	0.0033	-0.0023	-0.0024	-0.0029	-0.0036	-0.0012
sad_vc_estimate_se	0.0953	0.0577	0.0223	0.0184	0.0064	0.0049	0.0024	0.0025	0.0021	0.0018	0.0019	0.0018	0.0017	0.0016	0.0017	0.0016	0.0014	0.0016	0.0015	0.0015	0.0015	0.0017	0.0017	0.0014	0.0014	0.0013	0.0014	0.0014	0.0014	0.0014	0.0013	0.0014	0.0015	0.0013	0.0013	0.0014	0.0014	0.0014	0.0013	0.0014	0.0014	0.0015	0.0015	0.0014	0.0014	0.0013	0.0014	0.0016	0.0014	0.0013	0.0014	0.0014	0.0014	0.0015	0.0014	0.0013	0.0015	0.0013	0.0013	0.0014	0.0014	0.0014	0.0014	0.0013	0.0013	0.0013	0.0013	0.0012	0.0014	0.0014	0.0014	0.0014	0.0014	0.0013	0.0014	0.0013	0.0014	0.0013	0.0013	0.0014	0.0014	0.0012	0.0013	0.0014	0.0013	0.0013	0.0013	0.0015	0.0013	0.0014	0.0013	0.0013	0.0012	0.0014	0.0014	0.0013	0.0013	0.0015	0.0013	0.0014
sad_vc_pvals	0.04	0.888	0.782	0.576	0.497	0.873	0.717	0.911	0.002	0.16	0.73	0.931	0.775	0.243	0.603	0.71	0.921	0.379	0.27	0.738	0.844	0.463	0.369	0.783	0.03	0.743	0.989	0.812	0.416	0.88	0.535	0.882	0.503	0.44	0.005	0.788	0.289	0.66	0.1	0.597	0.828	0.543	0.987	0.083	0.792	0.435	0.619	0.717	0.708	0.366	0.175	0.374	0.453	0.989	0.332	0.967	0.571	0.411	0.771	0.43	0.525	0.926	0.996	0.196	0.196	0.172	0.02	0.131	0.328	0.132	0.853	0.799	0.229	0.128	0.878	0.041	0.105	0.041	0.591	0.48	0.711	0.656	0.141	0.454	0.244	0.759	0.053	0.626	0.654	0.693	0.589	0.53	0.293	0.609	0.308	0.546	0.537	0.529	0.648	0.468
upper95_perm_sad	1.4892	1.1036	0.4406	0.3562	0.1411	0.0866	0.0431	0.0549	0.0403	0.0425	0.0347	0.0549	0.033	0.0266	0.035	0.0418	0.0346	0.0323	0.0296	0.0427	0.0395	0.0302	0.0322	0.034	0.0285	0.0331	0.0356	0.03	0.0261	0.0313	0.0318	0.0351	0.0348	0.0405	0.0372	0.033	0.0286	0.0373	0.0317	0.0353	0.0336	0.0436	0.0431	0.0325	0.0275	0.0287	0.0295	0.0401	0.0299	0.0325	0.0332	0.0313	0.0388	0.0323	0.0339	0.0285	0.0371	0.0321	0.0229	0.0312	0.0367	0.0339	0.031	0.0288	0.0445	0.031	0.0323	0.0265	0.0331	0.0369	0.0367	0.0367	0.0345	0.0317	0.0291	0.0268	0.0338	0.0396	0.0314	0.0343	0.036	0.0246	0.0285	0.0356	0.0311	0.0287	0.0257	0.0511	0.0341	0.0306	0.0297	0.0306	0.0225	0.0314	0.0281	0.028	0.0277	0.0237	0.0246	0.0326
lower0_perm_sad	-0.5095	-0.3002	-0.1168	-0.0977	-0.0333	-0.0253	-0.0128	-0.0132	-0.011	-0.0095	-0.0099	-0.0095	-0.0088	-0.0084	-0.0089	-0.0085	-0.0076	-0.0083	-0.008	-0.008	-0.008	-0.0088	-0.0089	-0.0073	-0.0072	-0.0072	-0.0071	-0.0073	-0.0074	-0.0072	-0.007	-0.007	-0.0076	-0.007	-0.0072	-0.0074	-0.0076	-0.0077	-0.0071	-0.0074	-0.0074	-0.0079	-0.0077	-0.0073	-0.0073	-0.0069	-0.007	-0.0086	-0.0073	-0.0066	-0.0072	-0.0073	-0.0072	-0.0078	-0.0071	-0.0071	-0.0078	-0.0067	-0.0071	-0.0073	-0.0073	-0.0074	-0.0071	-0.0069	-0.0068	-0.0067	-0.0068	-0.0066	-0.0074	-0.0071	-0.0074	-0.0075	-0.0071	-0.0071	-0.007	-0.007	-0.0077	-0.007	-0.0068	-0.0073	-0.0073	-0.0065	-0.0067	-0.0073	-0.0068	-0.007	-0.0067	-0.0078	-0.007	-0.0071	-0.007	-0.0065	-0.0064	-0.0072	-0.0072	-0.0067	-0.0069	-0.008	-0.0068	-0.0073
covar_vc_estimate	-2.5816	0.4925	0.1372	0.068	0.0646	0.0398	0.0165	0.0219	-0.1663	-0.019	0.014	0.0146	0.0087	-0.0086	0.0143	0.0135	0.0114	0.005	0.0014	0.0117	0.012	-0.0001	-0.0045	0.0081	-0.0495	0.0095	0.0113	0.0106	0.0052	0.0113	0.003	0.0106	0.0037	0.0067	-0.1213	0.0125	-0.0046	0.0066	-0.0337	0.0059	0.0097	-0.0049	0.0119	-0.0256	0.0096	0.006	0.0069	0.0082	0.0112	0.0028	-0.0138	-0.0006	0.0029	0.0117	-0.009	0.0106	0.0067	-0.0027	0.01	-0.0022	0.0058	0.0113	0.011	-0.0134	-0.0228	-0.0216	-0.0643	-0.0317	-0.0098	-0.0288	0.0099	0.0124	-0.0088	-0.0233	0.0106	-0.0456	-0.0154	-0.047	0.0091	-0.0002	0.0081	0.0115	-0.0187	0.0024	-0.0033	0.009	-0.0335	0.0036	0.0073	0.0092	0.0086	0.0059	-0.0095	0.011	-0.0059	0.0068	-0.0003	0.0157	0.0094	0.0034
covar_vc_estimate_se	1.2565	0.9731	0.6019	0.5475	0.3218	0.2807	0.1967	0.201	0.1834	0.1717	0.1746	0.1723	0.1638	0.159	0.1643	0.163	0.1525	0.1598	0.1571	0.1572	0.1571	0.165	0.1652	0.1509	0.1484	0.1478	0.1509	0.1503	0.1518	0.1486	0.1478	0.1482	0.1534	0.1466	0.1475	0.1517	0.1523	0.1524	0.1471	0.1502	0.1515	0.156	0.1547	0.15	0.1505	0.1475	0.1482	0.1614	0.1497	0.1456	0.1495	0.1499	0.1495	0.1534	0.1496	0.1475	0.1566	0.1445	0.1472	0.1511	0.1497	0.1514	0.1491	0.1447	0.1462	0.1444	0.1445	0.1413	0.1512	0.1485	0.1509	0.1512	0.148	0.147	0.1481	0.1473	0.153	0.1461	0.1467	0.1499	0.1499	0.1419	0.1427	0.1492	0.1451	0.1457	0.1444	0.1542	0.1463	0.1484	0.1473	0.143	0.1414	0.1496	0.1484	0.1447	0.1461	0.1561	0.1444	0.1498
covar_vc_pvals	0.018	0.013	0.204	0.357	0.002	0.025	0.138	0.011	0.0	0.203	0.085	0.034	0.264	0.233	0.015	0.023	0.043	0.388	0.486	0.053	0.037	0.385	0.345	0.179	0.016	0.096	0.032	0.081	0.378	0.014	0.354	0.055	0.357	0.228	0.0	0.004	0.371	0.242	0.075	0.301	0.12	0.448	0.031	0.108	0.124	0.306	0.236	0.217	0.033	0.39	0.233	0.456	0.358	0.052	0.314	0.066	0.279	0.426	0.084	0.444	0.289	0.047	0.044	0.219	0.169	0.116	0.013	0.053	0.31	0.1	0.121	0.012	0.247	0.098	0.057	0.023	0.192	0.038	0.133	0.476	0.174	0.008	0.131	0.389	0.392	0.115	0.037	0.302	0.2	0.162	0.177	0.263	0.205	0.063	0.319	0.252	0.459	0.005	0.105	0.4
upper975_perm_covar	0.9171	0.5453	0.2197	0.176	0.0603	0.0467	0.0232	0.0245	0.0198	0.0174	0.0181	0.0177	0.0164	0.0155	0.0165	0.016	0.0137	0.0155	0.0146	0.0149	0.0148	0.0174	0.0167	0.0132	0.0131	0.0129	0.0134	0.0141	0.014	0.0129	0.0129	0.013	0.0137	0.0133	0.0129	0.0135	0.0142	0.014	0.0129	0.0144	0.0139	0.0146	0.0141	0.0134	0.0137	0.0131	0.0133	0.0153	0.0134	0.0128	0.013	0.0137	0.0137	0.0149	0.0139	0.0134	0.0149	0.0128	0.0133	0.0138	0.0132	0.014	0.0134	0.0127	0.0128	0.0126	0.0126	0.0117	0.0138	0.0134	0.0138	0.0139	0.0132	0.013	0.0135	0.0128	0.0144	0.0128	0.0133	0.0136	0.0135	0.0121	0.0125	0.0133	0.0128	0.0127	0.0128	0.0144	0.013	0.0132	0.013	0.0121	0.0124	0.0139	0.0137	0.0127	0.0128	0.0155	0.0126	0.0135
lower025_perm_covar	-2.6976	-1.8503	-0.7301	-0.6407	-0.2493	-0.1527	-0.0857	-0.1026	-0.0713	-0.0796	-0.066	-0.0897	-0.0551	-0.0494	-0.0614	-0.0728	-0.0594	-0.0551	-0.0555	-0.0651	-0.071	-0.0516	-0.0568	-0.0651	-0.0489	-0.0531	-0.0672	-0.0539	-0.0493	-0.0558	-0.0613	-0.0547	-0.0659	-0.0614	-0.064	-0.0629	-0.0589	-0.0628	-0.0595	-0.0632	-0.0608	-0.0859	-0.0722	-0.0596	-0.0514	-0.0554	-0.0544	-0.0862	-0.0523	-0.058	-0.064	-0.0554	-0.0732	-0.0585	-0.0628	-0.0476	-0.0644	-0.0573	-0.0421	-0.065	-0.0569	-0.0567	-0.059	-0.0524	-0.0667	-0.058	-0.0551	-0.0507	-0.0628	-0.0564	-0.0571	-0.0662	-0.0572	-0.0472	-0.0547	-0.0495	-0.0559	-0.0616	-0.064	-0.0613	-0.0637	-0.045	-0.0523	-0.0619	-0.056	-0.0494	-0.0463	-0.0944	-0.0567	-0.0568	-0.0448	-0.0475	-0.0382	-0.0506	-0.0527	-0.0521	-0.0536	-0.0522	-0.0438	-0.0523
