	PC1	PC2	PC3	PC4	PC5	PC6	PC7	PC8	PC9	PC10	PC11	PC12	PC13	PC14	PC15	PC16	PC17	PC18	PC19	PC20	PC21	PC22	PC23	PC24	PC25	PC26	PC27	PC28	PC29	PC30	PC31	PC32	PC33	PC34	PC35	PC36	PC37	PC38	PC39	PC40	PC41	PC42	PC43	PC44	PC45	PC46	PC47	PC48	PC49	PC50	PC51	PC52	PC53	PC54	PC55	PC56	PC57	PC58	PC59	PC60	PC61	PC62	PC63	PC64	PC65	PC66	PC67	PC68	PC69	PC70	PC71	PC72	PC73	PC74	PC75	PC76	PC77	PC78	PC79	PC80	PC81	PC82	PC83	PC84	PC85	PC86	PC87	PC88	PC89	PC90	PC91	PC92	PC93	PC94	PC95	PC96	PC97	PC98	PC99	PC100
direct_vc_estimate	-0.0426	-0.0179	0.0067	-0.0094	0.033	-0.0014	-0.0096	0.004	-0.0051	-0.0013	-0.0012	0.0187	0.0166	-0.005	0.0034	0.029	-0.0088	0.0023	0.0128	-0.0051	-0.0081	-0.0086	-0.0098	-0.0004	-0.0102	0.0036	-0.0023	-0.0015	0.0006	-0.0089	-0.0094	-0.0091	-0.0082	-0.01	-0.0038	0.0026	-0.0076	0.0058	0.0142	-0.0004	-0.0059	-0.0097	0.0185	-0.0062	0.0109	-0.0078	0.005	-0.0074	0.0138	-0.0102	-0.003	-0.0064	-0.0062	-0.0087	0.0109	0.0122	-0.0047	0.0369	0.0412	-0.0107	-0.0099	0.0043	-0.005	-0.0035	0.0244	0.0062	0.024	-0.009	-0.0075	0.0241	0.0138	-0.0044	-0.0099	-0.0087	0.0068	0.0248	0.0335	0.0146	0.0007	-0.0094	-0.0082	-0.0006	-0.0081	-0.0071	0.0397	-0.0069	-0.0081	-0.0036	-0.0012	0.0265	-0.0045	-0.0091	-0.0076	-0.0089	-0.0088	-0.0022	0.0748	-0.0087	0.0006	0.048
direct_vc_estimate_se	0.0174	0.0074	0.0045	0.0043	0.0044	0.004	0.0039	0.0052	0.0042	0.0041	0.0045	0.0041	0.0043	0.0041	0.0042	0.0042	0.0038	0.0039	0.0041	0.0039	0.0042	0.0037	0.004	0.0038	0.0042	0.004	0.0038	0.0039	0.0039	0.0038	0.004	0.0038	0.0039	0.0041	0.0038	0.0039	0.0043	0.0037	0.0038	0.0037	0.0039	0.004	0.004	0.0043	0.0041	0.004	0.0038	0.0037	0.0039	0.0043	0.0039	0.004	0.0039	0.004	0.0037	0.0039	0.0038	0.0039	0.0039	0.0044	0.0041	0.0039	0.0038	0.0038	0.0038	0.004	0.0039	0.0039	0.0036	0.0039	0.0046	0.0037	0.0042	0.0038	0.0038	0.0041	0.0039	0.0041	0.0038	0.0038	0.0036	0.0047	0.0038	0.0038	0.0036	0.0037	0.0038	0.0037	0.0038	0.0038	0.0035	0.0038	0.0037	0.0038	0.0036	0.004	0.0039	0.0036	0.0043	0.0038
direct_vc_pvals	0.981	0.93	0.275	0.783	0.125	0.501	0.987	0.345	0.54	0.389	0.449	0.162	0.215	0.571	0.354	0.161	0.835	0.351	0.212	0.555	0.696	0.839	0.924	0.392	0.923	0.327	0.494	0.476	0.376	0.881	0.85	0.905	0.734	0.91	0.507	0.338	0.626	0.295	0.188	0.43	0.615	0.966	0.097	0.598	0.237	0.655	0.299	0.714	0.2	0.904	0.518	0.619	0.622	0.795	0.209	0.208	0.554	0.079	0.066	0.958	0.896	0.292	0.556	0.477	0.135	0.248	0.094	0.863	0.716	0.108	0.22	0.54	0.865	0.838	0.263	0.106	0.041	0.178	0.431	0.957	0.847	0.427	0.747	0.684	0.044	0.668	0.788	0.526	0.401	0.094	0.577	0.919	0.727	0.87	0.954	0.503	0.006	0.91	0.414	0.031
upper95_perm_direct	0.2066	0.086	0.061	0.0577	0.0763	0.0691	0.0539	0.0617	0.0621	0.0411	0.0645	0.0639	0.0771	0.062	0.057	0.0881	0.0487	0.0522	0.0596	0.0549	0.0617	0.0436	0.0521	0.0475	0.0559	0.054	0.0548	0.065	0.0498	0.0714	0.0484	0.0432	0.0428	0.0658	0.047	0.0477	0.0538	0.0532	0.0524	0.0599	0.0467	0.0499	0.0407	0.0548	0.0537	0.0452	0.0519	0.0495	0.0546	0.0529	0.0572	0.056	0.0502	0.0491	0.0454	0.0544	0.056	0.0578	0.0587	0.0542	0.0661	0.0503	0.0498	0.0378	0.0676	0.0474	0.0451	0.0633	0.0355	0.0503	0.0692	0.0535	0.0531	0.0575	0.0449	0.0557	0.0374	0.0578	0.0675	0.0528	0.0546	0.0643	0.0368	0.0465	0.0456	0.0391	0.0642	0.0449	0.0439	0.0429	0.0495	0.0652	0.0422	0.0591	0.0477	0.0577	0.0577	0.0535	0.0595	0.0487
lower0_perm_direct	-0.064	-0.0258	-0.0162	-0.0151	-0.0151	-0.0143	-0.014	-0.0183	-0.0155	-0.0142	-0.0157	-0.0151	-0.0151	-0.0146	-0.015	-0.015	-0.0137	-0.0135	-0.0142	-0.0139	-0.015	-0.013	-0.0141	-0.0137	-0.0154	-0.0143	-0.0129	-0.0139	-0.0136	-0.0134	-0.0144	-0.0135	-0.014	-0.0145	-0.0134	-0.0138	-0.015	-0.0129	-0.0139	-0.0133	-0.014	-0.0141	-0.0147	-0.0151	-0.0151	-0.0145	-0.0137	-0.013	-0.0138	-0.0143	-0.0137	-0.0142	-0.0137	-0.0143	-0.0134	-0.0139	-0.014	-0.0138	-0.0136	-0.0158	-0.0147	-0.0133	-0.0134	-0.0137	-0.0138	-0.0145	-0.0132	-0.0136	-0.0126	-0.0136	-0.0162	-0.0128	-0.0145	-0.0133	-0.0138	-0.0143	-0.0136	-0.0148	-0.0136	-0.0138	-0.0121	-0.0175	-0.0134	-0.0139	-0.0126	-0.013	-0.0132	-0.0134	-0.0133	-0.014	-0.0126	-0.0138	-0.0129	-0.0131	-0.0133	-0.0143	-0.0134	-0.013	-0.0154	-0.0136
sad_vc_estimate	0.0158	-0.0059	-0.0049	-0.0033	0.0211	-0.0064	-0.0092	0.023	-0.0027	0.0185	0.004	0.0288	0.0038	-0.0074	0.0102	0.029	-0.0077	0.0119	0.0362	0.0013	0.0155	-0.0084	-0.0094	-0.0011	-0.0094	0.0279	-0.0092	0.0025	-0.0056	-0.0087	-0.0099	-0.0094	-0.0094	-0.0102	0.0025	0.0013	-0.0034	0.0147	0.0251	0.022	-0.0044	-0.0034	0.0292	0.0137	0.0427	-0.01	-0.0016	-0.0023	0.0191	-0.0099	-0.0095	0.0063	-0.0094	-0.0005	0.0145	0.0277	0.0002	0.0482	0.0243	-0.0089	-0.0059	0.0111	-0.0095	-0.0087	0.0425	-0.0011	0.028	-0.0072	0.0024	0.0153	0.0182	-0.0091	-0.0081	-0.0044	0.0094	0.0898	0.025	0.0283	0.0052	-0.0071	-0.0066	-0.0084	-0.0094	-0.0006	0.0788	-0.0047	-0.005	-0.0078	-0.0091	0.031	-0.0075	-0.0075	-0.009	-0.0088	0.0075	-0.0047	0.1257	-0.0081	0.0019	0.077
sad_vc_estimate_se	0.0175	0.0074	0.0045	0.0044	0.0044	0.0041	0.0039	0.0052	0.0042	0.0041	0.0045	0.0041	0.0043	0.0041	0.0042	0.0042	0.0039	0.0039	0.0041	0.004	0.0042	0.0037	0.0041	0.0038	0.0042	0.0041	0.0038	0.0039	0.0039	0.0038	0.004	0.0038	0.0039	0.0042	0.0038	0.0039	0.0043	0.0037	0.0038	0.0038	0.0039	0.004	0.0041	0.0043	0.0041	0.0041	0.0039	0.0038	0.0039	0.0043	0.0039	0.004	0.0039	0.004	0.0037	0.0039	0.0039	0.0039	0.004	0.0044	0.0042	0.0039	0.0039	0.0038	0.0038	0.004	0.0039	0.0039	0.0037	0.0039	0.0046	0.0037	0.0042	0.0038	0.0039	0.0041	0.0039	0.0042	0.0039	0.0039	0.0036	0.0047	0.0038	0.0038	0.0036	0.0037	0.0038	0.0038	0.0038	0.0039	0.0035	0.0038	0.0037	0.0038	0.0036	0.004	0.0039	0.0037	0.0043	0.0039
sad_vc_pvals	0.365	0.569	0.582	0.536	0.247	0.701	0.856	0.205	0.528	0.136	0.374	0.145	0.419	0.734	0.29	0.238	0.736	0.274	0.149	0.427	0.255	0.814	0.849	0.438	0.781	0.14	0.939	0.444	0.613	0.837	0.937	0.987	0.89	0.974	0.369	0.436	0.539	0.264	0.158	0.214	0.553	0.542	0.102	0.238	0.067	0.97	0.503	0.49	0.209	0.864	0.986	0.319	0.936	0.393	0.216	0.131	0.475	0.056	0.163	0.747	0.631	0.254	0.954	0.831	0.088	0.45	0.093	0.736	0.375	0.213	0.23	0.952	0.751	0.575	0.279	0.024	0.109	0.152	0.372	0.712	0.726	0.672	0.985	0.454	0.023	0.559	0.605	0.765	0.887	0.084	0.785	0.759	0.947	0.891	0.314	0.581	0.002	0.817	0.412	0.021
upper95_perm_sad	0.2697	0.139	0.077	0.068	0.0987	0.0848	0.062	0.0943	0.0728	0.0529	0.0748	0.0729	0.0841	0.0782	0.0753	0.0964	0.0614	0.0718	0.0926	0.0793	0.0836	0.0622	0.0857	0.0563	0.0679	0.074	0.0705	0.0848	0.0683	0.0655	0.0633	0.0598	0.0701	0.0761	0.0546	0.0759	0.0708	0.0708	0.0635	0.0787	0.0663	0.0598	0.0549	0.059	0.0605	0.0628	0.075	0.0646	0.0645	0.0858	0.0783	0.0733	0.0602	0.0665	0.0596	0.0652	0.0807	0.0658	0.068	0.0718	0.0608	0.0595	0.056	0.058	0.0724	0.0536	0.0438	0.0777	0.0584	0.061	0.0981	0.0587	0.0663	0.0675	0.0619	0.0804	0.0518	0.0812	0.0693	0.0842	0.0589	0.0811	0.0527	0.0605	0.0732	0.0546	0.0679	0.0738	0.0578	0.0523	0.065	0.0856	0.0517	0.0706	0.0693	0.072	0.0727	0.0644	0.0624	0.0668
lower0_perm_sad	-0.0627	-0.0266	-0.0159	-0.0153	-0.0165	-0.0151	-0.0141	-0.0184	-0.0151	-0.0151	-0.0155	-0.0143	-0.0153	-0.0148	-0.0158	-0.0143	-0.0139	-0.0135	-0.015	-0.0141	-0.0155	-0.0127	-0.0144	-0.013	-0.0152	-0.0144	-0.0135	-0.0138	-0.0135	-0.0132	-0.0142	-0.0134	-0.0146	-0.0143	-0.0132	-0.0138	-0.0154	-0.0134	-0.0132	-0.0135	-0.014	-0.0143	-0.0141	-0.0151	-0.0145	-0.0148	-0.0135	-0.013	-0.0141	-0.0145	-0.0137	-0.0145	-0.0145	-0.0144	-0.0136	-0.0135	-0.0139	-0.0137	-0.014	-0.0159	-0.0149	-0.0138	-0.0138	-0.0134	-0.0134	-0.0139	-0.0139	-0.0137	-0.0131	-0.0134	-0.0163	-0.0132	-0.0155	-0.0132	-0.0138	-0.0145	-0.0143	-0.0151	-0.014	-0.0137	-0.0129	-0.017	-0.0134	-0.0135	-0.013	-0.0134	-0.0129	-0.0135	-0.0137	-0.0136	-0.0128	-0.0135	-0.0132	-0.0138	-0.0135	-0.0141	-0.0138	-0.0124	-0.015	-0.0144
covar_vc_estimate	0.0879	0.0397	0.001	0.0153	-0.0532	0.0088	0.0193	-0.0236	0.008	-0.0115	-0.0024	-0.0468	-0.0185	0.0127	-0.0129	-0.0581	0.0167	-0.0129	-0.0449	0.0051	0.0057	0.0192	0.0203	0.0015	0.0199	-0.0254	0.0169	-0.0006	0.0064	0.0198	0.0194	0.0188	0.0179	0.0204	0.0025	-0.0039	0.0118	-0.0195	-0.0383	-0.0147	0.0104	0.0203	-0.0469	0.0007	-0.0465	0.0194	-0.0024	0.0112	-0.0327	0.0201	0.0187	0.0049	0.0177	0.0132	-0.0253	-0.0378	0.0053	-0.0845	-0.0639	0.0211	0.0181	-0.0147	0.0181	0.0146	-0.065	-0.0041	-0.052	0.0212	0.0098	-0.0388	-0.0319	0.0171	0.0187	0.0153	-0.0161	-0.098	-0.0582	-0.0414	-0.0056	0.0194	0.0195	0.0113	0.0186	0.0098	-0.1128	0.012	0.0142	0.0128	0.0157	-0.0574	0.0128	0.0173	0.0173	0.0193	0.0162	0.0071	-0.1946	0.0187	-0.0025	-0.1221
covar_vc_estimate_se	0.4159	0.2704	0.2116	0.2074	0.2088	0.2001	0.1968	0.2259	0.2033	0.2003	0.2111	0.2006	0.2055	0.2005	0.2045	0.203	0.1951	0.1966	0.2011	0.1975	0.2032	0.191	0.1998	0.1945	0.2042	0.2	0.1934	0.1967	0.1958	0.1941	0.1996	0.1942	0.197	0.2021	0.1929	0.1958	0.2055	0.1916	0.1936	0.1925	0.196	0.1982	0.2003	0.2057	0.2008	0.1999	0.195	0.1924	0.1966	0.2053	0.1955	0.1986	0.1957	0.1992	0.191	0.197	0.1953	0.1959	0.1976	0.2084	0.2021	0.1957	0.1952	0.1938	0.1936	0.1983	0.1953	0.1958	0.1896	0.1961	0.2128	0.1912	0.2031	0.1935	0.1948	0.2011	0.1961	0.2023	0.1951	0.1949	0.1876	0.216	0.1944	0.1936	0.1887	0.1913	0.1932	0.1922	0.1934	0.1946	0.1866	0.1938	0.1904	0.1931	0.1888	0.1978	0.1956	0.1895	0.2057	0.1953
covar_vc_pvals	0.037	0.037	0.499	0.206	0.166	0.278	0.051	0.268	0.345	0.255	0.499	0.135	0.34	0.215	0.342	0.18	0.138	0.341	0.171	0.395	0.39	0.05	0.049	0.492	0.101	0.216	0.095	0.444	0.404	0.028	0.061	0.047	0.107	0.033	0.474	0.447	0.295	0.294	0.139	0.344	0.309	0.04	0.07	0.486	0.096	0.089	0.481	0.263	0.183	0.077	0.059	0.42	0.098	0.251	0.183	0.158	0.399	0.035	0.071	0.069	0.099	0.285	0.082	0.203	0.08	0.371	0.057	0.015	0.329	0.117	0.247	0.075	0.119	0.143	0.281	0.026	0.038	0.159	0.455	0.034	0.018	0.317	0.074	0.311	0.011	0.263	0.173	0.221	0.144	0.044	0.193	0.08	0.078	0.033	0.121	0.347	0.001	0.027	0.473	0.008
upper975_perm_covar	0.1143	0.0518	0.0308	0.031	0.0296	0.0269	0.0262	0.0328	0.0284	0.0298	0.0301	0.027	0.028	0.0261	0.0284	0.0272	0.0266	0.0262	0.0287	0.0271	0.0314	0.0271	0.0291	0.0266	0.0288	0.0276	0.0252	0.0264	0.0273	0.0245	0.0277	0.0262	0.0269	0.0262	0.026	0.0276	0.0289	0.0261	0.025	0.0259	0.0279	0.0268	0.0285	0.027	0.028	0.0293	0.0261	0.0244	0.0259	0.0291	0.0263	0.0287	0.026	0.0267	0.0257	0.0274	0.0266	0.0262	0.0278	0.0303	0.0275	0.0259	0.0264	0.0276	0.0254	0.0286	0.0263	0.0254	0.0249	0.0261	0.0313	0.0252	0.0283	0.0248	0.0269	0.0277	0.0263	0.0287	0.0265	0.0253	0.0233	0.0307	0.0267	0.0256	0.0258	0.0262	0.0254	0.0255	0.0247	0.0279	0.0232	0.026	0.0246	0.0247	0.0248	0.0255	0.0271	0.0236	0.0268	0.0265
lower025_perm_covar	-0.4102	-0.2092	-0.1212	-0.1191	-0.1529	-0.1342	-0.1011	-0.1356	-0.1258	-0.0834	-0.1177	-0.1228	-0.1501	-0.1359	-0.1173	-0.1654	-0.0995	-0.1083	-0.1358	-0.1225	-0.1366	-0.0957	-0.1276	-0.0967	-0.1207	-0.1113	-0.1251	-0.139	-0.116	-0.128	-0.1043	-0.0972	-0.1061	-0.1297	-0.0997	-0.1192	-0.1102	-0.1111	-0.1157	-0.1359	-0.1087	-0.1106	-0.0939	-0.1131	-0.115	-0.1011	-0.1238	-0.1042	-0.1138	-0.1328	-0.1282	-0.1141	-0.1145	-0.1044	-0.0915	-0.1027	-0.1277	-0.115	-0.1164	-0.1055	-0.1216	-0.1017	-0.1013	-0.0913	-0.1365	-0.0895	-0.0842	-0.1281	-0.0971	-0.1068	-0.1412	-0.1102	-0.1186	-0.1131	-0.1061	-0.1283	-0.0888	-0.1203	-0.1339	-0.1268	-0.0973	-0.123	-0.0842	-0.1066	-0.1129	-0.0873	-0.1273	-0.1195	-0.0939	-0.088	-0.1065	-0.128	-0.091	-0.1262	-0.1182	-0.1302	-0.1086	-0.1039	-0.1088	-0.1077
