	PC1	PC2	PC3	PC4	PC5	PC6	PC7	PC8	PC9	PC10	PC11	PC12	PC13	PC14	PC15	PC16	PC17	PC18	PC19	PC20	PC21	PC22	PC23	PC24	PC25	PC26	PC27	PC28	PC29	PC30	PC31	PC32	PC33	PC34	PC35	PC36	PC37	PC38	PC39	PC40	PC41	PC42	PC43	PC44	PC45	PC46	PC47	PC48	PC49	PC50	PC51	PC52	PC53	PC54	PC55	PC56	PC57	PC58	PC59	PC60	PC61	PC62	PC63	PC64	PC65	PC66	PC67	PC68	PC69	PC70	PC71	PC72	PC73	PC74	PC75	PC76	PC77	PC78	PC79	PC80	PC81	PC82	PC83	PC84	PC85	PC86	PC87	PC88	PC89	PC90	PC91	PC92	PC93	PC94	PC95	PC96	PC97	PC98	PC99	PC100
direct_vc_estimate	-0.019	0.0202	-0.0008	-0.0027	0.0004	0.0197	0.0002	-0.0045	0.0076	-0.0051	-0.0023	0.0007	-0.0041	-0.0049	-0.0056	0.0032	0.0095	-0.0027	-0.0056	0.0092	-0.0012	-0.0044	0.0036	-0.0003	-0.0066	-0.005	-0.0052	-0.0046	-0.0033	-0.004	-0.0022	-0.0031	0.0394	0.0005	-0.005	-0.0047	0.0181	0.0059	-0.0029	-0.0006	0.0016	-0.0044	-0.0014	-0.0045	-0.0035	-0.006	-0.0054	-0.0007	-0.0051	0.0121	-0.0001	-0.0028	0.0257	0.0045	0.0023	0.0083	-0.0047	0.0046	-0.0021	-0.0057	-0.0015	0.0002	-0.0037	-0.0041	-0.0037	-0.0024	-0.0055	0.0041	-0.0044	-0.0041	-0.0027	0.0095	-0.0053	0.0005	0.0038	0.0052	0.0043	-0.0011	0.1127	0.0111	-0.0033	0.0201	0.0014	-0.0034	-0.0044	-0.0036	0.0009	-0.0045	0.0087	0.024	0.0009	-0.0029	-0.0048	-0.0045	0.0141	-0.0041	0.0072	-0.0007	0.0001	0.0083
direct_vc_estimate_se	0.0034	0.0017	0.0011	0.0011	0.001	0.001	0.0011	0.001	0.0011	0.001	0.0009	0.001	0.0011	0.001	0.0012	0.0011	0.001	0.0011	0.001	0.0009	0.0012	0.0009	0.001	0.0009	0.0012	0.0011	0.001	0.001	0.0011	0.001	0.0009	0.001	0.001	0.0009	0.0009	0.0009	0.001	0.0011	0.0009	0.0009	0.0009	0.0009	0.0011	0.0009	0.001	0.0011	0.001	0.0009	0.0011	0.001	0.001	0.001	0.0009	0.001	0.0009	0.0009	0.001	0.001	0.0008	0.0012	0.0009	0.0008	0.0009	0.0009	0.001	0.001	0.001	0.0008	0.0008	0.0009	0.0009	0.0009	0.001	0.0009	0.001	0.0011	0.0009	0.0011	0.001	0.0011	0.0009	0.0009	0.0009	0.0009	0.0009	0.001	0.001	0.0009	0.0009	0.0009	0.0009	0.0009	0.0009	0.001	0.0008	0.0008	0.0009	0.0009	0.0009	0.0008
direct_vc_pvals	0.942	0.261	0.468	0.627	0.46	0.308	0.426	0.742	0.297	0.813	0.616	0.419	0.678	0.829	0.813	0.359	0.258	0.678	0.995	0.239	0.504	0.84	0.445	0.477	0.897	0.804	0.871	0.829	0.633	0.716	0.593	0.629	0.044	0.399	0.915	0.851	0.186	0.397	0.665	0.546	0.364	0.829	0.561	0.85	0.64	0.889	0.96	0.479	0.783	0.297	0.42	0.604	0.054	0.346	0.317	0.221	0.774	0.31	0.578	0.788	0.627	0.404	0.719	0.735	0.696	0.591	0.934	0.281	0.935	0.722	0.585	0.218	0.89	0.453	0.273	0.371	0.345	0.488	0.002	0.244	0.67	0.079	0.282	0.629	0.828	0.66	0.519	0.786	0.218	0.058	0.403	0.715	0.992	0.778	0.186	0.823	0.311	0.518	0.337	0.254
upper95_perm_direct	0.0784	0.0768	0.0358	0.0534	0.0364	0.0697	0.0354	0.0363	0.0471	0.0339	0.0362	0.0382	0.0447	0.0308	0.0481	0.0371	0.0455	0.0706	0.0505	0.036	0.0504	0.0273	0.0537	0.0369	0.0541	0.0504	0.043	0.0764	0.0431	0.0414	0.0362	0.0375	0.0401	0.0248	0.0445	0.0397	0.0446	0.0617	0.0445	0.0444	0.0297	0.0446	0.0486	0.0522	0.0337	0.0362	0.044	0.0354	0.0387	0.0587	0.0257	0.0441	0.0302	0.0425	0.0302	0.0316	0.0354	0.0327	0.0252	0.0369	0.0503	0.0243	0.0355	0.0295	0.0453	0.0438	0.0438	0.0253	0.0324	0.0282	0.0297	0.0366	0.049	0.0321	0.0256	0.0502	0.0352	0.0347	0.056	0.0461	0.0352	0.0279	0.0198	0.0321	0.0328	0.0336	0.0536	0.0295	0.0335	0.0327	0.0312	0.054	0.0408	0.0453	0.042	0.0224	0.0481	0.0337	0.0185	0.0366
lower0_perm_direct	-0.025	-0.012	-0.0076	-0.0082	-0.0071	-0.0072	-0.0078	-0.0074	-0.0079	-0.0076	-0.0067	-0.0072	-0.0082	-0.0071	-0.0085	-0.0078	-0.0077	-0.008	-0.0074	-0.0066	-0.0089	-0.0066	-0.0074	-0.0066	-0.009	-0.0081	-0.0073	-0.0076	-0.008	-0.0073	-0.0067	-0.0073	-0.0074	-0.0063	-0.0072	-0.0066	-0.0076	-0.0079	-0.0065	-0.0066	-0.0067	-0.0064	-0.0084	-0.0066	-0.0075	-0.0087	-0.0072	-0.0072	-0.0077	-0.0072	-0.007	-0.0076	-0.0063	-0.0075	-0.0064	-0.0065	-0.007	-0.0077	-0.0062	-0.0085	-0.0073	-0.0063	-0.0069	-0.0069	-0.0073	-0.0075	-0.0074	-0.0061	-0.0059	-0.0073	-0.0067	-0.0072	-0.0075	-0.0062	-0.0072	-0.008	-0.0065	-0.0083	-0.0073	-0.0079	-0.0068	-0.0068	-0.0065	-0.0068	-0.0066	-0.0074	-0.0074	-0.0072	-0.0063	-0.0068	-0.0064	-0.0065	-0.0064	-0.0071	-0.0065	-0.0057	-0.0067	-0.0064	-0.0065	-0.0065
sad_vc_estimate	0.0015	0.0517	0.0336	-0.0036	0.014	0.0415	-0.006	-0.0044	0.0183	-0.0051	-0.0048	0.0084	-0.0012	-0.0053	-0.0024	0.0058	0.0298	-0.0056	0.0057	0.0228	0.0367	-0.0021	-0.0014	0.0001	-0.0068	-0.0036	0.0039	-0.001	-0.0059	-0.0057	0.0014	-0.0005	0.0168	0.0043	0.0133	-0.005	0.0096	0.027	0.0026	-0.0039	0.0006	0.0033	-0.0058	-0.005	-0.0057	-0.0047	-0.0048	0.0025	-0.0022	0.0077	0.0072	0.0029	0.016	-0.0049	0.0054	0.0273	-0.0042	0.0259	-0.0046	-0.0065	-0.0032	0.0066	-0.004	-0.0048	-0.0022	0.0048	-0.0055	-0.0011	-0.0026	-0.0032	-0.0036	0.0043	-0.0052	-0.0009	0.0118	0.0351	0.0281	0.0011	0.1233	0.0026	-0.003	0.0237	0.0163	0.0023	-0.0018	-0.0052	0.0255	-0.0005	-0.0038	0.0402	0.014	-0.0041	-0.0042	-0.0047	0.0565	-0.0035	0.0216	-0.0012	0.0001	0.0216
sad_vc_estimate_se	0.0035	0.0017	0.0011	0.0011	0.001	0.001	0.0011	0.001	0.0011	0.001	0.0009	0.001	0.0011	0.001	0.0012	0.0011	0.001	0.0011	0.001	0.0009	0.0012	0.0009	0.001	0.0009	0.0013	0.0011	0.001	0.001	0.0011	0.001	0.0009	0.001	0.001	0.0009	0.0009	0.0009	0.001	0.0011	0.0009	0.0009	0.0009	0.0009	0.0011	0.0009	0.001	0.0011	0.001	0.0009	0.0011	0.001	0.001	0.001	0.0009	0.001	0.0009	0.0009	0.001	0.0011	0.0008	0.0012	0.001	0.0008	0.0009	0.0009	0.001	0.001	0.001	0.0008	0.0008	0.0009	0.0009	0.0009	0.001	0.0009	0.001	0.0011	0.0009	0.0011	0.001	0.0011	0.0009	0.001	0.0009	0.0009	0.0009	0.001	0.001	0.0009	0.0009	0.0009	0.0009	0.0009	0.0009	0.001	0.0008	0.0008	0.0009	0.0009	0.0009	0.0008
sad_vc_pvals	0.457	0.202	0.097	0.753	0.267	0.233	0.96	0.783	0.236	0.822	0.879	0.328	0.601	0.94	0.66	0.386	0.147	0.879	0.402	0.153	0.136	0.622	0.706	0.519	0.942	0.725	0.403	0.767	0.935	0.99	0.458	0.569	0.251	0.354	0.335	0.952	0.402	0.299	0.443	0.773	0.476	0.467	0.87	0.941	0.977	0.739	0.869	0.489	0.63	0.341	0.299	0.474	0.171	0.807	0.323	0.151	0.784	0.124	0.911	0.981	0.734	0.267	0.783	0.89	0.655	0.443	0.948	0.551	0.651	0.677	0.721	0.394	0.896	0.605	0.221	0.194	0.115	0.49	0.01	0.563	0.64	0.111	0.111	0.453	0.616	0.896	0.171	0.576	0.802	0.062	0.253	0.818	0.809	0.823	0.048	0.78	0.183	0.569	0.475	0.149
upper95_perm_sad	0.1432	0.1334	0.0536	0.0925	0.0567	0.1034	0.0513	0.0512	0.0584	0.0478	0.0579	0.0547	0.0686	0.0426	0.0855	0.0767	0.0606	0.0819	0.0668	0.0516	0.0817	0.0429	0.0683	0.0476	0.0622	0.0757	0.0601	0.1109	0.0589	0.0433	0.046	0.0509	0.0667	0.0375	0.0653	0.0557	0.0754	0.1072	0.0477	0.0603	0.041	0.0538	0.0665	0.0626	0.0548	0.0488	0.0832	0.0586	0.0612	0.0485	0.0438	0.0612	0.0433	0.0649	0.0414	0.0606	0.0643	0.0492	0.0364	0.0539	0.0629	0.0347	0.0562	0.0586	0.0686	0.0661	0.0695	0.0366	0.0389	0.0527	0.0394	0.0522	0.0611	0.0446	0.0403	0.0853	0.0517	0.0579	0.079	0.0878	0.0497	0.0432	0.0311	0.0456	0.0513	0.0383	0.0659	0.0528	0.0532	0.0503	0.0512	0.0632	0.0498	0.0608	0.0626	0.0338	0.0629	0.0426	0.0311	0.051
lower0_perm_sad	-0.0254	-0.0129	-0.0077	-0.0083	-0.0072	-0.0074	-0.0078	-0.0076	-0.0078	-0.0074	-0.0067	-0.0073	-0.0081	-0.007	-0.0085	-0.0075	-0.0073	-0.0078	-0.0072	-0.0069	-0.0087	-0.0067	-0.0076	-0.0069	-0.0098	-0.0084	-0.0075	-0.0077	-0.0081	-0.0076	-0.0071	-0.0072	-0.0077	-0.0067	-0.0066	-0.0068	-0.0077	-0.0078	-0.0066	-0.0067	-0.0066	-0.0067	-0.0086	-0.0069	-0.0078	-0.0083	-0.0073	-0.007	-0.0078	-0.007	-0.0075	-0.0077	-0.0066	-0.0075	-0.0063	-0.0065	-0.0072	-0.0077	-0.0066	-0.0086	-0.0068	-0.0061	-0.0068	-0.0069	-0.0074	-0.0078	-0.0079	-0.0059	-0.0059	-0.0072	-0.0068	-0.0068	-0.0074	-0.0062	-0.0073	-0.0085	-0.0069	-0.0084	-0.0074	-0.008	-0.0069	-0.007	-0.0067	-0.0069	-0.0065	-0.0069	-0.0074	-0.0066	-0.0063	-0.0069	-0.0064	-0.0065	-0.0066	-0.0071	-0.0061	-0.0059	-0.0066	-0.0067	-0.0063	-0.0061
covar_vc_estimate	0.0414	-0.0662	-0.0166	0.0063	-0.0105	-0.0578	0.0109	0.0127	-0.0244	0.0102	0.0082	-0.0076	0.0059	0.0109	0.0092	-0.0089	-0.0351	0.0095	0.0113	-0.0297	-0.0176	0.0077	-0.0014	0.0002	0.0143	0.009	0.0076	0.0067	0.0108	0.0113	0.0015	0.0041	-0.0524	-0.0043	0.0073	0.0098	-0.0269	-0.0276	0.002	0.0055	-0.0022	0.0055	0.0093	0.0098	0.011	0.0137	0.0106	-0.0014	0.0083	-0.0196	-0.0056	0.0014	-0.0408	0.0055	-0.0074	-0.0315	0.009	-0.0248	0.0105	0.0131	0.0049	-0.0054	0.0126	0.0115	0.0061	-0.0003	0.011	-0.002	0.0097	0.0073	0.0063	-0.0133	0.0105	0.0005	-0.0143	-0.0309	-0.025	0.0002	-0.2358	-0.0124	0.0144	-0.0437	-0.0134	0.003	0.0074	0.0096	-0.0173	0.0067	0.0021	-0.0625	-0.0111	0.0072	0.0098	0.0126	-0.0585	0.0077	-0.026	0.0019	-0.0003	-0.0276
covar_vc_estimate_se	0.2777	0.194	0.1542	0.1592	0.1486	0.1516	0.1548	0.1475	0.1573	0.1519	0.1435	0.1488	0.1564	0.146	0.1614	0.1538	0.149	0.1554	0.1502	0.1421	0.1649	0.1381	0.1506	0.1419	0.1671	0.1548	0.1487	0.1529	0.1557	0.1504	0.144	0.1476	0.1507	0.1386	0.1437	0.1428	0.1522	0.155	0.1426	0.1411	0.1436	0.1414	0.16	0.1429	0.1514	0.1583	0.1484	0.1446	0.1547	0.1482	0.1471	0.1517	0.1382	0.1517	0.1393	0.1421	0.1478	0.153	0.1376	0.1616	0.1457	0.1371	0.1429	0.1436	0.1494	0.1518	0.1503	0.1351	0.1345	0.1452	0.1422	0.1435	0.1489	0.1381	0.1493	0.1567	0.141	0.1587	0.1508	0.1591	0.1443	0.1456	0.1417	0.1449	0.1407	0.1469	0.1505	0.1437	0.139	0.1445	0.14	0.1416	0.1397	0.1482	0.137	0.1326	0.142	0.1397	0.1403	0.1375
covar_vc_pvals	0.077	0.217	0.284	0.215	0.394	0.244	0.125	0.023	0.284	0.14	0.126	0.416	0.252	0.061	0.163	0.417	0.182	0.112	0.083	0.163	0.343	0.169	0.316	0.408	0.061	0.173	0.177	0.105	0.117	0.065	0.377	0.288	0.098	0.428	0.167	0.082	0.298	0.392	0.337	0.196	0.497	0.184	0.152	0.085	0.096	0.069	0.077	0.441	0.209	0.332	0.389	0.357	0.066	0.23	0.354	0.163	0.156	0.172	0.051	0.084	0.215	0.357	0.029	0.059	0.23	0.384	0.076	0.468	0.065	0.208	0.242	0.31	0.082	0.375	0.244	0.283	0.203	0.431	0.0	0.474	0.026	0.057	0.174	0.345	0.181	0.127	0.392	0.204	0.312	0.033	0.367	0.132	0.048	0.034	0.077	0.144	0.239	0.345	0.451	0.184
upper975_perm_covar	0.0597	0.0283	0.0175	0.0206	0.016	0.0152	0.0172	0.0147	0.019	0.0171	0.0147	0.0167	0.0179	0.0143	0.019	0.0183	0.0171	0.0164	0.0179	0.016	0.0209	0.015	0.0162	0.0142	0.0194	0.0184	0.0157	0.017	0.0202	0.0164	0.0145	0.0159	0.0175	0.0139	0.0155	0.0156	0.0169	0.0187	0.0152	0.0144	0.0144	0.0132	0.0168	0.0155	0.0189	0.0209	0.017	0.0145	0.017	0.015	0.017	0.017	0.0134	0.0162	0.0141	0.0161	0.0165	0.0159	0.014	0.0196	0.0165	0.0143	0.0149	0.0153	0.015	0.0178	0.0156	0.0129	0.0141	0.0157	0.0142	0.0167	0.0172	0.0128	0.017	0.019	0.0151	0.019	0.0168	0.0201	0.0166	0.0142	0.0181	0.0158	0.0156	0.0152	0.0159	0.0135	0.0129	0.0178	0.0139	0.0137	0.0129	0.0148	0.0135	0.0132	0.0148	0.0138	0.014	0.0128
lower025_perm_covar	-0.2133	-0.1948	-0.0801	-0.1335	-0.0845	-0.1685	-0.0844	-0.0811	-0.101	-0.0714	-0.0899	-0.0875	-0.1072	-0.0676	-0.1195	-0.11	-0.0975	-0.1514	-0.099	-0.0816	-0.1075	-0.0612	-0.1117	-0.0763	-0.122	-0.1202	-0.0909	-0.1741	-0.0905	-0.0751	-0.0719	-0.0751	-0.1036	-0.0581	-0.1049	-0.0912	-0.1077	-0.1615	-0.076	-0.096	-0.0677	-0.0858	-0.0976	-0.0986	-0.0813	-0.0788	-0.1169	-0.0848	-0.0904	-0.0944	-0.0658	-0.1019	-0.066	-0.0997	-0.0656	-0.0865	-0.096	-0.0742	-0.0566	-0.0839	-0.1028	-0.0518	-0.0854	-0.0793	-0.104	-0.099	-0.1001	-0.0583	-0.0642	-0.0708	-0.0648	-0.0813	-0.1162	-0.0666	-0.0632	-0.1331	-0.0778	-0.0872	-0.1227	-0.1243	-0.0779	-0.0636	-0.0523	-0.0686	-0.0852	-0.0635	-0.0984	-0.0786	-0.0808	-0.085	-0.0765	-0.1129	-0.0817	-0.1033	-0.0952	-0.0582	-0.1004	-0.0773	-0.0493	-0.0768
