	PC1	PC2	PC3	PC4	PC5	PC6	PC7	PC8	PC9	PC10	PC11	PC12	PC13	PC14	PC15	PC16	PC17	PC18	PC19	PC20	PC21	PC22	PC23	PC24	PC25	PC26	PC27	PC28	PC29	PC30	PC31	PC32	PC33	PC34	PC35	PC36	PC37	PC38	PC39	PC40	PC41	PC42	PC43	PC44	PC45	PC46	PC47	PC48	PC49	PC50	PC51	PC52	PC53	PC54	PC55	PC56	PC57	PC58	PC59	PC60	PC61	PC62	PC63	PC64	PC65	PC66	PC67	PC68	PC69	PC70	PC71	PC72	PC73	PC74	PC75	PC76	PC77	PC78	PC79	PC80	PC81	PC82	PC83	PC84	PC85	PC86	PC87	PC88	PC89	PC90	PC91	PC92	PC93	PC94	PC95	PC96	PC97	PC98	PC99	PC100
direct_vc_estimate	-0.1452	-0.0677	0.032	0.0815	0.0028	0.0021	0.0008	0.0035	-0.0017	0.0117	-0.0022	0.0134	-0.0012	0.0041	0.0086	0.0033	0.0068	-0.0018	-0.0013	0.0058	0.0011	-0.0008	0.0079	0.0003	0.0052	-0.0017	0.0051	0.0023	-0.0012	0.0033	0.0063	-0.0009	-0.0006	-0.0021	-0.0007	-0.0011	0.0198	0.0008	-0.0005	-0.0009	0.0005	-0.0014	-0.0012	0.0055	0.0027	-0.0012	0.0058	0.0154	-0.0015	0.0006	-0.0012	0.0006	-0.0015	0.0013	-0.0013	0.0005	0.011	0.0026	0.0089	-0.0006	-0.0012	0.0221	-0.0013	-0.001	-0.0013	-0.0016	0.0051	-0.0003	-0.0018	-0.0015	-0.0008	0.0025	-0.0011	-0.0009	-0.0008	-0.0012	-0.0002	-0.0011	0.0034	-0.0004	-0.001	-0.0003	-0.0001	-0.0006	-0.0003	0.0033	0.0011	0.0005	0.0073	0.0021	-0.0005	0.0028	-0.0007	-0.0014	0.0024	-0.0006	-0.0014	0.0051	0.0002	0.0024
direct_vc_estimate_se	0.0104	0.0049	0.0019	0.0019	0.0003	0.0002	0.0001	0.0002	0.0001	0.0001	0.0002	0.0002	0.0001	0.0001	0.0001	0.0001	0.0001	0.0001	0.0001	0.0001	0.0001	0.0001	0.0001	0.0001	0.0001	0.0001	0.0001	0.0001	0.0001	0.0001	0.0001	0.0001	0.0001	0.0001	0.0001	0.0001	0.0001	0.0001	0.0001	0.0001	0.0001	0.0001	0.0001	0.0001	0.0001	0.0001	0.0001	0.0001	0.0001	0.0001	0.0001	0.0001	0.0001	0.0001	0.0001	0.0001	0.0001	0.0001	0.0001	0.0001	0.0001	0.0001	0.0001	0.0001	0.0001	0.0001	0.0001	0.0001	0.0001	0.0001	0.0001	0.0001	0.0001	0.0001	0.0001	0.0001	0.0001	0.0001	0.0001	0.0001	0.0001	0.0001	0.0001	0.0001	0.0001	0.0001	0.0001	0.0001	0.0001	0.0001	0.0001	0.0001	0.0001	0.0001	0.0001	0.0001	0.0001	0.0001	0.0001	0.0001
direct_vc_pvals	0.995	0.987	0.394	0.132	0.382	0.209	0.368	0.311	0.858	0.135	0.862	0.075	0.728	0.191	0.014	0.118	0.308	0.89	0.732	0.111	0.405	0.725	0.029	0.587	0.106	0.874	0.474	0.391	0.78	0.23	0.292	0.953	0.673	0.993	0.758	0.808	0.073	0.425	0.711	0.674	0.433	0.828	0.691	0.278	0.222	0.815	0.052	0.115	0.979	0.537	0.838	0.693	0.883	0.487	0.864	0.481	0.23	0.267	0.146	0.684	0.864	0.017	0.994	0.734	0.87	0.873	0.123	0.618	0.872	0.905	0.678	0.304	0.839	0.791	0.821	0.86	0.704	0.995	0.295	0.72	0.621	0.694	0.419	0.632	0.484	0.294	0.399	0.653	0.23	0.256	0.65	0.36	0.758	0.918	0.319	0.555	0.863	0.206	0.47	0.242
upper95_perm_direct	0.861	0.5397	0.2017	0.1352	0.0288	0.0099	0.0087	0.0199	0.0081	0.0204	0.017	0.0167	0.0067	0.0119	0.0051	0.0067	0.0226	0.0147	0.0119	0.01	0.0124	0.0116	0.0061	0.0141	0.0088	0.0073	0.0327	0.0176	0.0084	0.0106	0.0226	0.0083	0.0119	0.0202	0.0148	0.0093	0.0232	0.0097	0.0083	0.0109	0.0078	0.0128	0.0081	0.0208	0.0078	0.0057	0.0059	0.0241	0.0093	0.0095	0.0101	0.012	0.0222	0.0187	0.0073	0.012	0.0324	0.0089	0.0152	0.0156	0.0107	0.0151	0.0122	0.0073	0.0091	0.0148	0.0083	0.0115	0.0107	0.012	0.0096	0.0118	0.0105	0.0121	0.0095	0.0142	0.0297	0.0085	0.0135	0.0166	0.0081	0.0172	0.0046	0.0136	0.0047	0.0108	0.0113	0.0231	0.0188	0.0083	0.0056	0.0168	0.0049	0.0122	0.014	0.0051	0.0192	0.0138	0.0121	0.008
lower0_perm_direct	-0.1696	-0.0785	-0.0304	-0.0313	-0.0045	-0.0036	-0.0021	-0.0034	-0.0021	-0.0021	-0.0028	-0.0025	-0.0018	-0.0018	-0.0019	-0.0018	-0.0017	-0.0022	-0.002	-0.002	-0.0018	-0.0016	-0.0016	-0.0015	-0.0019	-0.002	-0.0021	-0.0018	-0.0016	-0.0014	-0.002	-0.0011	-0.0014	-0.0024	-0.0014	-0.0015	-0.0021	-0.0016	-0.0012	-0.0019	-0.0013	-0.0018	-0.0018	-0.0016	-0.001	-0.0015	-0.0017	-0.0022	-0.0017	-0.0011	-0.0015	-0.0015	-0.0022	-0.002	-0.0016	-0.0017	-0.002	-0.0015	-0.0021	-0.0017	-0.0015	-0.002	-0.0015	-0.0015	-0.0017	-0.002	-0.0016	-0.0012	-0.0022	-0.0018	-0.0015	-0.0019	-0.0016	-0.0013	-0.0011	-0.0015	-0.0023	-0.0012	-0.0015	-0.0012	-0.0018	-0.0014	-0.0014	-0.0017	-0.0013	-0.001	-0.0015	-0.0021	-0.0015	-0.0014	-0.001	-0.0016	-0.001	-0.0017	-0.0019	-0.0013	-0.002	-0.0015	-0.0019	-0.0014
sad_vc_estimate	-0.1094	-0.063	0.0917	0.1013	0.003	-0.0016	0.0039	-0.0014	-0.0018	0.0141	-0.0021	0.0407	-0.0014	0.001	0.0083	0.0078	0.0055	-0.001	-0.0017	0.0084	0.0012	-0.0013	0.0097	0.0023	0.0107	-0.001	0.0035	-0.0003	-0.0014	0.01	0.0188	0.0004	0.0008	-0.0001	0.0016	-0.0011	0.0209	0.0093	0.0019	-0.0016	0.0043	-0.0016	-0.0016	-0.0001	0.0063	-0.0011	0.0037	0.0354	0.0007	0.0005	-0.0013	-0.0008	0.0035	0.0015	0.0001	-0.0012	0.0092	0.0044	0.0084	0.0015	0.0002	0.0182	0.001	0.0007	-0.0014	0.0031	0.0139	0.0015	-0.0003	-0.0005	-0.0009	0.0108	0.0001	-0.0006	-0.0008	-0.0013	0.0021	-0.0011	0.0142	0.0057	-0.0013	0.005	-0.0011	0.0031	-0.0009	0.002	-0.0001	0.0003	0.0181	0.0046	0.0017	0.0037	0.0004	0.0029	0.0044	0.0006	-0.0007	0.0108	0.0028	-0.0001
sad_vc_estimate_se	0.0105	0.0049	0.0019	0.0019	0.0003	0.0002	0.0001	0.0002	0.0001	0.0001	0.0002	0.0002	0.0001	0.0001	0.0001	0.0001	0.0001	0.0001	0.0001	0.0001	0.0001	0.0001	0.0001	0.0001	0.0001	0.0001	0.0001	0.0001	0.0001	0.0001	0.0001	0.0001	0.0001	0.0001	0.0001	0.0001	0.0001	0.0001	0.0001	0.0001	0.0001	0.0001	0.0001	0.0001	0.0001	0.0001	0.0001	0.0001	0.0001	0.0001	0.0001	0.0001	0.0001	0.0001	0.0001	0.0001	0.0001	0.0001	0.0001	0.0001	0.0001	0.0001	0.0001	0.0001	0.0001	0.0001	0.0001	0.0001	0.0001	0.0001	0.0001	0.0001	0.0001	0.0001	0.0001	0.0001	0.0001	0.0001	0.0001	0.0001	0.0001	0.0001	0.0001	0.0001	0.0001	0.0001	0.0001	0.0001	0.0001	0.0001	0.0001	0.0001	0.0001	0.0001	0.0001	0.0001	0.0001	0.0001	0.0001	0.0001
sad_vc_pvals	0.736	0.869	0.181	0.159	0.477	0.601	0.241	0.699	0.995	0.154	0.811	0.019	0.827	0.408	0.1	0.12	0.327	0.794	0.987	0.186	0.558	0.908	0.055	0.546	0.046	0.688	0.729	0.619	0.998	0.156	0.116	0.456	0.605	0.715	0.572	0.869	0.075	0.126	0.565	0.988	0.195	0.986	0.993	0.619	0.161	0.82	0.184	0.046	0.56	0.661	0.925	0.7	0.402	0.479	0.456	0.83	0.386	0.282	0.263	0.51	0.557	0.127	0.476	0.404	0.935	0.415	0.082	0.469	0.588	0.733	0.772	0.219	0.695	0.767	0.854	0.894	0.51	0.979	0.127	0.358	0.77	0.281	0.831	0.428	0.808	0.378	0.59	0.624	0.116	0.247	0.407	0.343	0.446	0.355	0.339	0.412	0.809	0.185	0.333	0.615
upper95_perm_sad	0.9199	0.7296	0.2202	0.2018	0.0409	0.0183	0.0156	0.0289	0.0153	0.0262	0.0146	0.0293	0.009	0.0111	0.011	0.0135	0.0189	0.0299	0.0208	0.0182	0.0265	0.018	0.0104	0.0275	0.0099	0.0135	0.0461	0.0206	0.0159	0.0179	0.0307	0.0076	0.0181	0.0342	0.0197	0.0136	0.026	0.0158	0.0143	0.0203	0.0103	0.0198	0.017	0.0202	0.0122	0.0154	0.0097	0.0357	0.0137	0.0164	0.0203	0.0107	0.0251	0.0194	0.0083	0.0224	0.05	0.0134	0.0214	0.0215	0.013	0.0297	0.0164	0.0096	0.0178	0.0255	0.0166	0.0156	0.0163	0.0229	0.0165	0.0265	0.0172	0.0165	0.0151	0.019	0.0292	0.0118	0.0208	0.0208	0.0141	0.0216	0.0086	0.0253	0.0113	0.0122	0.0113	0.0251	0.0266	0.0143	0.0101	0.0206	0.0078	0.0163	0.0241	0.0079	0.0401	0.0214	0.0159	0.0123
lower0_perm_sad	-0.1669	-0.0796	-0.03	-0.0305	-0.0045	-0.0037	-0.0022	-0.0033	-0.0021	-0.0021	-0.0027	-0.0025	-0.0017	-0.0019	-0.002	-0.0018	-0.0017	-0.0022	-0.002	-0.002	-0.0018	-0.0016	-0.0016	-0.0015	-0.0019	-0.002	-0.0022	-0.0018	-0.0017	-0.0014	-0.002	-0.0011	-0.0014	-0.0024	-0.0014	-0.0015	-0.0022	-0.0017	-0.0012	-0.0019	-0.0013	-0.0019	-0.0018	-0.0017	-0.001	-0.0015	-0.0016	-0.0021	-0.0017	-0.0011	-0.0015	-0.0016	-0.0021	-0.0019	-0.0017	-0.0017	-0.002	-0.0015	-0.0021	-0.0017	-0.0015	-0.0021	-0.0015	-0.0016	-0.0018	-0.002	-0.0016	-0.0013	-0.0022	-0.0018	-0.0014	-0.0019	-0.0016	-0.0014	-0.0011	-0.0016	-0.0024	-0.0012	-0.0015	-0.0012	-0.0018	-0.0015	-0.0014	-0.0016	-0.0013	-0.001	-0.0015	-0.0021	-0.0014	-0.0015	-0.001	-0.0016	-0.001	-0.0017	-0.0019	-0.0013	-0.0019	-0.0015	-0.0019	-0.0014
covar_vc_estimate	0.2887	0.137	-0.1133	-0.1821	-0.0058	0.0006	-0.004	-0.0003	0.0036	-0.0258	0.0043	-0.0473	0.0026	-0.0045	-0.0168	-0.0104	-0.0123	0.0043	0.0035	-0.014	-0.0024	0.003	-0.0175	-0.0021	-0.0152	0.0039	-0.0084	-0.0014	0.0028	-0.0118	-0.0222	0.0017	0.0002	0.0042	0.0001	0.0022	-0.0407	-0.007	-0.0006	0.0034	-0.0036	0.0032	0.0031	-0.0032	-0.0084	0.0023	-0.0094	-0.047	0.0031	-0.001	0.0025	0.0006	0.0011	-0.0027	0.0021	0.0015	-0.0201	-0.0069	-0.0173	-0.0003	0.0018	-0.0401	0.0025	0.0042	0.0027	0.0018	-0.0171	-0.0007	0.0045	0.0026	0.0016	-0.0111	0.0015	0.0031	0.0016	0.0029	-0.0014	0.0021	-0.0144	-0.002	0.004	-0.0023	0.0017	-0.001	0.0014	-0.0051	-0.0008	-0.0009	-0.0231	-0.0064	-0.0002	-0.0065	0.0026	0.002	-0.0066	0.0003	0.0024	-0.015	-0.0024	-0.0017
covar_vc_estimate_se	0.7648	0.5223	0.3233	0.3296	0.1253	0.1129	0.0864	0.1076	0.0854	0.0856	0.0972	0.0927	0.0775	0.0805	0.0815	0.0796	0.0763	0.0869	0.0829	0.0824	0.0793	0.0739	0.0741	0.0722	0.0801	0.0834	0.0868	0.0801	0.0751	0.0699	0.0827	0.0618	0.0706	0.0913	0.0699	0.071	0.0851	0.0756	0.0651	0.0809	0.0662	0.0811	0.0793	0.0761	0.0603	0.0727	0.0765	0.0873	0.077	0.0622	0.0736	0.0729	0.0868	0.0829	0.0749	0.0771	0.0835	0.0722	0.0858	0.0777	0.0713	0.0855	0.0721	0.0721	0.0776	0.0822	0.0735	0.065	0.0876	0.0779	0.0719	0.0816	0.0745	0.0685	0.0624	0.0734	0.09	0.0652	0.0735	0.0652	0.0793	0.0712	0.0687	0.0754	0.0668	0.0594	0.0714	0.0847	0.0713	0.0708	0.0589	0.0744	0.0583	0.0765	0.0806	0.067	0.0816	0.0717	0.0809	0.0705
covar_vc_pvals	0.076	0.065	0.274	0.098	0.485	0.476	0.316	0.388	0.11	0.097	0.125	0.012	0.129	0.324	0.017	0.105	0.317	0.026	0.054	0.106	0.434	0.038	0.015	0.327	0.033	0.048	0.29	0.392	0.08	0.181	0.17	0.117	0.23	0.048	0.206	0.101	0.022	0.252	0.239	0.064	0.311	0.085	0.116	0.462	0.169	0.133	0.075	0.043	0.042	0.303	0.083	0.198	0.178	0.451	0.202	0.187	0.355	0.257	0.15	0.31	0.138	0.022	0.064	0.015	0.057	0.18	0.066	0.35	0.055	0.109	0.184	0.261	0.124	0.019	0.105	0.057	0.259	0.066	0.188	0.28	0.057	0.383	0.232	0.357	0.258	0.366	0.432	0.228	0.125	0.249	0.368	0.403	0.019	0.171	0.364	0.445	0.107	0.176	0.469	0.486
upper975_perm_covar	0.3362	0.1738	0.0678	0.0727	0.0105	0.0079	0.0046	0.0093	0.0056	0.0041	0.0066	0.0069	0.0038	0.0041	0.0048	0.0045	0.0032	0.0046	0.0044	0.0051	0.0048	0.0035	0.0033	0.0036	0.0044	0.0048	0.0038	0.0049	0.0044	0.0037	0.0047	0.0029	0.0031	0.0052	0.0038	0.0033	0.0052	0.0047	0.0024	0.005	0.0031	0.0049	0.0047	0.0038	0.0024	0.0037	0.0039	0.0056	0.0037	0.0022	0.0039	0.0035	0.0043	0.0049	0.0038	0.0044	0.005	0.0042	0.0049	0.0045	0.0034	0.0058	0.0032	0.0037	0.0035	0.0049	0.0041	0.0033	0.0059	0.0046	0.0036	0.0044	0.0039	0.0031	0.0027	0.0038	0.0052	0.0029	0.0036	0.0032	0.005	0.003	0.0036	0.0043	0.0039	0.0024	0.0036	0.0039	0.0029	0.0037	0.0023	0.0038	0.0024	0.0043	0.0046	0.0033	0.0046	0.0035	0.0049	0.0031
lower025_perm_covar	-1.6504	-1.0964	-0.3923	-0.3079	-0.0658	-0.0266	-0.024	-0.0437	-0.0219	-0.0389	-0.0268	-0.0419	-0.0136	-0.0213	-0.0153	-0.0182	-0.0364	-0.045	-0.0287	-0.0249	-0.0372	-0.0281	-0.0149	-0.037	-0.0166	-0.02	-0.065	-0.0359	-0.0222	-0.0241	-0.0475	-0.0141	-0.0249	-0.0543	-0.0296	-0.0193	-0.0396	-0.0237	-0.0196	-0.03	-0.0155	-0.0274	-0.0231	-0.0362	-0.0185	-0.0197	-0.0142	-0.0568	-0.0225	-0.023	-0.0281	-0.0177	-0.0422	-0.0359	-0.0136	-0.0295	-0.07	-0.0193	-0.0325	-0.0356	-0.0204	-0.0393	-0.0242	-0.016	-0.0233	-0.0387	-0.0219	-0.0242	-0.0241	-0.0343	-0.0249	-0.0365	-0.0253	-0.0259	-0.0238	-0.0309	-0.0509	-0.0195	-0.0312	-0.032	-0.0206	-0.0325	-0.0126	-0.0348	-0.0149	-0.0193	-0.0198	-0.0381	-0.0378	-0.0189	-0.015	-0.0321	-0.0112	-0.0259	-0.0365	-0.0112	-0.0543	-0.0305	-0.0235	-0.0189
