	PC1	PC2	PC3	PC4	PC5	PC6	PC7	PC8	PC9	PC10	PC11	PC12	PC13	PC14	PC15	PC16	PC17	PC18	PC19	PC20	PC21	PC22	PC23	PC24	PC25	PC26	PC27	PC28	PC29	PC30	PC31	PC32	PC33	PC34	PC35	PC36	PC37	PC38	PC39	PC40	PC41	PC42	PC43	PC44	PC45	PC46	PC47	PC48	PC49	PC50	PC51	PC52	PC53	PC54	PC55	PC56	PC57	PC58	PC59	PC60	PC61	PC62	PC63	PC64	PC65	PC66	PC67	PC68	PC69	PC70	PC71	PC72	PC73	PC74	PC75	PC76	PC77	PC78	PC79	PC80	PC81	PC82	PC83	PC84	PC85	PC86	PC87	PC88	PC89	PC90	PC91	PC92	PC93	PC94	PC95	PC96	PC97	PC98	PC99	PC100
direct_vc_estimate	-0.0327	0.0636	-0.0022	-0.0062	-0.0093	0.0041	-0.0083	-0.0055	0.035	-0.0102	-0.0092	-0.0089	0.0047	-0.0001	-0.0063	-0.0061	0.0156	-0.002	0.0097	0.0015	-0.0068	0.0481	-0.0097	0.0333	0.001	-0.0088	-0.0067	-0.0041	0.0004	-0.0003	0.0106	0.008	-0.0087	0.0047	-0.009	-0.0029	-0.0058	-0.0087	0.0363	-0.0092	-0.0006	0.0217	-0.009	0.0306	-0.0066	-0.0102	0.004	-0.0084	0.0161	-0.0003	-0.0095	-0.0027	-0.0091	0.0014	0.1114	-0.0027	-0.0089	-0.0057	-0.0079	-0.0015	0.0004	0.0027	0.007	0.0028	-0.0076	0.0035	-0.0066	-0.0087	-0.0077	-0.0069	0.0026	-0.0047	0.0056	0.014	-0.0013	0.0237	-0.0018	0.0137	0.0092	-0.0086	0.1451	-0.0085	-0.0069	-0.0095	0.0032	0.0175	-0.0055	0.0288	-0.0045	0.1034	0.0025	-0.0102	0.0219	-0.0083	-0.008	-0.0075	-0.0061	-0.0065	0.0179	-0.0069
direct_vc_estimate_se	0.0044	0.002	0.0014	0.0014	0.0013	0.0013	0.0012	0.0013	0.0014	0.0014	0.0013	0.0012	0.0013	0.0012	0.0015	0.0011	0.0015	0.0014	0.0013	0.0011	0.0016	0.0011	0.0013	0.0012	0.0016	0.0012	0.0012	0.0014	0.0013	0.0012	0.0011	0.0014	0.0012	0.0013	0.0012	0.0013	0.0013	0.0012	0.0012	0.0014	0.0012	0.0012	0.0013	0.0012	0.0011	0.0014	0.0012	0.0013	0.0012	0.0012	0.0013	0.0012	0.0012	0.0012	0.0013	0.001	0.0012	0.001	0.0012	0.0012	0.0013	0.0012	0.0013	0.0012	0.0014	0.0012	0.001	0.0012	0.001	0.001	0.0011	0.0012	0.0012	0.0012	0.0015	0.0013	0.0011	0.0016	0.0011	0.0012	0.0013	0.0011	0.0011	0.0013	0.0013	0.001	0.001	0.0012	0.0011	0.0013	0.0012	0.0014	0.0012	0.0011	0.0012	0.0012	0.0011	0.0013	0.0011	0.0011
direct_vc_pvals	0.957	0.149	0.516	0.654	0.948	0.568	0.832	0.632	0.231	0.901	0.878	0.947	0.389	0.374	0.631	0.732	0.353	0.601	0.405	0.419	0.712	0.054	0.983	0.113	0.54	0.992	0.766	0.678	0.556	0.533	0.324	0.36	0.982	0.403	0.992	0.513	0.697	0.928	0.14	0.829	0.485	0.169	0.948	0.123	0.722	0.961	0.36	0.804	0.258	0.418	0.878	0.545	0.901	0.416	0.007	0.528	0.939	0.687	0.814	0.524	0.587	0.403	0.32	0.404	0.725	0.412	0.792	0.856	0.981	0.851	0.378	0.659	0.386	0.227	0.551	0.221	0.471	0.356	0.313	0.85	0.005	0.962	0.724	0.902	0.349	0.18	0.657	0.141	0.611	0.022	0.377	0.959	0.282	0.902	0.849	0.789	0.697	0.695	0.274	0.735
upper95_perm_direct	0.1644	0.1458	0.0708	0.0862	0.0927	0.1355	0.0729	0.0668	0.1265	0.0799	0.0815	0.0761	0.072	0.0422	0.1032	0.0821	0.1157	0.1143	0.0932	0.0542	0.1422	0.0606	0.0839	0.0601	0.1209	0.0858	0.0953	0.146	0.1036	0.0833	0.077	0.097	0.0743	0.0791	0.0788	0.0637	0.0907	0.0923	0.0822	0.0921	0.0743	0.0624	0.1178	0.0667	0.0596	0.079	0.0574	0.0766	0.0828	0.0506	0.0618	0.0623	0.058	0.0533	0.0707	0.0521	0.093	0.0497	0.073	0.0623	0.1079	0.0638	0.0665	0.0517	0.0738	0.0685	0.0622	0.0624	0.0509	0.0623	0.056	0.0805	0.0667	0.0635	0.0958	0.0806	0.0463	0.1194	0.0592	0.0839	0.0744	0.0699	0.0535	0.1167	0.067	0.0601	0.0404	0.0754	0.0618	0.0914	0.0519	0.1259	0.0971	0.0753	0.0992	0.0629	0.0775	0.0941	0.0993	0.0596
lower0_perm_direct	-0.0482	-0.0215	-0.0141	-0.0146	-0.0135	-0.0129	-0.0135	-0.0139	-0.0155	-0.0155	-0.0141	-0.013	-0.0132	-0.013	-0.0162	-0.0123	-0.016	-0.0154	-0.0131	-0.0116	-0.0168	-0.0121	-0.0139	-0.0135	-0.018	-0.0125	-0.0135	-0.0149	-0.014	-0.0125	-0.0116	-0.0149	-0.0121	-0.0139	-0.0125	-0.0142	-0.0135	-0.0125	-0.0128	-0.0154	-0.0127	-0.0136	-0.0129	-0.0126	-0.0121	-0.015	-0.0135	-0.0137	-0.0137	-0.0129	-0.0142	-0.0128	-0.0132	-0.0127	-0.0135	-0.0115	-0.0129	-0.0111	-0.0131	-0.0127	-0.0142	-0.0136	-0.0136	-0.0128	-0.0151	-0.0134	-0.011	-0.0131	-0.0109	-0.0107	-0.012	-0.0127	-0.013	-0.0127	-0.0152	-0.0133	-0.0123	-0.0161	-0.0117	-0.013	-0.0138	-0.0126	-0.0119	-0.0136	-0.0134	-0.0108	-0.0115	-0.0135	-0.0117	-0.014	-0.0118	-0.0136	-0.0126	-0.0127	-0.0131	-0.0124	-0.0122	-0.0144	-0.0121	-0.0123
sad_vc_estimate	-0.0083	0.1064	0.0311	-0.005	-0.0058	0.0111	-0.0071	-0.0088	0.0702	-0.0071	-0.0077	-0.0075	0.0157	0.009	0.0016	0.0104	0.0177	0.0051	-0.0071	0.0038	-0.0109	0.0561	-0.0092	0.0225	-0.0093	-0.0045	-0.0072	-0.0091	0.0018	0.0017	-0.0046	-0.0063	-0.0075	0.0245	0.0019	-0.0094	-0.0096	-0.0069	0.0424	-0.0085	0.0071	-0.0001	-0.0053	0.0221	-0.0068	-0.0071	0.0196	-0.009	0.0225	-0.0009	-0.0086	0.0159	-0.0093	0.0038	0.1256	-0.0035	-0.0076	-0.0074	-0.0089	0.0231	-0.0036	0.0061	0.0008	-0.0053	-0.0058	-0.0079	-0.0066	-0.0093	-0.0074	-0.0023	0.0215	-0.0063	0.0081	-0.0009	-0.0034	0.0612	-0.0051	0.0283	0.0243	0.0163	0.2076	-0.0072	-0.0079	-0.0085	0.0098	0.003	-0.0078	0.0492	-0.0017	0.1141	0.0199	-0.0042	0.0174	-0.0002	-0.0089	-0.0052	-0.0075	-0.0092	0.061	-0.0049
sad_vc_estimate_se	0.0044	0.0021	0.0014	0.0014	0.0013	0.0013	0.0012	0.0013	0.0014	0.0014	0.0013	0.0012	0.0013	0.0012	0.0015	0.0011	0.0015	0.0014	0.0013	0.0011	0.0016	0.0011	0.0013	0.0012	0.0016	0.0012	0.0012	0.0014	0.0013	0.0012	0.0011	0.0014	0.0012	0.0013	0.0012	0.0013	0.0013	0.0012	0.0012	0.0014	0.0012	0.0012	0.0013	0.0012	0.0012	0.0014	0.0012	0.0013	0.0012	0.0012	0.0013	0.0012	0.0013	0.0012	0.0013	0.001	0.0012	0.001	0.0012	0.0012	0.0013	0.0012	0.0013	0.0012	0.0014	0.0012	0.001	0.0012	0.001	0.001	0.0011	0.0012	0.0012	0.0012	0.0015	0.0013	0.0011	0.0016	0.0011	0.0012	0.0013	0.0011	0.0011	0.0013	0.0013	0.001	0.001	0.0012	0.0011	0.0013	0.0012	0.0014	0.0012	0.0011	0.0012	0.0012	0.0012	0.0013	0.0011	0.0011
sad_vc_pvals	0.529	0.135	0.161	0.661	0.706	0.528	0.746	0.85	0.198	0.68	0.812	0.795	0.299	0.283	0.543	0.372	0.342	0.52	0.766	0.405	0.9	0.064	0.868	0.194	0.759	0.652	0.796	0.857	0.506	0.498	0.673	0.719	0.821	0.243	0.519	0.86	0.969	0.775	0.151	0.813	0.416	0.484	0.767	0.165	0.737	0.739	0.192	0.873	0.277	0.476	0.82	0.291	0.954	0.457	0.006	0.615	0.824	0.897	0.941	0.219	0.647	0.4	0.449	0.659	0.672	0.787	0.834	0.945	0.877	0.615	0.197	0.733	0.366	0.533	0.64	0.098	0.648	0.218	0.251	0.292	0.005	0.82	0.818	0.824	0.379	0.441	0.964	0.115	0.565	0.032	0.169	0.708	0.346	0.532	0.941	0.661	0.835	0.854	0.116	0.659
upper95_perm_sad	0.2447	0.229	0.084	0.1177	0.1066	0.1578	0.0829	0.0947	0.186	0.0707	0.1087	0.0865	0.0907	0.0614	0.1527	0.1036	0.1232	0.1465	0.1087	0.0639	0.18	0.0769	0.0876	0.0836	0.1164	0.1077	0.108	0.1537	0.0968	0.0983	0.0837	0.1186	0.0769	0.093	0.1057	0.0676	0.1107	0.1237	0.1137	0.1343	0.1019	0.0875	0.1283	0.0623	0.0757	0.122	0.0708	0.0984	0.1063	0.0713	0.0937	0.0881	0.0714	0.0849	0.0789	0.0709	0.1297	0.0734	0.0833	0.0874	0.1087	0.0881	0.0794	0.0669	0.0906	0.069	0.08	0.0835	0.0602	0.0789	0.0686	0.0862	0.0822	0.0982	0.1359	0.1125	0.0535	0.1065	0.0997	0.0851	0.1178	0.087	0.0539	0.1474	0.0924	0.0721	0.0532	0.0877	0.09	0.0998	0.0644	0.1445	0.1277	0.0909	0.1016	0.0728	0.0866	0.1026	0.1237	0.0852
lower0_perm_sad	-0.0488	-0.0217	-0.0144	-0.015	-0.014	-0.0136	-0.0131	-0.0143	-0.0143	-0.0153	-0.0133	-0.0133	-0.0142	-0.013	-0.017	-0.0124	-0.016	-0.0157	-0.0135	-0.0117	-0.0165	-0.0117	-0.0135	-0.0132	-0.0171	-0.0125	-0.0138	-0.0149	-0.0133	-0.0127	-0.0122	-0.0153	-0.0123	-0.0133	-0.0129	-0.0141	-0.0139	-0.0127	-0.0137	-0.0152	-0.0125	-0.0129	-0.0133	-0.0123	-0.0126	-0.0147	-0.0137	-0.0138	-0.0125	-0.0128	-0.0143	-0.0136	-0.0131	-0.0123	-0.0141	-0.0104	-0.0125	-0.0108	-0.0129	-0.0126	-0.0144	-0.0131	-0.0136	-0.0128	-0.015	-0.0137	-0.0107	-0.0131	-0.0112	-0.0103	-0.0114	-0.0131	-0.0122	-0.0131	-0.0159	-0.0136	-0.012	-0.0171	-0.0123	-0.0134	-0.0143	-0.0124	-0.0124	-0.0147	-0.0137	-0.0108	-0.0111	-0.0127	-0.0119	-0.0143	-0.0123	-0.0137	-0.0126	-0.0126	-0.0134	-0.0124	-0.0121	-0.0147	-0.012	-0.0121
covar_vc_estimate	0.0698	-0.1655	-0.0158	0.0112	0.0205	-0.0146	0.0215	0.0155	-0.1002	0.0188	0.0174	0.0171	-0.0189	-0.0073	0.0065	0.0038	-0.0333	-0.0021	0.0053	-0.0051	0.0271	-0.1041	0.0193	-0.055	0.0119	0.0178	0.0138	0.0151	-0.0021	-0.0013	-0.0003	0.0031	0.0177	-0.025	0.0176	0.0242	0.0199	0.0163	-0.0786	0.0178	-0.0053	-0.0152	0.0164	-0.0522	0.0133	0.0197	-0.0206	0.0175	-0.0383	0.0012	0.0183	-0.0071	0.0184	-0.0051	-0.2366	0.0062	0.0172	0.0139	0.0174	-0.013	0.0036	-0.0087	-0.0072	0.0048	0.0136	0.0101	0.0132	0.0182	0.0154	0.0182	-0.0194	0.0112	-0.0136	-0.0094	0.0047	-0.0779	0.0074	-0.0404	-0.0311	0.01	-0.3475	0.0175	0.015	0.0182	-0.0123	-0.0175	0.016	-0.0758	0.0066	-0.2173	-0.0184	0.0221	-0.0392	0.0146	0.0191	0.0133	0.0138	0.0165	-0.0686	0.0122
covar_vc_estimate_se	0.3632	0.2479	0.2017	0.2046	0.1949	0.1951	0.1931	0.1978	0.2056	0.2064	0.196	0.191	0.1942	0.1882	0.2147	0.1823	0.2117	0.2081	0.1955	0.1811	0.2162	0.1841	0.1975	0.1902	0.2203	0.1885	0.192	0.2027	0.1969	0.1904	0.1842	0.2061	0.187	0.1971	0.1907	0.2002	0.1965	0.1904	0.1914	0.2044	0.1895	0.1917	0.1941	0.1864	0.1858	0.2028	0.1911	0.1971	0.192	0.1885	0.199	0.1924	0.1934	0.1881	0.1959	0.1763	0.1907	0.1756	0.1899	0.1904	0.1976	0.191	0.197	0.1874	0.2028	0.1919	0.1736	0.1934	0.1765	0.1726	0.1808	0.1893	0.1868	0.1903	0.2103	0.195	0.1822	0.2193	0.1839	0.1934	0.1977	0.1852	0.1854	0.2003	0.1949	0.175	0.1765	0.1899	0.1845	0.1996	0.1875	0.2033	0.1896	0.1847	0.1912	0.1864	0.1857	0.2006	0.1804	0.1843
covar_vc_pvals	0.035	0.113	0.366	0.225	0.026	0.332	0.01	0.133	0.208	0.087	0.064	0.053	0.402	0.379	0.282	0.298	0.395	0.309	0.261	0.475	0.017	0.029	0.062	0.129	0.205	0.046	0.1	0.104	0.358	0.367	0.37	0.31	0.039	0.349	0.046	0.022	0.034	0.073	0.118	0.091	0.465	0.36	0.037	0.108	0.152	0.069	0.288	0.078	0.285	0.444	0.079	0.478	0.052	0.482	0.001	0.307	0.051	0.083	0.062	0.447	0.239	0.464	0.456	0.37	0.189	0.239	0.108	0.065	0.044	0.006	0.311	0.178	0.434	0.445	0.28	0.122	0.32	0.316	0.296	0.211	0.0	0.04	0.144	0.058	0.437	0.345	0.046	0.09	0.275	0.008	0.288	0.017	0.342	0.121	0.017	0.132	0.117	0.108	0.174	0.19
upper975_perm_covar	0.0901	0.0398	0.0266	0.0289	0.0251	0.0229	0.0242	0.0266	0.0274	0.0286	0.0246	0.0227	0.0268	0.0233	0.0319	0.0224	0.0292	0.028	0.0257	0.0222	0.0315	0.0232	0.0268	0.0244	0.0315	0.0238	0.0238	0.0276	0.0252	0.024	0.0223	0.0279	0.0228	0.0276	0.0238	0.0297	0.0256	0.0241	0.0244	0.0272	0.0234	0.0248	0.0226	0.0249	0.0236	0.0282	0.0259	0.0256	0.024	0.0235	0.0269	0.0261	0.0255	0.0229	0.0251	0.0217	0.0242	0.0201	0.0246	0.0236	0.024	0.0246	0.0274	0.0237	0.0277	0.0249	0.0206	0.0261	0.0199	0.019	0.0225	0.0236	0.024	0.0255	0.0296	0.0263	0.0216	0.0328	0.0226	0.0265	0.0259	0.0232	0.0265	0.0262	0.0269	0.0194	0.0212	0.0241	0.0231	0.027	0.0237	0.0257	0.0234	0.0232	0.0233	0.0213	0.0228	0.0267	0.0199	0.0225
lower025_perm_covar	-0.3879	-0.3417	-0.1469	-0.1797	-0.1645	-0.2602	-0.1482	-0.1566	-0.2845	-0.1464	-0.1729	-0.1631	-0.1547	-0.0943	-0.2433	-0.1651	-0.2191	-0.2401	-0.1844	-0.1184	-0.2983	-0.1316	-0.1644	-0.1295	-0.2292	-0.1804	-0.1837	-0.3144	-0.1992	-0.1656	-0.141	-0.1876	-0.1513	-0.1604	-0.1624	-0.125	-0.1772	-0.189	-0.1834	-0.2236	-0.1738	-0.1395	-0.2226	-0.1143	-0.121	-0.1915	-0.1257	-0.1584	-0.1563	-0.1061	-0.1556	-0.1496	-0.125	-0.1273	-0.1385	-0.118	-0.2039	-0.1135	-0.1451	-0.1457	-0.2018	-0.147	-0.1358	-0.1132	-0.1686	-0.1324	-0.13	-0.1442	-0.0934	-0.144	-0.1094	-0.1549	-0.1366	-0.1478	-0.2073	-0.1783	-0.0916	-0.2022	-0.1512	-0.1549	-0.186	-0.1373	-0.1013	-0.2485	-0.1387	-0.1102	-0.087	-0.1575	-0.1356	-0.1707	-0.1071	-0.2357	-0.1968	-0.1358	-0.1945	-0.136	-0.1383	-0.1727	-0.1976	-0.1309
