	PC1	PC2	PC3	PC4	PC5	PC6	PC7	PC8	PC9	PC10	PC11	PC12	PC13	PC14	PC15	PC16	PC17	PC18	PC19	PC20	PC21	PC22	PC23	PC24	PC25	PC26	PC27	PC28	PC29	PC30	PC31	PC32	PC33	PC34	PC35	PC36	PC37	PC38	PC39	PC40	PC41	PC42	PC43	PC44	PC45	PC46	PC47	PC48	PC49	PC50	PC51	PC52	PC53	PC54	PC55	PC56	PC57	PC58	PC59	PC60	PC61	PC62	PC63	PC64	PC65	PC66	PC67	PC68	PC69	PC70	PC71	PC72	PC73	PC74	PC75	PC76	PC77	PC78	PC79	PC80	PC81	PC82	PC83	PC84	PC85	PC86	PC87	PC88	PC89	PC90	PC91	PC92	PC93	PC94	PC95	PC96	PC97	PC98	PC99	PC100
direct_vc_estimate	0.3727	-0.1461	0.3219	-0.0421	-0.0098	0.0036	0.0111	-0.007	-0.002	0.0036	-0.0014	-0.0044	0.0337	-0.0004	-0.001	-0.0033	0.0096	-0.003	-0.0034	0.0037	-0.0012	-0.004	0.0002	-0.0031	-0.0007	0.0005	-0.0027	0.0081	0.001	-0.0036	0.0035	-0.001	0.0068	0.0239	0.0038	-0.0018	-0.003	-0.0031	0.0006	0.0056	-0.0021	-0.0027	-0.0043	-0.0026	-0.002	-0.0025	0.0058	-0.0035	-0.005	0.0073	-0.0036	-0.0007	0.0074	-0.0041	0.0097	0.005	-0.0009	-0.0044	0.007	0.0094	0.0145	-0.0022	-0.0016	0.0118	0.0085	-0.0011	0.0032	-0.0021	-0.0034	-0.0035	0.0033	0.0017	0.0039	-0.0054	0.0016	0.0048	0.0014	0.007	0.0008	-0.0031	-0.0027	0.0061	-0.0031	0.0095	-0.0023	-0.0033	-0.0007	0.0041	-0.0035	-0.0036	-0.0035	-0.003	0.002	0.0082	0.0063	-0.0031	-0.0006	-0.0028	-0.0001	-0.0033
direct_vc_estimate_se	0.0464	0.0327	0.0133	0.0094	0.0031	0.0023	0.0013	0.0032	0.0011	0.0013	0.001	0.001	0.0013	0.0019	0.0013	0.0015	0.0014	0.0008	0.0007	0.0018	0.0011	0.0013	0.0009	0.0007	0.0007	0.0007	0.0008	0.0007	0.0008	0.0008	0.0012	0.0008	0.0009	0.0025	0.0007	0.0011	0.0009	0.001	0.0008	0.001	0.0008	0.0008	0.0014	0.0012	0.001	0.0009	0.0008	0.0008	0.0013	0.0008	0.0009	0.0009	0.0008	0.0009	0.0012	0.0009	0.0008	0.0011	0.0009	0.0008	0.0008	0.0008	0.0008	0.0008	0.0015	0.0008	0.0009	0.0008	0.0009	0.0012	0.0021	0.0008	0.0007	0.0012	0.0008	0.0008	0.0011	0.0007	0.0008	0.0007	0.0008	0.0009	0.0007	0.0008	0.0007	0.0008	0.0008	0.0012	0.0008	0.0008	0.0008	0.0008	0.0009	0.0009	0.0007	0.0008	0.0008	0.0007	0.0007	0.0008
direct_vc_pvals	0.159	0.948	0.022	0.965	0.651	0.435	0.161	0.838	0.473	0.379	0.494	0.873	0.023	0.697	0.433	0.749	0.35	0.726	0.978	0.571	0.488	0.68	0.323	0.913	0.47	0.33	0.678	0.115	0.333	0.963	0.441	0.516	0.238	0.364	0.312	0.639	0.717	0.686	0.384	0.296	0.602	0.656	0.768	0.723	0.653	0.659	0.164	0.912	0.881	0.139	0.784	0.542	0.19	0.976	0.304	0.237	0.492	0.875	0.233	0.135	0.078	0.567	0.539	0.095	0.382	0.506	0.289	0.583	0.803	0.72	0.645	0.346	0.185	0.975	0.362	0.191	0.48	0.177	0.396	0.876	0.702	0.204	0.787	0.082	0.606	0.848	0.438	0.448	0.973	0.92	0.972	0.768	0.382	0.187	0.12	0.794	0.423	0.756	0.412	0.872
upper95_perm_direct	0.7773	0.6195	0.1909	0.1956	0.0596	0.0515	0.0256	0.0821	0.0154	0.0301	0.0204	0.0187	0.0251	0.0428	0.0228	0.0371	0.0396	0.0124	0.0139	0.0467	0.0202	0.0253	0.012	0.0111	0.0137	0.0126	0.0201	0.0139	0.0144	0.0183	0.0382	0.0195	0.0245	0.0595	0.0232	0.0299	0.0253	0.0239	0.0147	0.0235	0.0197	0.0163	0.0387	0.0326	0.025	0.0191	0.015	0.0196	0.0334	0.014	0.0249	0.0291	0.0211	0.0246	0.0354	0.0172	0.016	0.0313	0.0237	0.0174	0.0186	0.0146	0.0126	0.0161	0.038	0.0157	0.0172	0.0149	0.0204	0.0328	0.0512	0.0185	0.0132	0.0319	0.0188	0.0152	0.0313	0.0179	0.0208	0.0175	0.022	0.0205	0.0138	0.0124	0.0116	0.018	0.0134	0.0375	0.0156	0.0181	0.0166	0.0137	0.0207	0.0193	0.0113	0.0128	0.0124	0.0151	0.013	0.0173
lower0_perm_direct	-0.2333	-0.1562	-0.0636	-0.0461	-0.0157	-0.0113	-0.0063	-0.0154	-0.0052	-0.0066	-0.0052	-0.005	-0.006	-0.0092	-0.0064	-0.0072	-0.0066	-0.0038	-0.0037	-0.0084	-0.0052	-0.0065	-0.0042	-0.0034	-0.0032	-0.0035	-0.0039	-0.0035	-0.0038	-0.0039	-0.0057	-0.0037	-0.0044	-0.0114	-0.0036	-0.0054	-0.0043	-0.0049	-0.0039	-0.005	-0.0039	-0.0039	-0.0065	-0.006	-0.005	-0.0042	-0.004	-0.0039	-0.0062	-0.0037	-0.0046	-0.0045	-0.004	-0.0044	-0.0061	-0.0043	-0.0037	-0.0051	-0.0046	-0.0036	-0.0039	-0.004	-0.0038	-0.004	-0.0073	-0.0038	-0.0041	-0.0039	-0.0043	-0.0056	-0.0099	-0.0037	-0.0034	-0.0058	-0.0041	-0.0039	-0.0054	-0.0036	-0.0039	-0.0034	-0.004	-0.0043	-0.0037	-0.004	-0.0036	-0.0038	-0.0036	-0.0058	-0.0037	-0.0039	-0.0038	-0.0037	-0.0043	-0.0043	-0.0035	-0.0038	-0.0037	-0.0036	-0.0037	-0.0037
sad_vc_estimate	0.1533	-0.1465	0.2401	-0.0399	-0.0134	-0.0039	0.0201	-0.0	0.0092	0.0069	0.0022	-0.0045	0.0135	0.0062	0.0034	-0.0056	0.0059	-0.0031	-0.003	0.0052	-0.0024	-0.0042	0.0011	-0.0032	-0.0001	0.0022	-0.0014	0.0078	0.0049	-0.0034	-0.0028	0.0052	0.0049	0.0187	0.0048	0.0002	-0.0039	-0.0013	0.0006	0.0046	0.0008	-0.0026	-0.0027	-0.0056	-0.0042	0.0021	0.0038	-0.0036	-0.004	0.0098	-0.0003	-0.0021	0.0005	-0.0039	0.0032	0.0074	-0.0013	-0.0048	0.0172	0.0112	0.0087	-0.0028	0.0033	0.0051	0.013	-0.0006	0.0147	-0.0012	-0.0038	-0.0008	-0.0006	0.0096	0.0094	-0.0054	0.0022	-0.0016	0.0022	0.0085	0.0031	-0.0032	-0.0022	-0.0014	-0.003	0.0178	-0.0033	-0.0029	0.0015	0.0099	-0.0028	-0.0028	-0.0034	-0.0018	-0.0015	0.0217	0.0037	-0.0024	-0.0029	-0.0027	-0.001	-0.0034
sad_vc_estimate_se	0.047	0.0331	0.0135	0.0095	0.0031	0.0023	0.0013	0.0032	0.0011	0.0014	0.0011	0.001	0.0013	0.0019	0.0013	0.0015	0.0014	0.0008	0.0008	0.0018	0.0011	0.0013	0.0009	0.0007	0.0007	0.0007	0.0008	0.0007	0.0008	0.0008	0.0012	0.0008	0.0009	0.0025	0.0007	0.0011	0.0009	0.001	0.0008	0.001	0.0008	0.0008	0.0014	0.0012	0.001	0.0009	0.0008	0.0008	0.0013	0.0008	0.0009	0.0009	0.0008	0.0009	0.0012	0.0009	0.0008	0.0011	0.001	0.0008	0.0008	0.0008	0.0008	0.0008	0.0015	0.0008	0.0009	0.0008	0.0009	0.0012	0.0021	0.0008	0.0007	0.0012	0.0009	0.0008	0.0011	0.0008	0.0008	0.0007	0.0008	0.0009	0.0008	0.0008	0.0007	0.0008	0.0008	0.0012	0.0008	0.0008	0.0008	0.0008	0.0009	0.0009	0.0007	0.0008	0.0008	0.0007	0.0007	0.0008
sad_vc_pvals	0.243	0.915	0.052	0.833	0.863	0.584	0.088	0.69	0.176	0.314	0.347	0.882	0.202	0.474	0.293	0.834	0.418	0.807	0.779	0.478	0.592	0.713	0.345	0.936	0.474	0.309	0.579	0.142	0.221	0.851	0.679	0.238	0.337	0.42	0.322	0.521	0.968	0.549	0.371	0.322	0.41	0.682	0.682	0.997	0.809	0.371	0.243	0.938	0.762	0.14	0.507	0.633	0.465	0.858	0.45	0.239	0.537	0.993	0.096	0.131	0.19	0.676	0.258	0.249	0.305	0.504	0.098	0.49	0.918	0.559	0.723	0.201	0.106	0.968	0.356	0.559	0.466	0.169	0.332	0.932	0.637	0.528	0.774	0.038	0.957	0.773	0.36	0.302	0.724	0.715	0.875	0.621	0.573	0.06	0.253	0.654	0.748	0.749	0.502	0.952
upper95_perm_sad	0.77	0.787	0.2466	0.1938	0.0788	0.0532	0.0264	0.0763	0.0232	0.0368	0.0241	0.0216	0.0341	0.049	0.0212	0.0365	0.0445	0.0156	0.0137	0.0465	0.0261	0.031	0.0165	0.0152	0.0141	0.0164	0.0222	0.0175	0.0171	0.0202	0.0374	0.0193	0.0291	0.0704	0.0255	0.0307	0.0254	0.0273	0.0175	0.0249	0.0204	0.0209	0.0478	0.0344	0.0252	0.023	0.0164	0.0229	0.0345	0.0172	0.0282	0.0246	0.0227	0.0252	0.0335	0.023	0.0204	0.0302	0.0232	0.0204	0.0224	0.0154	0.0171	0.0216	0.0442	0.0226	0.0203	0.0156	0.0228	0.0329	0.0551	0.023	0.0152	0.0316	0.0229	0.0184	0.0331	0.0202	0.0248	0.0205	0.0216	0.0177	0.0125	0.0153	0.0156	0.0193	0.0149	0.0399	0.0194	0.0221	0.0235	0.0219	0.0217	0.0242	0.0164	0.0161	0.0214	0.015	0.0159	0.0184
lower0_perm_sad	-0.2282	-0.1591	-0.0675	-0.0461	-0.0152	-0.0114	-0.0063	-0.0153	-0.0053	-0.0067	-0.005	-0.005	-0.0062	-0.0094	-0.0064	-0.0074	-0.0067	-0.0037	-0.0038	-0.0085	-0.0052	-0.0065	-0.0043	-0.0034	-0.0032	-0.0035	-0.0039	-0.0036	-0.0039	-0.0039	-0.0059	-0.0038	-0.0045	-0.0121	-0.0035	-0.0054	-0.0043	-0.0049	-0.0038	-0.0051	-0.0041	-0.004	-0.0066	-0.0059	-0.0051	-0.0042	-0.004	-0.0038	-0.0062	-0.0037	-0.0045	-0.0046	-0.0042	-0.0045	-0.0059	-0.0044	-0.0039	-0.0052	-0.0047	-0.0038	-0.004	-0.0039	-0.0038	-0.0039	-0.0073	-0.0038	-0.0042	-0.0039	-0.0041	-0.0058	-0.0097	-0.0038	-0.0035	-0.0059	-0.0041	-0.004	-0.0054	-0.0038	-0.0039	-0.0035	-0.004	-0.0044	-0.0036	-0.0039	-0.0035	-0.0037	-0.0037	-0.0058	-0.0038	-0.004	-0.0039	-0.0038	-0.0043	-0.0042	-0.0037	-0.0039	-0.0037	-0.0036	-0.0036	-0.0037
covar_vc_estimate	-0.5035	0.2972	-0.5582	0.0834	0.0318	0.0016	-0.0302	0.0081	-0.003	-0.0103	-0.0002	0.0088	-0.0437	-0.0049	-0.0018	0.0095	-0.0153	0.0076	0.0067	-0.0089	0.0037	0.0081	-0.0013	0.0064	0.0008	-0.0025	0.0043	-0.0159	-0.0053	0.0073	0.0012	-0.0023	-0.0117	-0.0425	-0.0086	0.0018	0.0081	0.0047	-0.0011	-0.0102	0.002	0.0052	0.0072	0.0112	0.0069	0.002	-0.0094	0.0073	0.0093	-0.017	0.0053	0.0029	-0.0065	0.0082	-0.012	-0.0123	0.0022	0.0095	-0.0226	-0.0206	-0.0227	0.0051	-0.0002	-0.016	-0.0213	0.0018	-0.0153	0.0034	0.0081	0.0049	-0.0023	-0.0094	-0.0125	0.0109	-0.0039	-0.0012	-0.0035	-0.0155	-0.0037	0.0062	0.005	-0.0022	0.0061	-0.0263	0.0063	0.0062	-0.0005	-0.0134	0.0069	0.0068	0.007	0.0052	0.0002	-0.0274	-0.0098	0.0057	0.0043	0.0075	0.0011	0.0069
covar_vc_estimate_se	0.924	0.7741	0.4937	0.413	0.2379	0.2055	0.152	0.2413	0.1411	0.1568	0.1376	0.1366	0.1516	0.1861	0.154	0.1659	0.1584	0.1176	0.1164	0.1785	0.1386	0.1556	0.1258	0.113	0.1093	0.1141	0.1203	0.114	0.1187	0.1205	0.1469	0.1178	0.1286	0.2132	0.1145	0.1421	0.1257	0.1334	0.1194	0.1358	0.1216	0.1194	0.1576	0.1497	0.1374	0.1247	0.1215	0.1204	0.1512	0.1169	0.1305	0.1299	0.1236	0.129	0.1491	0.1276	0.1179	0.1383	0.1309	0.117	0.121	0.1205	0.1192	0.1213	0.1631	0.1196	0.1244	0.1202	0.1243	0.1451	0.1927	0.1171	0.113	0.1478	0.124	0.1212	0.1433	0.1167	0.1208	0.1134	0.1215	0.126	0.1162	0.1206	0.115	0.1173	0.1167	0.1478	0.1191	0.1214	0.1197	0.1181	0.1272	0.1241	0.1152	0.1181	0.1176	0.1146	0.1156	0.1174
covar_vc_pvals	0.167	0.05	0.01	0.04	0.008	0.367	0.081	0.108	0.313	0.383	0.499	0.054	0.041	0.309	0.405	0.065	0.42	0.007	0.037	0.377	0.343	0.2	0.378	0.031	0.444	0.373	0.233	0.1	0.291	0.041	0.306	0.471	0.308	0.384	0.361	0.291	0.033	0.237	0.465	0.332	0.378	0.178	0.153	0.005	0.126	0.376	0.187	0.038	0.062	0.103	0.187	0.283	0.34	0.027	0.42	0.215	0.376	0.026	0.115	0.097	0.097	0.246	0.475	0.139	0.35	0.367	0.153	0.33	0.01	0.198	0.188	0.285	0.116	0.012	0.407	0.438	0.421	0.148	0.437	0.037	0.208	0.434	0.097	0.03	0.086	0.082	0.472	0.43	0.07	0.072	0.122	0.198	0.408	0.069	0.153	0.137	0.306	0.023	0.44	0.051
upper975_perm_covar	0.4438	0.3082	0.1346	0.0888	0.0284	0.0196	0.012	0.0207	0.0143	0.0131	0.0097	0.0093	0.0118	0.0153	0.0119	0.0117	0.0123	0.0072	0.0069	0.0138	0.0101	0.0126	0.009	0.0065	0.0068	0.0066	0.0073	0.0067	0.0075	0.0076	0.0102	0.0071	0.0088	0.0144	0.0067	0.0093	0.0084	0.0089	0.0069	0.0091	0.0081	0.0071	0.0127	0.01	0.0093	0.0082	0.0078	0.0076	0.0107	0.0069	0.0083	0.0092	0.01	0.0082	0.0102	0.0088	0.007	0.0095	0.0084	0.0067	0.0076	0.0073	0.007	0.0081	0.0126	0.0072	0.0074	0.0073	0.0075	0.0103	0.0125	0.0068	0.0066	0.0101	0.0082	0.0079	0.0098	0.0072	0.0073	0.0064	0.0075	0.0078	0.0069	0.0076	0.0071	0.007	0.0073	0.011	0.0076	0.0074	0.0088	0.0076	0.0082	0.0077	0.0075	0.0071	0.0083	0.0074	0.0069	0.0075
lower025_perm_covar	-1.333	-1.2253	-0.3743	-0.3511	-0.1164	-0.0909	-0.0461	-0.1413	-0.0356	-0.0595	-0.0394	-0.0362	-0.0493	-0.0818	-0.0419	-0.0648	-0.069	-0.0264	-0.0259	-0.0794	-0.0434	-0.0478	-0.0248	-0.0232	-0.0256	-0.0271	-0.0424	-0.0294	-0.0281	-0.0334	-0.074	-0.0377	-0.0474	-0.1115	-0.0447	-0.0563	-0.0499	-0.0495	-0.0335	-0.0408	-0.0368	-0.0384	-0.0768	-0.0562	-0.048	-0.0357	-0.0293	-0.0417	-0.0635	-0.0282	-0.0476	-0.0449	-0.0402	-0.0427	-0.0623	-0.0358	-0.036	-0.0503	-0.0452	-0.0353	-0.0366	-0.0287	-0.0277	-0.0326	-0.0704	-0.0365	-0.0365	-0.0275	-0.0434	-0.0624	-0.0976	-0.0376	-0.024	-0.0569	-0.0366	-0.0281	-0.0606	-0.0288	-0.0445	-0.0358	-0.0421	-0.0374	-0.0215	-0.0277	-0.0266	-0.0349	-0.0255	-0.07	-0.0304	-0.0362	-0.0365	-0.0379	-0.0377	-0.0391	-0.0239	-0.0255	-0.0319	-0.0305	-0.0259	-0.0333
