	PC1	PC2	PC3	PC4	PC5	PC6	PC7	PC8	PC9	PC10	PC11	PC12	PC13	PC14	PC15	PC16	PC17	PC18	PC19	PC20	PC21	PC22	PC23	PC24	PC25	PC26	PC27	PC28	PC29	PC30	PC31	PC32	PC33	PC34	PC35	PC36	PC37	PC38	PC39	PC40	PC41	PC42	PC43	PC44	PC45	PC46	PC47	PC48	PC49	PC50	PC51	PC52	PC53	PC54	PC55	PC56	PC57	PC58	PC59	PC60	PC61	PC62	PC63	PC64	PC65	PC66	PC67	PC68	PC69	PC70	PC71	PC72	PC73	PC74	PC75	PC76	PC77	PC78	PC79	PC80	PC81	PC82	PC83	PC84	PC85	PC86	PC87	PC88	PC89	PC90	PC91	PC92	PC93	PC94	PC95	PC96	PC97	PC98	PC99	PC100
direct_vc_estimate	-0.0142	0.0249	-0.0484	-0.065	-0.0498	0.3227	0.0378	-0.0035	-0.0369	0.0088	-0.0419	-0.0485	-0.0501	-0.0494	-0.011	0.1049	-0.0101	0.0325	0.057	0.458	0.0826	0.0842	-0.0288	-0.0374	-0.0471	-0.0479	0.0177	0.0496	0.1135	-0.0028	0.0581	-0.0192	0.0456	0.0342	0.1379	-0.0327	0.0248	0.3103	-0.0415	-0.0391	-0.0057	-0.0522	-0.0434	-0.0402	-0.0139	-0.0028	0.029	0.0308	0.0984	-0.0393	0.1955	-0.0445	0.0861	-0.0506	-0.0476	-0.0154	-0.0376	0.4158	-0.0505	-0.0175	-0.0344	-0.056	-0.0181	-0.0485	0.038	-0.0472	-0.0434	-0.0116	-0.0158	-0.0453	-0.033	-0.0236	-0.0484	-0.0502	-0.0318	-0.0162	-0.0468	-0.026	0.0228	0.0352	-0.0421	0.0253	-0.0404	-0.0117	-0.0202	0.0156	0.2	-0.0116	0.0109	-0.0501	-0.0328	-0.0443	-0.0252	0.0053	-0.024	-0.0435	0.0562	-0.0197	-0.0327	-0.034
direct_vc_estimate_se	0.0224	0.0102	0.0072	0.0084	0.0066	0.0071	0.0066	0.0062	0.0072	0.0077	0.006	0.0062	0.0064	0.0063	0.007	0.007	0.0064	0.0062	0.0066	0.006	0.0071	0.0064	0.0067	0.0071	0.0068	0.0062	0.0078	0.006	0.006	0.0066	0.006	0.0072	0.0065	0.0061	0.006	0.0066	0.0063	0.0063	0.0062	0.0068	0.0067	0.0067	0.0063	0.0062	0.0072	0.0079	0.0065	0.0065	0.0063	0.0063	0.006	0.006	0.0061	0.0065	0.0063	0.0067	0.0061	0.0065	0.007	0.0064	0.0062	0.0071	0.0068	0.0063	0.0066	0.0063	0.0063	0.0076	0.0056	0.0062	0.0063	0.0064	0.0062	0.0064	0.0063	0.0064	0.006	0.0064	0.0061	0.0063	0.006	0.0069	0.006	0.0061	0.0061	0.0067	0.0061	0.007	0.0066	0.0068	0.0063	0.0065	0.0061	0.0065	0.0066	0.0057	0.0064	0.0061	0.0061	0.007
direct_vc_pvals	0.386	0.373	0.745	0.917	0.875	0.042	0.264	0.408	0.612	0.31	0.775	0.934	1.0	0.99	0.471	0.121	0.392	0.279	0.236	0.004	0.17	0.166	0.551	0.586	0.779	0.922	0.317	0.253	0.121	0.444	0.203	0.411	0.234	0.257	0.118	0.625	0.312	0.021	0.74	0.657	0.403	0.941	0.745	0.733	0.45	0.355	0.285	0.246	0.139	0.712	0.038	0.839	0.164	0.974	0.857	0.472	0.654	0.009	0.823	0.521	0.637	0.991	0.491	0.894	0.23	0.866	0.777	0.413	0.469	0.807	0.623	0.566	0.931	0.977	0.606	0.518	0.932	0.549	0.342	0.284	0.791	0.274	0.727	0.468	0.484	0.331	0.098	0.427	0.331	0.82	0.624	0.765	0.575	0.432	0.511	0.882	0.239	0.457	0.579	0.576
upper95_perm_direct	0.7844	0.4434	0.2551	0.2937	0.3647	0.327	0.241	0.2188	0.2625	0.2088	0.2291	0.2116	0.2588	0.2454	0.2685	0.2368	0.2256	0.2768	0.2495	0.2256	0.2591	0.2387	0.2242	0.2288	0.2715	0.2604	0.2386	0.2556	0.2341	0.3081	0.2472	0.2545	0.2384	0.2225	0.2436	0.2622	0.2662	0.2666	0.2588	0.2478	0.2486	0.2233	0.2282	0.3001	0.2114	0.2501	0.2345	0.2271	0.2557	0.2819	0.1983	0.2281	0.242	0.215	0.2405	0.2515	0.2484	0.2929	0.2291	0.2875	0.2104	0.223	0.2558	0.2405	0.2089	0.2302	0.2585	0.2111	0.189	0.2173	0.2593	0.2591	0.2483	0.1965	0.2032	0.2667	0.256	0.2326	0.3249	0.2918	0.219	0.2323	0.2019	0.252	0.188	0.2744	0.3228	0.2275	0.1877	0.2411	0.2545	0.3112	0.2456	0.2718	0.2512	0.2121	0.2734	0.1971	0.1713	0.285
lower0_perm_direct	-0.2544	-0.1086	-0.082	-0.0914	-0.0794	-0.0788	-0.0785	-0.0738	-0.0798	-0.0855	-0.0683	-0.0676	-0.0757	-0.0675	-0.0739	-0.0756	-0.0705	-0.0665	-0.0701	-0.0671	-0.0819	-0.0711	-0.0694	-0.0816	-0.0799	-0.068	-0.0806	-0.0678	-0.0711	-0.0743	-0.0634	-0.0762	-0.0716	-0.0684	-0.0642	-0.0796	-0.0734	-0.0663	-0.0714	-0.081	-0.0703	-0.074	-0.0745	-0.0694	-0.0795	-0.0916	-0.0694	-0.0687	-0.0682	-0.0656	-0.0618	-0.0671	-0.07	-0.0683	-0.0727	-0.0727	-0.0656	-0.0748	-0.0763	-0.0719	-0.0668	-0.0808	-0.0735	-0.0669	-0.0718	-0.0685	-0.067	-0.0822	-0.0578	-0.07	-0.0677	-0.0693	-0.0716	-0.0689	-0.0662	-0.0765	-0.0678	-0.0725	-0.0654	-0.0702	-0.0715	-0.0757	-0.0668	-0.065	-0.0671	-0.0701	-0.0666	-0.0761	-0.074	-0.0815	-0.0736	-0.0706	-0.0659	-0.0708	-0.0765	-0.0609	-0.0661	-0.0672	-0.0689	-0.0831
sad_vc_estimate	0.0681	-0.0044	-0.0256	-0.0644	-0.0486	0.3512	0.029	0.0214	-0.0351	0.038	-0.034	-0.0489	-0.0465	-0.0495	0.0207	0.1736	-0.0243	0.0401	0.1256	0.541	0.0962	0.0457	-0.0223	-0.0329	-0.0354	-0.0488	0.0212	0.0575	0.1475	0.0006	0.0374	-0.0375	0.0281	0.0484	0.1525	-0.027	0.0383	0.362	-0.0382	-0.0396	-0.0025	-0.0427	-0.047	-0.0312	0.0738	0.0119	0.0507	0.0683	0.1112	-0.04	0.2245	-0.0407	0.0863	-0.0424	-0.0487	0.0121	-0.0415	0.4189	-0.0417	-0.0077	-0.0269	-0.0546	0.0077	-0.0364	0.026	-0.036	-0.0467	0.033	-0.0178	-0.0456	-0.0248	-0.0385	-0.0451	-0.048	-0.0347	0.0253	-0.0473	-0.0247	0.0156	0.055	-0.0454	-0.0057	-0.0408	-0.0361	0.0077	0.0166	0.0862	-0.0081	0.019	-0.0473	-0.0497	-0.0396	-0.0208	-0.0261	-0.0456	-0.0448	0.1245	-0.0322	-0.0246	-0.0331
sad_vc_estimate_se	0.0225	0.0102	0.0072	0.0084	0.0066	0.0071	0.0066	0.0062	0.0072	0.0077	0.006	0.0062	0.0064	0.0063	0.007	0.007	0.0065	0.0062	0.0066	0.006	0.0071	0.0065	0.0067	0.0071	0.0068	0.0062	0.0078	0.006	0.006	0.0066	0.006	0.0073	0.0065	0.0061	0.006	0.0066	0.0063	0.0063	0.0062	0.0068	0.0067	0.0067	0.0063	0.0062	0.0072	0.0079	0.0065	0.0065	0.0064	0.0063	0.006	0.006	0.0061	0.0065	0.0063	0.0067	0.0061	0.0065	0.007	0.0064	0.0063	0.0071	0.0068	0.0063	0.0066	0.0063	0.0063	0.0076	0.0056	0.0062	0.0063	0.0064	0.0062	0.0064	0.0063	0.0064	0.006	0.0064	0.0061	0.0063	0.006	0.0069	0.0061	0.0061	0.0061	0.0067	0.0061	0.007	0.0066	0.0068	0.0063	0.0065	0.0061	0.0065	0.0066	0.0057	0.0064	0.0061	0.0061	0.007
sad_vc_pvals	0.332	0.483	0.537	0.898	0.836	0.038	0.33	0.339	0.572	0.217	0.685	0.983	0.83	0.994	0.333	0.099	0.519	0.284	0.14	0.003	0.176	0.257	0.544	0.573	0.637	0.989	0.318	0.262	0.104	0.433	0.257	0.545	0.327	0.224	0.1	0.59	0.258	0.037	0.698	0.676	0.429	0.701	0.858	0.621	0.193	0.363	0.241	0.198	0.155	0.727	0.034	0.76	0.198	0.746	0.93	0.397	0.771	0.01	0.658	0.469	0.582	0.882	0.372	0.683	0.325	0.691	0.866	0.234	0.514	0.837	0.54	0.693	0.831	0.87	0.635	0.364	0.956	0.562	0.4	0.292	0.875	0.404	0.727	0.7	0.365	0.374	0.212	0.429	0.309	0.756	0.992	0.731	0.556	0.552	0.759	0.981	0.126	0.632	0.553	0.558
upper95_perm_sad	0.8071	0.651	0.3075	0.3093	0.3748	0.3355	0.3146	0.2558	0.2905	0.2365	0.3238	0.2728	0.2853	0.2046	0.3116	0.2889	0.2341	0.2791	0.2801	0.3214	0.3351	0.2735	0.2809	0.2851	0.249	0.3094	0.2966	0.3422	0.2937	0.2981	0.2426	0.2383	0.2989	0.2207	0.2724	0.3248	0.2312	0.3636	0.2525	0.2768	0.2752	0.1943	0.2827	0.2873	0.254	0.3121	0.2689	0.2552	0.2895	0.3221	0.2142	0.2476	0.3186	0.2601	0.2516	0.2951	0.2459	0.2735	0.2469	0.3143	0.2389	0.2011	0.3214	0.2689	0.3028	0.2901	0.2687	0.2167	0.2067	0.2623	0.2804	0.2894	0.3466	0.2381	0.2266	0.366	0.2513	0.2446	0.3337	0.3218	0.2613	0.23	0.1988	0.3036	0.2434	0.3025	0.3132	0.2845	0.2277	0.2631	0.2847	0.4039	0.3059	0.3265	0.2633	0.1936	0.2645	0.2458	0.2331	0.2704
lower0_perm_sad	-0.2669	-0.1042	-0.076	-0.0968	-0.0724	-0.0768	-0.0715	-0.0676	-0.0825	-0.0802	-0.0641	-0.0721	-0.0742	-0.0689	-0.0769	-0.075	-0.0763	-0.0694	-0.0705	-0.0636	-0.0767	-0.0736	-0.0771	-0.0745	-0.0703	-0.0695	-0.0861	-0.0626	-0.0684	-0.0717	-0.0669	-0.0835	-0.07	-0.0658	-0.0649	-0.0728	-0.0736	-0.074	-0.0712	-0.0816	-0.0761	-0.0726	-0.0717	-0.0685	-0.0805	-0.0842	-0.0679	-0.0759	-0.0682	-0.073	-0.0626	-0.0697	-0.0704	-0.0701	-0.0707	-0.0729	-0.0669	-0.0698	-0.0749	-0.0701	-0.0664	-0.0839	-0.0819	-0.0734	-0.0713	-0.0667	-0.0727	-0.082	-0.06	-0.0666	-0.0686	-0.0723	-0.0742	-0.072	-0.0663	-0.071	-0.0679	-0.0726	-0.0657	-0.0668	-0.0682	-0.0828	-0.0666	-0.0704	-0.0674	-0.0767	-0.0697	-0.0745	-0.076	-0.0748	-0.0735	-0.0781	-0.0691	-0.0745	-0.0793	-0.0685	-0.0718	-0.0677	-0.0689	-0.0819
covar_vc_estimate	-0.0457	-0.0183	0.0812	0.1351	0.0984	-0.6734	-0.0666	-0.0153	0.0719	-0.0443	0.0777	0.0981	0.1002	0.0988	-0.0055	-0.2725	0.0357	-0.0725	-0.1744	-0.9959	-0.1786	-0.1268	0.0514	0.0704	0.0855	0.0973	-0.039	-0.107	-0.2595	0.0022	-0.0944	0.0596	-0.0729	-0.0822	-0.2902	0.06	-0.0626	-0.6706	0.08	0.0787	0.0082	0.1012	0.091	0.0729	-0.0359	-0.0084	-0.0785	-0.0957	-0.2094	0.0792	-0.4193	0.0859	-0.1724	0.1	0.0964	0.007	0.0795	-0.8348	0.0946	0.0258	0.062	0.1117	0.0138	0.0914	-0.0637	0.0883	0.0906	-0.0142	0.0336	0.0908	0.0585	0.065	0.0998	0.0999	0.0666	-0.0009	0.0953	0.0506	-0.0383	-0.0892	0.1	-0.016	0.0811	0.0544	0.0173	-0.0323	-0.2689	0.0197	-0.0298	0.0977	0.0985	0.0845	0.0462	0.027	0.0772	0.0891	-0.1723	0.0537	0.0581	0.067
covar_vc_estimate_se	0.8407	0.567	0.477	0.5149	0.4565	0.4729	0.4562	0.4424	0.4749	0.4921	0.4334	0.4428	0.4484	0.4452	0.4698	0.468	0.4501	0.4425	0.4561	0.4351	0.4734	0.4503	0.4589	0.4714	0.4622	0.4423	0.4963	0.4342	0.4353	0.4566	0.4329	0.4776	0.4529	0.4391	0.4328	0.4569	0.4466	0.4459	0.4413	0.4623	0.4585	0.4596	0.4454	0.4428	0.4748	0.4984	0.4516	0.4533	0.4468	0.4453	0.4328	0.4346	0.437	0.4506	0.4451	0.4579	0.4371	0.4523	0.4682	0.4471	0.4431	0.4738	0.4632	0.4461	0.4569	0.4438	0.4441	0.489	0.4182	0.4415	0.4459	0.4495	0.4421	0.4487	0.4438	0.448	0.4357	0.4473	0.4394	0.4436	0.4344	0.4668	0.4361	0.4386	0.4366	0.46	0.4366	0.4682	0.4551	0.4632	0.4462	0.4523	0.4371	0.4516	0.4558	0.4239	0.4473	0.4363	0.4389	0.4704
covar_vc_pvals	0.432	0.473	0.204	0.006	0.038	0.008	0.324	0.434	0.248	0.27	0.119	0.011	0.015	0.01	0.482	0.071	0.405	0.317	0.151	0.0	0.152	0.197	0.322	0.25	0.14	0.019	0.369	0.274	0.084	0.456	0.238	0.385	0.314	0.239	0.065	0.236	0.298	0.008	0.13	0.199	0.479	0.043	0.067	0.174	0.356	0.408	0.267	0.224	0.125	0.136	0.008	0.079	0.167	0.019	0.033	0.453	0.128	0.001	0.101	0.394	0.238	0.012	0.465	0.066	0.31	0.069	0.063	0.362	0.389	0.063	0.279	0.217	0.002	0.015	0.248	0.446	0.009	0.286	0.438	0.318	0.001	0.393	0.125	0.247	0.462	0.408	0.12	0.468	0.368	0.078	0.02	0.107	0.296	0.363	0.191	0.008	0.152	0.309	0.293	0.299
upper975_perm_covar	0.4025	0.1844	0.1325	0.1547	0.1192	0.1289	0.1227	0.1132	0.131	0.1434	0.1103	0.1137	0.1162	0.1156	0.1301	0.1301	0.1177	0.114	0.12	0.1093	0.1319	0.1177	0.1243	0.1298	0.1223	0.1122	0.1415	0.1082	0.11	0.1202	0.109	0.1361	0.1165	0.1122	0.1107	0.1172	0.1181	0.1134	0.1119	0.127	0.125	0.1245	0.1164	0.1155	0.1323	0.1464	0.1188	0.1208	0.1162	0.1161	0.1123	0.1118	0.1091	0.1178	0.1169	0.1222	0.1134	0.1153	0.128	0.1182	0.1121	0.1327	0.1254	0.1151	0.1222	0.115	0.1146	0.1399	0.103	0.1157	0.1163	0.1165	0.1126	0.1169	0.1156	0.1173	0.1097	0.1169	0.1103	0.1149	0.1111	0.1277	0.1108	0.1143	0.1127	0.125	0.1074	0.1325	0.1216	0.1255	0.1168	0.1217	0.1107	0.1177	0.1217	0.1032	0.1173	0.1094	0.1145	0.1304
lower025_perm_covar	-1.5348	-1.0056	-0.4525	-0.558	-0.6306	-0.6468	-0.4899	-0.4807	-0.5181	-0.3814	-0.5044	-0.456	-0.5201	-0.4064	-0.5345	-0.4852	-0.4586	-0.4985	-0.4918	-0.4941	-0.584	-0.4454	-0.4982	-0.4741	-0.4813	-0.5158	-0.4907	-0.5674	-0.4584	-0.5686	-0.476	-0.435	-0.4896	-0.4543	-0.5084	-0.5797	-0.4901	-0.6204	-0.4809	-0.5208	-0.5511	-0.3586	-0.4585	-0.5448	-0.4224	-0.5536	-0.4396	-0.4263	-0.4965	-0.5585	-0.3724	-0.4608	-0.556	-0.534	-0.4399	-0.5897	-0.4849	-0.5451	-0.4549	-0.5499	-0.465	-0.4026	-0.5464	-0.4887	-0.4668	-0.4883	-0.4652	-0.4102	-0.3408	-0.4734	-0.4785	-0.5319	-0.5852	-0.3814	-0.3956	-0.6131	-0.4731	-0.4724	-0.608	-0.6824	-0.4965	-0.4975	-0.3707	-0.5129	-0.4046	-0.5183	-0.6025	-0.5253	-0.4372	-0.4528	-0.5058	-0.6879	-0.5314	-0.6116	-0.4887	-0.3771	-0.444	-0.4186	-0.3647	-0.4675
