	PC1	PC2	PC3	PC4	PC5	PC6	PC7	PC8	PC9	PC10	PC11	PC12	PC13	PC14	PC15	PC16	PC17	PC18	PC19	PC20	PC21	PC22	PC23	PC24	PC25	PC26	PC27	PC28	PC29	PC30	PC31	PC32	PC33	PC34	PC35	PC36	PC37	PC38	PC39	PC40	PC41	PC42	PC43	PC44	PC45	PC46	PC47	PC48	PC49	PC50	PC51	PC52	PC53	PC54	PC55	PC56	PC57	PC58	PC59	PC60	PC61	PC62	PC63	PC64	PC65	PC66	PC67	PC68	PC69	PC70	PC71	PC72	PC73	PC74	PC75	PC76	PC77	PC78	PC79	PC80	PC81	PC82	PC83	PC84	PC85	PC86	PC87	PC88	PC89	PC90	PC91	PC92	PC93	PC94	PC95	PC96	PC97	PC98	PC99	PC100
direct_vc_estimate	0.4051	-0.0384	0.0241	0.1418	-0.0037	-0.0002	-0.0014	0.0117	-0.0018	0.0262	-0.0008	0.0004	-0.0014	0.0072	0.0043	-0.0001	0.0121	-0.0002	-0.0013	0.0094	0.0	-0.0008	0.0015	-0.001	-0.0013	-0.0003	0.0186	0.0053	-0.001	0.0	0.0003	-0.0008	0.0007	-0.0001	0.0049	-0.0009	0.0147	-0.0009	0.0051	-0.0014	-0.001	0.007	-0.0011	0.0104	0.0013	0.0018	0.0002	0.0271	-0.0004	-0.0009	-0.0004	0.0154	-0.0015	0.0022	-0.0004	-0.0008	0.0125	-0.0012	0.0082	-0.0009	-0.0006	0.0073	0.0004	0.0007	-0.0009	-0.0009	0.0009	0.0052	-0.0008	-0.0004	0.0066	0.0002	-0.0007	-0.001	0.0032	-0.0011	0.0069	0.0001	-0.0006	-0.001	0.001	0.0001	0.0029	-0.0005	-0.0001	0.0009	-0.0011	0.005	-0.001	-0.0011	0.0049	-0.0006	-0.0002	-0.0013	-0.0009	-0.0008	-0.0003	0.0068	0.002	0.0014
direct_vc_estimate_se	0.0108	0.0044	0.0021	0.0015	0.0003	0.0002	0.0002	0.0002	0.0002	0.0002	0.0002	0.0001	0.0001	0.0001	0.0001	0.0001	0.0001	0.0001	0.0001	0.0001	0.0001	0.0001	0.0001	0.0001	0.0001	0.0001	0.0002	0.0001	0.0001	0.0001	0.0001	0.0001	0.0001	0.0001	0.0001	0.0001	0.0002	0.0001	0.0001	0.0001	0.0001	0.0001	0.0001	0.0001	0.0001	0.0001	0.0001	0.0001	0.0001	0.0001	0.0001	0.0001	0.0001	0.0001	0.0001	0.0001	0.0001	0.0001	0.0001	0.0001	0.0001	0.0001	0.0001	0.0001	0.0001	0.0001	0.0001	0.0001	0.0001	0.0001	0.0001	0.0001	0.0001	0.0001	0.0001	0.0001	0.0001	0.0001	0.0001	0.0001	0.0001	0.0001	0.0001	0.0001	0.0001	0.0001	0.0001	0.0001	0.0001	0.0001	0.0001	0.0001	0.0001	0.0001	0.0001	0.0001	0.0001	0.0001	0.0001	0.0001
direct_vc_pvals	0.155	0.772	0.566	0.055	0.977	0.426	0.703	0.134	0.735	0.024	0.603	0.349	0.902	0.056	0.072	0.44	0.13	0.718	0.899	0.032	0.542	0.785	0.166	0.883	0.905	0.477	0.159	0.288	0.772	0.586	0.694	0.986	0.427	0.637	0.164	0.799	0.147	0.818	0.203	0.973	0.796	0.168	0.742	0.183	0.27	0.127	0.409	0.047	0.579	0.908	0.614	0.042	0.992	0.488	0.614	0.789	0.161	0.907	0.092	0.712	0.727	0.152	0.517	0.442	0.695	0.71	0.252	0.065	0.616	0.591	0.069	0.421	0.725	0.748	0.303	0.834	0.474	0.473	0.716	0.93	0.219	0.729	0.101	0.618	0.416	0.488	0.993	0.512	0.846	0.863	0.183	0.74	0.403	0.992	0.747	0.741	0.637	0.096	0.274	0.328
upper95_perm_direct	0.8336	0.4613	0.2411	0.1411	0.0176	0.0081	0.0084	0.0199	0.0045	0.019	0.0102	0.0064	0.0087	0.0071	0.0049	0.0045	0.0152	0.0118	0.0128	0.0068	0.0097	0.0129	0.0033	0.0116	0.0082	0.0053	0.0292	0.0144	0.0072	0.0093	0.0196	0.0077	0.0091	0.0158	0.0077	0.0092	0.0228	0.0106	0.0105	0.0054	0.0073	0.0121	0.0061	0.0186	0.0054	0.0036	0.0055	0.0242	0.0087	0.008	0.0059	0.0134	0.0208	0.0178	0.0109	0.0116	0.0213	0.0113	0.0095	0.0112	0.0073	0.012	0.0101	0.0066	0.0066	0.0069	0.0043	0.0052	0.0088	0.0087	0.0076	0.0072	0.011	0.0075	0.0129	0.0112	0.0275	0.0079	0.0126	0.0238	0.0043	0.0104	0.0044	0.0115	0.0041	0.0083	0.0105	0.0168	0.0149	0.006	0.0095	0.0149	0.0038	0.01	0.0077	0.0028	0.0149	0.0082	0.0078	0.0069
lower0_perm_direct	-0.1393	-0.0543	-0.0257	-0.0185	-0.0039	-0.0027	-0.0019	-0.0024	-0.0022	-0.0019	-0.0023	-0.0017	-0.0016	-0.0015	-0.0013	-0.0013	-0.0012	-0.0012	-0.0014	-0.0012	-0.0016	-0.0014	-0.0013	-0.0011	-0.0015	-0.0013	-0.002	-0.0014	-0.0013	-0.0012	-0.0014	-0.0009	-0.0012	-0.0015	-0.001	-0.0013	-0.002	-0.0012	-0.0013	-0.0015	-0.0013	-0.0011	-0.0015	-0.0013	-0.0011	-0.0013	-0.0014	-0.0016	-0.0013	-0.001	-0.0009	-0.0012	-0.0016	-0.0015	-0.0015	-0.0012	-0.0014	-0.0013	-0.0014	-0.0015	-0.001	-0.0016	-0.0015	-0.0011	-0.0014	-0.0013	-0.0012	-0.0008	-0.0017	-0.0012	-0.0012	-0.0013	-0.0014	-0.0013	-0.001	-0.0013	-0.0017	-0.0012	-0.0012	-0.0012	-0.0013	-0.0011	-0.0011	-0.0015	-0.0012	-0.001	-0.0012	-0.0014	-0.0013	-0.0012	-0.001	-0.0012	-0.0012	-0.0014	-0.0012	-0.001	-0.0016	-0.0011	-0.0016	-0.001
sad_vc_estimate	0.35	-0.0504	0.0359	0.1233	-0.0021	0.0032	-0.0017	0.0026	-0.0007	0.0307	-0.0017	0.0081	-0.0013	0.0033	0.0024	-0.0006	0.0099	0.0036	0.0024	0.0123	-0.0015	-0.0013	0.0021	-0.0011	0.0001	0.0007	0.016	0.0024	-0.0012	0.0008	0.004	0.0007	0.001	-0.0014	0.0095	-0.001	0.0186	0.0009	0.0055	-0.0008	-0.0007	0.0075	-0.001	0.0023	0.0018	0.0042	-0.0009	0.0377	-0.001	-0.0009	0.0009	0.0125	0.0001	0.0029	-0.0015	-0.0011	0.0146	-0.0012	0.0105	-0.0014	0.0021	0.0026	-0.0009	-0.0008	0.0009	-0.0012	0.0028	0.0073	-0.0016	-0.0	0.015	0.0106	0.0006	0.001	0.0076	0.0006	0.0126	0.0008	0.0007	0.0046	-0.0	-0.001	0.0019	0.002	0.0004	0.0012	0.0012	0.0041	0.0024	-0.0001	0.011	-0.0007	0.0001	0.0011	0.0007	-0.0005	0.0028	0.0116	0.0021	0.0022
sad_vc_estimate_se	0.011	0.0044	0.0021	0.0015	0.0003	0.0002	0.0002	0.0002	0.0002	0.0002	0.0002	0.0001	0.0001	0.0001	0.0001	0.0001	0.0001	0.0001	0.0001	0.0001	0.0001	0.0001	0.0001	0.0001	0.0001	0.0001	0.0002	0.0001	0.0001	0.0001	0.0001	0.0001	0.0001	0.0001	0.0001	0.0001	0.0002	0.0001	0.0001	0.0001	0.0001	0.0001	0.0001	0.0001	0.0001	0.0001	0.0001	0.0001	0.0001	0.0001	0.0001	0.0001	0.0001	0.0001	0.0001	0.0001	0.0001	0.0001	0.0001	0.0001	0.0001	0.0001	0.0001	0.0001	0.0001	0.0001	0.0001	0.0001	0.0001	0.0001	0.0001	0.0001	0.0001	0.0001	0.0001	0.0001	0.0001	0.0001	0.0001	0.0001	0.0001	0.0001	0.0001	0.0001	0.0001	0.0001	0.0001	0.0001	0.0001	0.0001	0.0001	0.0001	0.0001	0.0001	0.0001	0.0001	0.0001	0.0001	0.0001	0.0001
sad_vc_pvals	0.164	0.91	0.377	0.081	0.668	0.324	0.846	0.431	0.59	0.021	0.677	0.144	0.818	0.19	0.251	0.635	0.169	0.447	0.399	0.055	0.936	0.997	0.273	0.956	0.545	0.415	0.326	0.423	0.89	0.518	0.448	0.518	0.478	0.989	0.182	0.83	0.106	0.51	0.412	0.699	0.681	0.292	0.751	0.4	0.318	0.163	0.671	0.03	0.79	0.895	0.449	0.037	0.703	0.41	0.98	0.965	0.204	1.0	0.136	0.996	0.25	0.419	0.741	0.755	0.478	0.877	0.226	0.067	0.919	0.65	0.033	0.098	0.652	0.445	0.184	0.543	0.219	0.428	0.591	0.457	0.489	0.957	0.266	0.447	0.405	0.424	0.413	0.437	0.485	0.548	0.142	0.801	0.393	0.45	0.492	0.636	0.51	0.078	0.313	0.392
upper95_perm_sad	0.8155	0.5953	0.2065	0.1427	0.0251	0.0152	0.0113	0.0249	0.0131	0.0213	0.0089	0.0144	0.0102	0.0077	0.0084	0.0096	0.0157	0.0181	0.0156	0.0117	0.0195	0.0185	0.0091	0.0187	0.0102	0.0082	0.0344	0.0169	0.0084	0.0137	0.0274	0.0097	0.0114	0.0172	0.0138	0.0113	0.024	0.0131	0.0197	0.0097	0.0075	0.018	0.0128	0.0159	0.0084	0.0085	0.0079	0.0299	0.0144	0.0151	0.0092	0.0103	0.0238	0.022	0.0109	0.0208	0.0265	0.0173	0.0158	0.0159	0.0074	0.017	0.0141	0.0086	0.0127	0.0116	0.0091	0.0078	0.0155	0.0164	0.0116	0.0135	0.0164	0.0128	0.0155	0.0159	0.0264	0.01	0.0179	0.0273	0.007	0.0113	0.0071	0.0172	0.007	0.0101	0.01	0.0167	0.0196	0.0096	0.0152	0.0181	0.0051	0.013	0.0127	0.0051	0.0275	0.0136	0.0112	0.0113
lower0_perm_sad	-0.1426	-0.0564	-0.0261	-0.019	-0.0039	-0.0027	-0.002	-0.0024	-0.0022	-0.002	-0.0023	-0.0017	-0.0015	-0.0015	-0.0014	-0.0014	-0.0012	-0.0012	-0.0015	-0.0012	-0.0016	-0.0014	-0.0013	-0.0011	-0.0015	-0.0013	-0.0019	-0.0014	-0.0014	-0.0011	-0.0014	-0.0009	-0.0012	-0.0014	-0.001	-0.0013	-0.0019	-0.0013	-0.0013	-0.0015	-0.0013	-0.0011	-0.0015	-0.0013	-0.0011	-0.0013	-0.0014	-0.0017	-0.0013	-0.001	-0.0009	-0.0012	-0.0016	-0.0015	-0.0016	-0.0012	-0.0014	-0.0013	-0.0015	-0.0015	-0.001	-0.0015	-0.0015	-0.0011	-0.0014	-0.0013	-0.0012	-0.0009	-0.0017	-0.0013	-0.0012	-0.0013	-0.0014	-0.0013	-0.001	-0.0013	-0.0018	-0.0012	-0.0011	-0.0013	-0.0013	-0.001	-0.0012	-0.0015	-0.0012	-0.001	-0.0012	-0.0014	-0.0013	-0.0012	-0.001	-0.0012	-0.0012	-0.0014	-0.0012	-0.001	-0.0017	-0.0012	-0.0015	-0.001
covar_vc_estimate	-0.7557	0.093	-0.0597	-0.2648	0.0072	-0.0023	0.0031	-0.012	0.0029	-0.0567	0.0027	-0.0056	0.0027	-0.01	-0.0066	0.0007	-0.0219	-0.0019	0.0018	-0.0215	0.0025	0.0026	-0.0036	0.0022	0.0022	-0.0002	-0.0345	-0.0073	0.0023	-0.0007	-0.0033	0.0016	-0.0017	0.0026	-0.0138	0.0028	-0.0331	0.001	-0.0106	0.0029	0.0017	-0.0145	0.0021	-0.0104	-0.0031	-0.0056	0.0011	-0.064	0.0014	0.0018	-0.0001	-0.0277	0.0032	-0.0051	0.003	0.0021	-0.027	0.0024	-0.0185	0.0028	-0.0002	-0.009	0.0049	0.0008	0.0007	0.0028	-0.0034	-0.0123	0.0036	0.0004	-0.0201	-0.0058	0.0005	0.001	-0.01	0.0013	-0.0188	-0.0008	0.0003	0.0003	-0.0008	0.0022	-0.0048	-0.0007	-0.0003	-0.0022	0.0022	-0.009	0.0008	0.0017	-0.0149	0.0013	0.0002	0.0027	0.001	0.0013	-0.0016	-0.0178	-0.0041	-0.0036
covar_vc_estimate_se	0.7198	0.4577	0.3175	0.269	0.1226	0.1018	0.0864	0.0952	0.0906	0.0862	0.0936	0.08	0.077	0.0755	0.0717	0.0707	0.0682	0.0673	0.0747	0.0689	0.078	0.0722	0.0699	0.0658	0.0753	0.0703	0.0873	0.0734	0.0715	0.0657	0.0733	0.0587	0.0685	0.0744	0.0611	0.0699	0.0869	0.0686	0.0701	0.0756	0.0714	0.0659	0.076	0.0698	0.0651	0.0703	0.0736	0.0801	0.0707	0.0625	0.0594	0.0687	0.0781	0.0753	0.0766	0.0669	0.0734	0.07	0.0747	0.0758	0.0627	0.0754	0.0765	0.0642	0.0726	0.071	0.0672	0.0564	0.0805	0.0691	0.0688	0.0709	0.0729	0.0707	0.0633	0.0709	0.0821	0.0667	0.0662	0.0692	0.071	0.0632	0.0661	0.0759	0.0683	0.0602	0.0675	0.0738	0.0709	0.0683	0.0622	0.0694	0.0687	0.0736	0.0684	0.0605	0.079	0.0668	0.0768	0.0621
covar_vc_pvals	0.129	0.097	0.477	0.027	0.113	0.384	0.159	0.286	0.273	0.003	0.302	0.236	0.106	0.06	0.111	0.38	0.085	0.261	0.166	0.019	0.137	0.056	0.202	0.063	0.159	0.495	0.164	0.387	0.158	0.367	0.304	0.079	0.479	0.062	0.121	0.041	0.07	0.182	0.31	0.106	0.184	0.193	0.186	0.318	0.282	0.118	0.392	0.009	0.194	0.071	0.383	0.006	0.024	0.467	0.085	0.062	0.122	0.092	0.067	0.082	0.391	0.294	0.006	0.293	0.307	0.043	0.234	0.023	0.072	0.276	0.019	0.263	0.203	0.272	0.247	0.177	0.325	0.468	0.232	0.116	0.389	0.023	0.156	0.369	0.435	0.464	0.094	0.494	0.189	0.192	0.112	0.116	0.418	0.061	0.256	0.241	0.32	0.049	0.284	0.396
upper975_perm_covar	0.3087	0.1293	0.0608	0.0472	0.0104	0.0076	0.0047	0.0068	0.0062	0.0047	0.0064	0.0059	0.0039	0.0041	0.0039	0.0031	0.001	0.0023	0.0037	0.0033	0.0045	0.003	0.0032	0.0031	0.004	0.0035	0.0041	0.0034	0.004	0.0027	0.0031	0.0021	0.0031	0.0031	0.0019	0.0031	0.0043	0.0031	0.0034	0.0039	0.0034	0.0025	0.0037	0.0029	0.003	0.0042	0.0043	0.0042	0.0032	0.0024	0.0023	0.0021	0.0029	0.0036	0.004	0.0025	0.0038	0.0037	0.0039	0.0042	0.0027	0.0039	0.0035	0.0027	0.0035	0.0031	0.0034	0.0021	0.0051	0.0032	0.0032	0.0037	0.0032	0.0034	0.002	0.0032	0.0034	0.0027	0.0033	0.0023	0.0038	0.002	0.0031	0.0043	0.0037	0.0021	0.0031	0.002	0.0028	0.0032	0.0022	0.0027	0.0032	0.0034	0.0033	0.0025	0.0041	0.0032	0.0042	0.0025
lower025_perm_covar	-1.3724	-0.9209	-0.4089	-0.2567	-0.0428	-0.0202	-0.0178	-0.036	-0.0172	-0.0335	-0.0163	-0.0193	-0.0159	-0.014	-0.0125	-0.0131	-0.027	-0.0273	-0.0262	-0.0177	-0.0261	-0.0304	-0.012	-0.0281	-0.0171	-0.0124	-0.0554	-0.0279	-0.0141	-0.0206	-0.0398	-0.0154	-0.0178	-0.0271	-0.0199	-0.0183	-0.0403	-0.0228	-0.0267	-0.0136	-0.0137	-0.0257	-0.0171	-0.0295	-0.011	-0.0118	-0.012	-0.0479	-0.0209	-0.0211	-0.0133	-0.021	-0.0406	-0.0335	-0.0198	-0.0295	-0.0418	-0.0246	-0.0217	-0.0239	-0.0117	-0.0267	-0.0228	-0.0146	-0.0172	-0.0174	-0.0125	-0.0113	-0.0225	-0.0236	-0.017	-0.019	-0.0228	-0.0179	-0.0238	-0.0249	-0.0465	-0.0148	-0.0277	-0.0434	-0.0094	-0.0195	-0.0105	-0.0264	-0.0099	-0.0163	-0.0177	-0.0312	-0.0304	-0.013	-0.0228	-0.0282	-0.0074	-0.0208	-0.0195	-0.0073	-0.038	-0.0211	-0.0169	-0.0152
