	PC1	PC2	PC3	PC4	PC5	PC6	PC7	PC8	PC9	PC10	PC11	PC12	PC13	PC14	PC15	PC16	PC17	PC18	PC19	PC20	PC21	PC22	PC23	PC24	PC25	PC26	PC27	PC28	PC29	PC30	PC31	PC32	PC33	PC34	PC35	PC36	PC37	PC38	PC39	PC40	PC41	PC42	PC43	PC44	PC45	PC46	PC47	PC48	PC49	PC50	PC51	PC52	PC53	PC54	PC55	PC56	PC57	PC58	PC59	PC60	PC61	PC62	PC63	PC64	PC65	PC66	PC67	PC68	PC69	PC70	PC71	PC72	PC73	PC74	PC75	PC76	PC77	PC78	PC79	PC80	PC81	PC82	PC83	PC84	PC85	PC86	PC87	PC88	PC89	PC90	PC91	PC92	PC93	PC94	PC95	PC96	PC97	PC98	PC99	PC100
direct_vc_estimate	0.009	0.0035	-0.0008	0.0064	0.0055	0.0161	0.0033	0.0024	-0.0002	0.0051	-0.0007	0.0041	0.0011	-0.0002	-0.0017	0.0367	0.0004	-0.002	0.0007	0.0222	0.005	0.0027	-0.0022	0.0038	-0.0021	-0.0026	-0.0017	0.0157	0.0184	-0.0009	0.0204	0.0239	0.0068	0.0169	0.0166	0.008	0.0033	0.0015	0.0025	0.011	0.0025	-0.0011	-0.0005	0.0392	-0.0011	0.0355	0.0223	0.0045	0.004	0.0175	0.0062	0.0126	0.0131	0.004	0.0035	0.0063	-0.0018	0.001	-0.0017	0.0017	0.0029	0.0032	-0.001	0.0028	0.0012	0.0225	-0.0012	0.0023	0.0047	-0.0012	0.0024	-0.0014	0.0104	-0.0007	0.0002	0.0395	0.0144	0.0112	-0.0029	0.0188	-0.0015	0.0086	-0.0009	0.0008	-0.0008	-0.0004	0.0051	-0.0014	0.0018	0.0016	0.0049	0.0017	0.0016	0.0061	0.0014	0.0006	0.0341	0.0015	-0.0006	-0.0007
direct_vc_estimate_se	0.0005	0.0003	0.0001	0.0002	0.0002	0.0004	0.0001	0.0002	0.0001	0.0001	0.0001	0.0001	0.0002	0.0	0.0002	0.0002	0.0002	0.0002	0.0001	0.0001	0.0003	0.0001	0.0002	0.0001	0.0002	0.0002	0.0001	0.0002	0.0002	0.0001	0.0001	0.0002	0.0001	0.0002	0.0002	0.0002	0.0001	0.0002	0.0001	0.0002	0.0001	0.0002	0.0002	0.0002	0.0001	0.0002	0.0002	0.0002	0.0001	0.0002	0.0001	0.0002	0.0002	0.0001	0.0001	0.0002	0.0002	0.0001	0.0001	0.0002	0.0002	0.0001	0.0001	0.0002	0.0001	0.0002	0.0001	0.0001	0.0001	0.0001	0.0001	0.0001	0.0002	0.0001	0.0001	0.0002	0.0001	0.0001	0.0002	0.0003	0.0002	0.0001	0.0001	0.0001	0.0001	0.0001	0.0002	0.0001	0.0001	0.0001	0.0002	0.0001	0.0001	0.0001	0.0002	0.0001	0.0001	0.0001	0.0001	0.0001
direct_vc_pvals	0.323	0.511	0.73	0.475	0.41	0.672	0.448	0.442	0.709	0.038	0.766	0.456	0.55	0.804	0.74	0.054	0.693	0.898	0.881	0.094	0.66	0.711	0.998	0.601	0.914	0.991	0.998	0.565	0.37	0.782	0.062	0.115	0.499	0.145	0.28	0.355	0.347	0.659	0.526	0.319	0.748	0.747	0.626	0.132	0.702	0.15	0.196	0.451	0.354	0.337	0.167	0.203	0.096	0.425	0.32	0.386	0.831	0.495	0.987	0.668	0.588	0.287	0.737	0.563	0.22	0.072	0.813	0.271	0.824	0.772	0.554	0.991	0.427	0.749	0.485	0.052	0.005	0.111	0.977	0.338	0.916	0.059	0.935	0.558	0.671	0.647	0.621	0.943	0.58	0.391	0.361	0.787	0.87	0.161	0.375	0.533	0.08	0.182	0.792	0.962
upper95_perm_direct	0.0554	0.0542	0.0165	0.0585	0.0338	0.0852	0.0247	0.0237	0.0271	0.0046	0.0077	0.0401	0.0386	0.0144	0.0223	0.0398	0.0399	0.0286	0.0228	0.0295	0.0471	0.0225	0.0207	0.0285	0.0472	0.0314	0.0305	0.0442	0.057	0.0155	0.0238	0.0375	0.0428	0.028	0.0506	0.035	0.017	0.0781	0.0275	0.0332	0.0325	0.0376	0.0237	0.0544	0.0114	0.0623	0.0376	0.0396	0.0156	0.0423	0.0143	0.0358	0.0192	0.0334	0.0175	0.033	0.0225	0.0143	0.03	0.0253	0.0673	0.0123	0.013	0.0411	0.0045	0.0271	0.0273	0.0092	0.0259	0.0145	0.0224	0.0161	0.0778	0.012	0.0091	0.044	0.0077	0.0178	0.0713	0.0658	0.0442	0.0102	0.0072	0.0221	0.0134	0.0131	0.0321	0.0117	0.021	0.0136	0.0271	0.0405	0.0406	0.0117	0.0131	0.0116	0.0429	0.0045	0.0083	0.0142
lower0_perm_direct	-0.0075	-0.0049	-0.0019	-0.0035	-0.0023	-0.0047	-0.002	-0.0025	-0.0019	-0.002	-0.0012	-0.0018	-0.0036	-0.0007	-0.0031	-0.0037	-0.0026	-0.0027	-0.0015	-0.002	-0.0038	-0.0017	-0.0027	-0.0019	-0.0028	-0.0032	-0.0021	-0.001	-0.0027	-0.0016	-0.0021	-0.0022	-0.0021	-0.0024	-0.0027	-0.0023	-0.0023	-0.0036	-0.002	-0.0026	-0.0015	-0.0023	-0.003	-0.0028	-0.0021	-0.0036	-0.0023	-0.0027	-0.0014	-0.0027	-0.0018	-0.0028	-0.0023	-0.002	-0.0022	-0.0024	-0.0025	-0.0013	-0.0021	-0.0025	-0.0026	-0.0021	-0.0018	-0.0034	-0.0016	-0.0023	-0.002	-0.0013	-0.0013	-0.0018	-0.0016	-0.0018	-0.0036	-0.0014	-0.0015	-0.0037	-0.0012	-0.0018	-0.0037	-0.0043	-0.0022	-0.0013	-0.0012	-0.002	-0.002	-0.0014	-0.0023	-0.0018	-0.0015	-0.0015	-0.0025	-0.0017	-0.0015	-0.0014	-0.0023	-0.001	-0.0017	-0.0011	-0.001	-0.0009
sad_vc_estimate	0.0034	0.0036	-0.0006	0.0407	0.035	0.0346	0.0041	-0.0004	0.0158	0.0008	-0.0001	0.0006	0.0213	-0.0002	0.0068	0.0808	0.0242	-0.0018	-0.0011	0.0382	0.0169	-0.0014	-0.002	0.0001	-0.0022	0.0018	-0.0012	0.0466	0.026	-0.0008	0.0259	0.0178	0.0069	0.0196	0.0728	0.0085	-0.0017	0.014	0.0052	0.0179	0.0014	-0.0014	0.0021	0.0255	-0.0011	0.0416	0.0297	0.003	0.0084	0.0027	0.0011	0.0101	0.0223	0.0151	0.0116	0.0369	-0.0018	0.0036	0.0055	0.0141	-0.0022	0.002	-0.0006	0.028	0.0024	0.0479	-0.0006	0.0025	-0.0007	0.0013	0.0066	-0.0014	0.0329	0.0005	-0.0011	0.1046	0.0147	0.0148	0.0022	0.0303	0.0128	0.0149	-0.0007	0.0081	0.0034	-0.0009	-0.001	-0.0014	0.0123	0.0051	-0.0005	-0.0014	-0.0011	0.012	0.0082	0.0013	0.0377	0.0104	-0.0007	-0.0005
sad_vc_estimate_se	0.0005	0.0003	0.0001	0.0002	0.0002	0.0004	0.0001	0.0002	0.0001	0.0001	0.0001	0.0001	0.0002	0.0	0.0002	0.0002	0.0002	0.0002	0.0001	0.0001	0.0003	0.0001	0.0002	0.0001	0.0002	0.0002	0.0001	0.0002	0.0002	0.0001	0.0001	0.0002	0.0001	0.0002	0.0002	0.0002	0.0002	0.0003	0.0001	0.0002	0.0001	0.0002	0.0002	0.0002	0.0001	0.0002	0.0002	0.0002	0.0001	0.0002	0.0001	0.0002	0.0002	0.0001	0.0001	0.0002	0.0002	0.0001	0.0001	0.0002	0.0002	0.0001	0.0001	0.0002	0.0001	0.0002	0.0001	0.0001	0.0001	0.0001	0.0001	0.0001	0.0002	0.0001	0.0001	0.0003	0.0001	0.0001	0.0003	0.0003	0.0002	0.0001	0.0001	0.0001	0.0001	0.0001	0.0002	0.0001	0.0001	0.0001	0.0002	0.0001	0.0001	0.0001	0.0002	0.0001	0.0001	0.0001	0.0001	0.0001
sad_vc_pvals	0.556	0.658	0.719	0.255	0.171	0.792	0.433	0.699	0.194	0.368	0.669	0.751	0.243	0.763	0.415	0.026	0.37	0.869	0.921	0.07	0.648	0.98	0.938	0.695	0.946	0.613	0.867	0.438	0.457	0.778	0.188	0.202	0.681	0.216	0.095	0.316	0.948	0.558	0.464	0.266	0.604	0.884	0.663	0.229	0.821	0.151	0.539	0.651	0.385	0.57	0.554	0.347	0.135	0.321	0.277	0.156	0.932	0.429	0.401	0.484	0.982	0.434	0.745	0.325	0.36	0.102	0.772	0.391	0.831	0.604	0.535	0.932	0.255	0.584	0.924	0.031	0.038	0.123	0.725	0.448	0.303	0.159	0.761	0.368	0.43	0.858	0.81	0.979	0.326	0.283	0.757	0.985	0.881	0.183	0.418	0.631	0.075	0.039	0.837	0.853
upper95_perm_sad	0.1059	0.1308	0.0239	0.099	0.0777	0.1717	0.0374	0.0403	0.042	0.008	0.0174	0.0614	0.0601	0.0194	0.05	0.0753	0.0697	0.0503	0.0257	0.0481	0.0977	0.0301	0.0516	0.0327	0.0386	0.0636	0.0402	0.1032	0.0926	0.0265	0.0456	0.0458	0.0652	0.048	0.1024	0.036	0.0333	0.1402	0.042	0.0564	0.0318	0.0536	0.0584	0.0549	0.0337	0.0778	0.0785	0.0944	0.0319	0.0534	0.0225	0.0529	0.0374	0.0638	0.0412	0.0694	0.0478	0.023	0.0354	0.0623	0.0762	0.0227	0.0269	0.0974	0.013	0.0652	0.0475	0.0162	0.0262	0.0374	0.0373	0.04	0.1037	0.0218	0.0213	0.1041	0.0147	0.0267	0.1269	0.1405	0.0536	0.0256	0.0107	0.0385	0.023	0.0233	0.0324	0.0297	0.0373	0.0197	0.054	0.0511	0.0365	0.0268	0.0357	0.024	0.0506	0.0105	0.0114	0.0189
lower0_perm_sad	-0.0073	-0.0048	-0.0019	-0.0036	-0.0024	-0.0039	-0.0022	-0.0025	-0.0019	-0.002	-0.0012	-0.0018	-0.0035	-0.0008	-0.0032	-0.0035	-0.0027	-0.0027	-0.0015	-0.0021	-0.0038	-0.0018	-0.0028	-0.0019	-0.0029	-0.0033	-0.0021	0.0015	-0.0028	-0.0016	-0.0022	-0.0022	-0.0022	-0.0025	-0.0028	-0.0022	-0.0023	-0.0036	-0.002	-0.0028	-0.0017	-0.0023	-0.0031	-0.0028	-0.0023	-0.0036	-0.0018	-0.0027	-0.0014	-0.0031	-0.0018	-0.0028	-0.0022	-0.002	-0.0021	-0.0024	-0.0026	-0.0013	-0.0021	-0.0023	-0.0026	-0.0021	-0.0018	-0.0035	-0.0015	-0.0023	-0.0021	-0.0013	-0.002	-0.0019	-0.0016	-0.0018	-0.0039	-0.0014	-0.0014	-0.0037	-0.0013	-0.0018	-0.0037	-0.0042	-0.0023	-0.0013	-0.0013	-0.002	-0.002	-0.0014	-0.0024	-0.0018	-0.0015	-0.0015	-0.0026	-0.0019	-0.0016	-0.0014	-0.0023	-0.001	-0.002	-0.0012	-0.0009	-0.0009
covar_vc_estimate	-0.0118	-0.0072	0.0047	-0.0344	-0.0293	-0.0478	-0.0074	-0.0013	-0.0066	-0.0048	0.0029	-0.0039	-0.0138	0.0018	-0.0004	-0.1094	-0.0121	0.0038	0.0034	-0.0584	-0.0192	0.0026	0.0044	-0.003	0.0043	0.0054	0.0034	-0.0549	-0.0439	0.0035	-0.046	-0.0414	-0.0137	-0.0364	-0.0708	-0.0166	0.0025	-0.0114	-0.0074	-0.0282	-0.0038	0.0025	-0.001	-0.0634	0.0048	-0.0769	-0.0516	-0.0074	-0.0118	-0.0154	-0.006	-0.0226	-0.0343	-0.0163	-0.0133	-0.032	0.0043	-0.0041	0.0029	-0.0113	0.0045	-0.0051	0.0016	-0.0207	-0.0035	-0.0659	0.0049	-0.0048	-0.0017	0.0048	-0.0083	0.0029	-0.038	0.0007	0.0017	-0.1292	-0.0291	-0.0258	0.0064	-0.048	-0.001	-0.0227	0.0021	-0.0065	-0.0007	0.0014	-0.0013	0.0029	-0.0103	-0.0061	-0.0025	0.0025	0.0012	-0.0172	-0.0077	-0.0018	-0.0718	-0.0086	0.0013	0.0016
covar_vc_estimate_se	0.1538	0.1244	0.0788	0.1076	0.0872	0.1323	0.0819	0.0912	0.0796	0.0802	0.063	0.0772	0.108	0.0478	0.1012	0.1068	0.0934	0.0942	0.0703	0.0814	0.1125	0.0763	0.0943	0.08	0.0958	0.103	0.0833	0.107	0.0959	0.0727	0.0832	0.0851	0.0816	0.0887	0.096	0.0861	0.0847	0.109	0.0816	0.0931	0.072	0.0874	0.1003	0.0953	0.0843	0.1081	0.094	0.0947	0.0668	0.0974	0.0765	0.0964	0.0853	0.0815	0.084	0.0901	0.0895	0.0652	0.083	0.0889	0.093	0.0823	0.0758	0.1047	0.0699	0.0864	0.0825	0.0638	0.0808	0.0775	0.0724	0.0767	0.1088	0.0676	0.0679	0.1092	0.0639	0.077	0.1092	0.118	0.086	0.0659	0.0627	0.0801	0.0798	0.0672	0.0882	0.0761	0.0705	0.0712	0.0909	0.0761	0.0718	0.0674	0.087	0.0576	0.0775	0.0601	0.0562	0.054
covar_vc_pvals	0.497	0.327	0.028	0.406	0.291	0.181	0.483	0.316	0.418	0.101	0.037	0.268	0.473	0.018	0.328	0.015	0.336	0.098	0.008	0.035	0.287	0.031	0.085	0.246	0.111	0.093	0.068	0.479	0.43	0.069	0.068	0.099	0.295	0.125	0.147	0.343	0.139	0.268	0.435	0.264	0.196	0.099	0.278	0.092	0.077	0.077	0.361	0.317	0.401	0.437	0.391	0.284	0.068	0.425	0.307	0.271	0.054	0.474	0.076	0.34	0.083	0.359	0.192	0.476	0.279	0.054	0.031	0.323	0.065	0.052	0.386	0.107	0.365	0.249	0.168	0.013	0.0	0.081	0.052	0.432	0.149	0.075	0.073	0.473	0.358	0.156	0.141	0.085	0.479	0.363	0.301	0.06	0.047	0.143	0.439	0.319	0.028	0.076	0.166	0.05
upper975_perm_covar	0.0218	0.0194	0.0053	0.0106	0.0076	-0.0142	0.0071	0.0088	0.006	0.0079	0.0036	0.0055	0.0107	0.0016	0.0113	0.01	0.0086	0.0085	0.0026	0.007	0.0073	0.0031	0.0093	0.004	0.0109	0.0114	0.0058	-0.0172	0.0074	0.0054	0.0062	0.0088	0.0073	0.0069	0.01	0.0075	0.0071	0.0132	0.0057	0.0078	0.0033	0.0071	0.0099	0.0042	0.0091	0.0134	-0.0068	0.009	0.0031	0.0072	0.006	0.0102	0.0071	0.0067	0.0074	0.0085	0.0069	0.0049	0.0062	0.0058	0.0094	0.0081	0.0064	0.0138	0.0048	0.0086	0.0059	0.0054	0.0005	0.0075	0.0041	0.0069	0.0125	0.0044	0.0046	0.0138	0.0041	0.0057	0.0105	0.0125	0.0063	0.004	0.0033	0.0061	0.0064	0.0042	0.0046	0.0064	0.0043	0.0062	0.0078	0.0062	0.0028	0.0037	0.0081	0.0032	0.0054	0.0042	0.0031	0.0025
lower025_perm_covar	-0.1427	-0.1763	-0.034	-0.1468	-0.109	-0.2249	-0.0568	-0.0541	-0.0608	-0.0108	-0.0228	-0.0872	-0.0855	-0.0312	-0.0659	-0.0998	-0.0946	-0.0714	-0.0407	-0.07	-0.1336	-0.0442	-0.0633	-0.0494	-0.0725	-0.089	-0.0625	-0.1364	-0.1297	-0.0388	-0.0607	-0.0686	-0.0989	-0.069	-0.1302	-0.0663	-0.044	-0.187	-0.0608	-0.0829	-0.0552	-0.079	-0.0716	-0.0924	-0.0409	-0.1122	-0.103	-0.1154	-0.0413	-0.083	-0.031	-0.0725	-0.0466	-0.0887	-0.0528	-0.0888	-0.0618	-0.0328	-0.0567	-0.0773	-0.128	-0.0332	-0.0393	-0.1219	-0.0172	-0.0846	-0.0658	-0.023	-0.0472	-0.05	-0.0497	-0.0525	-0.1636	-0.029	-0.0287	-0.13	-0.0204	-0.0392	-0.1667	-0.1855	-0.085	-0.0325	-0.0149	-0.0561	-0.0326	-0.0307	-0.0541	-0.0373	-0.0511	-0.0279	-0.0742	-0.0769	-0.0671	-0.0358	-0.0488	-0.0339	-0.0813	-0.0149	-0.0168	-0.028
