	PC1	PC2	PC3	PC4	PC5	PC6	PC7	PC8	PC9	PC10	PC11	PC12	PC13	PC14	PC15	PC16	PC17	PC18	PC19	PC20	PC21	PC22	PC23	PC24	PC25	PC26	PC27	PC28	PC29	PC30	PC31	PC32	PC33	PC34	PC35	PC36	PC37	PC38	PC39	PC40	PC41	PC42	PC43	PC44	PC45	PC46	PC47	PC48	PC49	PC50	PC51	PC52	PC53	PC54	PC55	PC56	PC57	PC58	PC59	PC60	PC61	PC62	PC63	PC64	PC65	PC66	PC67	PC68	PC69	PC70	PC71	PC72	PC73	PC74	PC75	PC76	PC77	PC78	PC79	PC80	PC81	PC82	PC83	PC84	PC85	PC86	PC87	PC88	PC89	PC90	PC91	PC92	PC93	PC94	PC95	PC96	PC97	PC98	PC99	PC100
direct_vc_estimate	-0.0156	0.0095	0.0086	0.0133	0.0061	0.0377	-0.0022	-0.0007	0.0067	-0.0015	-0.0018	-0.0028	-0.0019	-0.0001	-0.0036	0.0159	-0.0031	-0.0019	-0.0032	0.0062	0.0112	-0.0002	-0.0033	0.0012	0.0032	-0.0035	-0.0028	0.0016	0.0079	-0.002	0.0303	-0.0006	0.0009	-0.0001	0.0018	-0.0022	0.0019	0.0241	0.0066	0.018	-0.0002	0.0009	0.0042	0.0034	-0.002	-0.0044	0.0108	0.0035	-0.0029	0.0024	-0.0027	0.0177	-0.0032	-0.0027	0.0001	0.0223	-0.002	0.0056	-0.0024	0.0064	0.0007	0.0008	-0.0025	0.0059	0.0012	-0.0032	-0.0029	-0.0012	-0.0015	-0.0027	0.004	0.0026	-0.0001	0.0018	-0.0004	0.0142	0.0145	0.0003	0.0158	0.0198	-0.003	-0.0027	-0.003	0.0229	-0.0013	-0.0026	-0.0007	-0.002	-0.0004	-0.0004	-0.0006	-0.0024	-0.002	-0.0023	0.002	0.0036	0.0019	-0.0011	-0.0026	-0.0025
direct_vc_estimate_se	0.0021	0.0008	0.0005	0.0007	0.0005	0.0006	0.0004	0.0004	0.0005	0.0004	0.0003	0.0004	0.0005	0.0003	0.0005	0.0006	0.0004	0.0004	0.0004	0.0003	0.0005	0.0004	0.0004	0.0005	0.0005	0.0005	0.0005	0.0005	0.0005	0.0004	0.0005	0.0004	0.0005	0.0004	0.0004	0.0005	0.0005	0.0005	0.0003	0.0004	0.0004	0.0004	0.0005	0.0004	0.0004	0.0006	0.0004	0.0004	0.0004	0.0004	0.0004	0.0004	0.0004	0.0004	0.0004	0.0004	0.0004	0.0004	0.0004	0.0005	0.0004	0.0004	0.0004	0.0004	0.0004	0.0005	0.0004	0.0003	0.0003	0.0004	0.0005	0.0004	0.0004	0.0003	0.0004	0.0005	0.0003	0.0004	0.0005	0.0006	0.0004	0.0004	0.0004	0.0004	0.0004	0.0004	0.0004	0.0004	0.0003	0.0004	0.0004	0.0003	0.0003	0.0004	0.0004	0.0003	0.0003	0.0003	0.0004	0.0003
direct_vc_pvals	0.978	0.345	0.169	0.24	0.249	0.085	0.786	0.536	0.249	0.539	0.712	0.948	0.661	0.375	0.957	0.174	0.887	0.718	0.998	0.254	0.263	0.483	0.921	0.399	0.447	0.881	0.783	0.647	0.271	0.663	0.03	0.561	0.495	0.513	0.503	0.671	0.352	0.151	0.155	0.074	0.571	0.455	0.261	0.439	0.688	0.983	0.229	0.349	0.896	0.562	0.902	0.081	0.995	0.986	0.452	0.07	0.662	0.281	0.748	0.259	0.581	0.46	0.819	0.33	0.347	0.783	0.992	0.599	0.737	0.893	0.282	0.352	0.566	0.328	0.424	0.25	0.07	0.438	0.25	0.139	0.911	0.937	0.988	0.033	0.536	0.862	0.652	0.618	0.551	0.41	0.525	0.977	0.88	0.769	0.47	0.174	0.446	0.487	0.746	0.968
upper95_perm_direct	0.0911	0.057	0.0222	0.0498	0.029	0.055	0.0221	0.0226	0.0297	0.0149	0.0117	0.0335	0.035	0.0118	0.0165	0.0422	0.0345	0.0195	0.0266	0.0243	0.0412	0.0195	0.0204	0.0231	0.0393	0.0325	0.0257	0.0325	0.0345	0.0165	0.0281	0.0255	0.0327	0.0203	0.0434	0.0262	0.0252	0.0573	0.018	0.0258	0.0265	0.0253	0.0244	0.0343	0.0199	0.039	0.0283	0.027	0.0174	0.0334	0.0128	0.025	0.0313	0.0217	0.0232	0.0328	0.0251	0.0278	0.0201	0.0286	0.0388	0.0222	0.0258	0.0344	0.0168	0.0257	0.0298	0.0186	0.0214	0.0197	0.0231	0.0255	0.0387	0.0156	0.0154	0.0469	0.0202	0.0223	0.0548	0.0456	0.0213	0.016	0.0124	0.0222	0.0152	0.0175	0.0363	0.0129	0.0208	0.0131	0.0252	0.034	0.0298	0.0248	0.0269	0.0118	0.0314	0.0108	0.0186	0.0179
lower0_perm_direct	-0.0219	-0.0081	-0.0054	-0.0074	-0.0051	-0.0065	-0.0038	-0.0046	-0.0052	-0.0046	-0.0032	-0.004	-0.0053	-0.0029	-0.0053	-0.006	-0.0047	-0.004	-0.0048	-0.0032	-0.0059	-0.0037	-0.0048	-0.0049	-0.005	-0.0052	-0.0048	-0.0047	-0.005	-0.004	-0.0053	-0.0046	-0.0049	-0.004	-0.0048	-0.0052	-0.0053	-0.005	-0.0031	-0.0045	-0.0037	-0.0043	-0.0056	-0.0047	-0.0043	-0.0064	-0.004	-0.0046	-0.0042	-0.0038	-0.004	-0.0047	-0.0046	-0.0038	-0.004	-0.004	-0.0045	-0.0041	-0.0043	-0.0053	-0.0046	-0.0041	-0.0041	-0.0041	-0.0043	-0.0052	-0.0041	-0.0035	-0.0037	-0.004	-0.005	-0.0043	-0.0046	-0.0035	-0.004	-0.0055	-0.0035	-0.0048	-0.0052	-0.0062	-0.0043	-0.004	-0.0042	-0.004	-0.0045	-0.0038	-0.0046	-0.0045	-0.0035	-0.0041	-0.0047	-0.0035	-0.0033	-0.0041	-0.0039	-0.0037	-0.0037	-0.0037	-0.0045	-0.0037
sad_vc_estimate	-0.0147	0.009	0.035	0.0285	0.0307	0.0528	-0.0024	-0.0029	0.043	-0.0021	-0.0021	0.0007	0.0025	0.0089	-0.0033	0.0424	-0.0011	-0.0017	0.0135	0.0199	0.0314	0.008	-0.0021	0.0093	0.0053	-0.0024	-0.0022	0.0023	0.0095	-0.0029	0.0416	-0.0031	-0.0029	-0.0017	0.0237	-0.0036	-0.0024	0.0784	0.0088	0.0425	-0.0016	-0.0015	-0.0018	0.0013	-0.0009	-0.0025	0.0175	0.0054	-0.0024	-0.0021	-0.0027	0.0143	0.0025	-0.0014	0.006	0.0611	-0.0003	0.0074	0.0165	0.0064	-0.0008	0.0014	-0.0029	0.0405	0.0004	-0.0026	0.0005	0.0037	0.0026	-0.0002	0.0182	-0.001	0.0006	0.0096	-0.0016	0.0419	0.0308	-0.003	0.0041	0.019	0.0083	-0.0004	0.0006	0.0533	0.0096	-0.0013	-0.0023	0.0008	0.0036	0.0004	0.0176	-0.0025	-0.0024	-0.0026	0.014	0.0037	0.0041	0.0036	-0.0032	-0.0026
sad_vc_estimate_se	0.0021	0.0008	0.0005	0.0007	0.0005	0.0006	0.0004	0.0004	0.0005	0.0004	0.0003	0.0004	0.0005	0.0003	0.0005	0.0006	0.0004	0.0004	0.0004	0.0003	0.0005	0.0004	0.0005	0.0005	0.0005	0.0005	0.0005	0.0005	0.0005	0.0004	0.0005	0.0004	0.0005	0.0004	0.0004	0.0005	0.0005	0.0005	0.0003	0.0005	0.0004	0.0004	0.0005	0.0004	0.0004	0.0006	0.0004	0.0004	0.0004	0.0004	0.0004	0.0005	0.0004	0.0004	0.0004	0.0004	0.0004	0.0004	0.0004	0.0005	0.0004	0.0004	0.0004	0.0004	0.0004	0.0005	0.0004	0.0003	0.0004	0.0004	0.0005	0.0004	0.0004	0.0003	0.0004	0.0005	0.0003	0.0004	0.0005	0.0006	0.0004	0.0004	0.0004	0.0004	0.0004	0.0004	0.0004	0.0004	0.0003	0.0004	0.0004	0.0003	0.0003	0.0004	0.0004	0.0004	0.0003	0.0003	0.0004	0.0003
sad_vc_pvals	0.885	0.549	0.061	0.275	0.13	0.175	0.85	0.86	0.057	0.68	0.834	0.595	0.576	0.117	0.86	0.111	0.724	0.726	0.18	0.139	0.21	0.234	0.731	0.238	0.367	0.772	0.75	0.733	0.409	0.961	0.079	0.88	0.85	0.74	0.265	0.934	0.732	0.07	0.21	0.039	0.707	0.701	0.691	0.532	0.733	0.716	0.315	0.436	0.78	0.826	0.905	0.162	0.528	0.73	0.398	0.051	0.631	0.358	0.15	0.402	0.679	0.534	0.955	0.15	0.541	0.75	0.619	0.391	0.394	0.636	0.141	0.706	0.63	0.194	0.723	0.21	0.064	0.884	0.587	0.376	0.237	0.582	0.49	0.011	0.25	0.656	0.807	0.462	0.446	0.504	0.176	0.963	0.981	0.881	0.39	0.327	0.443	0.357	0.978	0.939
upper95_perm_sad	0.1886	0.1326	0.0471	0.1079	0.0552	0.1	0.0323	0.041	0.0527	0.0276	0.0248	0.0515	0.0646	0.0176	0.049	0.0752	0.0584	0.0395	0.0396	0.0382	0.0878	0.0289	0.041	0.0355	0.0445	0.0746	0.0426	0.0744	0.0541	0.0315	0.0609	0.0423	0.0602	0.0381	0.0866	0.0518	0.0469	0.1052	0.0266	0.0463	0.0282	0.0369	0.0626	0.0457	0.0442	0.0696	0.0561	0.0496	0.0347	0.0476	0.0251	0.0345	0.0626	0.0368	0.0454	0.0732	0.0486	0.0435	0.0372	0.0562	0.0449	0.04	0.0493	0.0787	0.039	0.0546	0.0478	0.0335	0.0233	0.041	0.0381	0.0507	0.0583	0.0284	0.0317	0.1066	0.04	0.0415	0.0912	0.1011	0.0338	0.0314	0.0249	0.0398	0.0374	0.0258	0.0513	0.0268	0.0366	0.0276	0.047	0.0418	0.0351	0.0519	0.0585	0.0276	0.054	0.0285	0.0364	0.0265
lower0_perm_sad	-0.0223	-0.0082	-0.0055	-0.0082	-0.0051	-0.0066	-0.0038	-0.0046	-0.0052	-0.0048	-0.0032	-0.004	-0.0057	-0.003	-0.0055	-0.0064	-0.0047	-0.0041	-0.0046	-0.0034	-0.0056	-0.0038	-0.0049	-0.0048	-0.005	-0.0053	-0.005	-0.0046	-0.0051	-0.0041	-0.0053	-0.0049	-0.005	-0.004	-0.0045	-0.0053	-0.0054	-0.0048	-0.0032	-0.0048	-0.0038	-0.0043	-0.006	-0.0047	-0.0043	-0.0064	-0.0042	-0.0047	-0.0041	-0.0042	-0.0038	-0.0047	-0.0049	-0.0039	-0.0042	-0.0041	-0.0045	-0.0039	-0.0043	-0.0056	-0.0046	-0.0041	-0.0042	-0.0042	-0.0044	-0.0054	-0.0042	-0.0035	-0.0037	-0.0042	-0.0051	-0.0044	-0.0047	-0.0035	-0.0041	-0.0056	-0.0036	-0.0046	-0.005	-0.0064	-0.0043	-0.004	-0.0043	-0.004	-0.0046	-0.0039	-0.0045	-0.0045	-0.0033	-0.0041	-0.0045	-0.0035	-0.0035	-0.004	-0.0041	-0.0038	-0.0037	-0.0039	-0.0044	-0.0037
covar_vc_estimate	0.031	-0.0186	-0.0363	-0.0396	-0.0294	-0.0894	0.0061	0.0046	-0.0367	0.0036	0.0052	0.0049	0.0007	-0.0052	0.0074	-0.0529	0.0053	0.0036	0.0063	-0.023	-0.0384	-0.0049	0.0062	-0.0086	-0.0084	0.0085	0.0086	-0.0039	-0.0174	0.0054	-0.0712	0.005	0.0104	0.0021	-0.0169	0.0066	0.0018	-0.0881	-0.0153	-0.0559	0.0021	0.0011	-0.0006	-0.0045	0.0092	0.0091	-0.0277	-0.0088	0.0065	0.0018	0.0054	-0.032	0.0066	0.0055	-0.0045	-0.0746	0.0027	-0.013	-0.001	-0.0129	0.0002	-0.0023	0.0062	-0.0333	-0.0016	0.0059	0.0059	-0.0007	0.0004	0.0046	-0.0185	-0.0009	-0.0005	-0.0095	0.0022	-0.0499	-0.0426	0.0045	-0.0173	-0.0389	0.0081	0.0059	0.006	-0.0703	-0.0034	0.0061	0.0092	0.002	-0.0022	0.0001	-0.0083	0.0049	0.0048	0.0064	-0.0124	-0.0073	-0.0058	-0.001	0.0064	0.0051
covar_vc_estimate_se	0.2522	0.1521	0.1223	0.1479	0.1218	0.1362	0.1041	0.1122	0.1197	0.1147	0.096	0.1066	0.1233	0.0916	0.1213	0.1307	0.1151	0.1074	0.1143	0.097	0.1265	0.1032	0.1163	0.1184	0.1203	0.123	0.1173	0.1174	0.1195	0.1075	0.1241	0.1151	0.1195	0.1064	0.1141	0.1222	0.1233	0.1186	0.0937	0.1162	0.1032	0.1104	0.1269	0.1156	0.1118	0.1341	0.1086	0.114	0.1101	0.1075	0.1058	0.1165	0.1148	0.105	0.1079	0.1095	0.1129	0.107	0.1104	0.1251	0.1146	0.1074	0.1088	0.11	0.1133	0.1231	0.108	0.0989	0.1028	0.1069	0.1193	0.1105	0.1151	0.0995	0.1065	0.1246	0.1004	0.1139	0.1192	0.1314	0.1111	0.1048	0.1095	0.1067	0.1135	0.1039	0.1129	0.1125	0.0975	0.1078	0.1149	0.0996	0.0974	0.1073	0.1082	0.1029	0.1023	0.1018	0.1131	0.1016
covar_vc_pvals	0.08	0.492	0.069	0.258	0.17	0.087	0.066	0.178	0.108	0.321	0.075	0.092	0.265	0.253	0.115	0.107	0.129	0.212	0.094	0.171	0.212	0.393	0.126	0.337	0.447	0.063	0.041	0.229	0.359	0.137	0.022	0.19	0.026	0.247	0.429	0.153	0.347	0.085	0.149	0.029	0.257	0.304	0.434	0.464	0.046	0.098	0.258	0.441	0.06	0.202	0.137	0.073	0.088	0.052	0.495	0.035	0.267	0.335	0.434	0.342	0.27	0.413	0.052	0.22	0.486	0.17	0.067	0.418	0.37	0.16	0.182	0.37	0.294	0.243	0.329	0.211	0.028	0.218	0.493	0.25	0.049	0.08	0.115	0.003	0.435	0.081	0.021	0.415	0.413	0.489	0.398	0.053	0.044	0.048	0.491	0.227	0.481	0.461	0.07	0.105
upper975_perm_covar	0.0497	0.0244	0.0131	0.0218	0.0128	0.0131	0.0106	0.0103	0.0128	0.0121	0.0093	0.0094	0.0121	0.0069	0.015	0.0155	0.0144	0.0099	0.0119	0.0083	0.013	0.0095	0.0121	0.0125	0.0129	0.0148	0.0116	0.01	0.0126	0.0118	0.0125	0.0138	0.0128	0.0104	0.011	0.0164	0.0159	0.0131	0.0081	0.0144	0.0088	0.0111	0.0178	0.0134	0.0129	0.0172	0.0083	0.0108	0.0111	0.0098	0.0103	0.0125	0.0131	0.0081	0.012	0.012	0.0113	0.0097	0.0117	0.0129	0.0109	0.009	0.0096	0.0144	0.0127	0.0137	0.0092	0.0089	0.0091	0.0116	0.0127	0.0107	0.0131	0.0092	0.0097	0.0169	0.008	0.0123	0.0117	0.0183	0.0127	0.0101	0.0109	0.0097	0.0127	0.0111	0.0109	0.0139	0.0076	0.0119	0.0124	0.0081	0.0071	0.0095	0.0097	0.0093	0.0094	0.0105	0.0098	0.0088
lower025_perm_covar	-0.2722	-0.1802	-0.0663	-0.1468	-0.0763	-0.1439	-0.0535	-0.0563	-0.0786	-0.0389	-0.0327	-0.0797	-0.0965	-0.0249	-0.0619	-0.1046	-0.0804	-0.0565	-0.0599	-0.054	-0.116	-0.0406	-0.0577	-0.0536	-0.0728	-0.1032	-0.0596	-0.0948	-0.0795	-0.0463	-0.0824	-0.0702	-0.0944	-0.0509	-0.1194	-0.0714	-0.0654	-0.1482	-0.04	-0.0698	-0.0499	-0.0513	-0.0853	-0.0677	-0.0612	-0.0984	-0.0845	-0.0767	-0.0514	-0.0731	-0.0368	-0.0551	-0.0844	-0.0578	-0.0643	-0.0926	-0.0701	-0.0644	-0.0526	-0.0779	-0.0722	-0.0579	-0.0697	-0.1069	-0.0503	-0.0715	-0.0775	-0.0473	-0.0433	-0.0568	-0.0578	-0.0695	-0.0872	-0.0405	-0.0468	-0.1357	-0.0557	-0.0572	-0.1413	-0.1391	-0.0504	-0.0418	-0.0361	-0.0588	-0.0492	-0.0387	-0.0773	-0.0374	-0.0492	-0.0414	-0.0699	-0.0726	-0.0554	-0.0726	-0.0782	-0.0364	-0.0758	-0.0389	-0.0545	-0.0419
