	PC1	PC2	PC3	PC4	PC5	PC6	PC7	PC8	PC9	PC10	PC11	PC12	PC13	PC14	PC15	PC16	PC17	PC18	PC19	PC20	PC21	PC22	PC23	PC24	PC25	PC26	PC27	PC28	PC29	PC30	PC31	PC32	PC33	PC34	PC35	PC36	PC37	PC38	PC39	PC40	PC41	PC42	PC43	PC44	PC45	PC46	PC47	PC48	PC49	PC50	PC51	PC52	PC53	PC54	PC55	PC56	PC57	PC58	PC59	PC60	PC61	PC62	PC63	PC64	PC65	PC66	PC67	PC68	PC69	PC70	PC71	PC72	PC73	PC74	PC75	PC76	PC77	PC78	PC79	PC80	PC81	PC82	PC83	PC84	PC85	PC86	PC87	PC88	PC89	PC90	PC91	PC92	PC93	PC94	PC95	PC96	PC97	PC98	PC99	PC100
direct_vc_estimate	-0.0133	0.0256	0.0038	-0.0039	0.0302	-0.005	-0.0025	0.0042	0.0009	0.0519	0.0258	0.0007	-0.0029	-0.0036	0.0123	-0.0041	0.0022	-0.0002	0.0048	0.0185	-0.0021	0.0012	0.024	0.0534	0.0047	-0.0022	0.0086	-0.0045	0.0299	-0.0019	0.0006	0.0345	-0.0035	-0.0045	-0.0044	-0.0044	0.0213	-0.0046	-0.0036	-0.0042	0.0192	-0.0031	-0.0045	0.0076	-0.0045	0.0098	-0.0023	-0.0048	-0.0038	0.0058	-0.0016	-0.0002	-0.0033	-0.0002	-0.0037	-0.0042	0.0314	0.0056	-0.0026	0.0178	0.0059	0.0055	0.0006	-0.0013	-0.0021	-0.0012	-0.0037	0.0035	-0.0043	-0.0033	0.0106	0.0157	-0.004	0.0156	0.0435	0.0082	-0.003	-0.0045	-0.0045	-0.0039	0.0006	0.0079	-0.0043	-0.0022	-0.0048	0.0342	0.0273	0.0047	0.0532	-0.0029	-0.0018	-0.0044	0.0141	0.0133	-0.0043	-0.0028	0.0157	0.0004	-0.0041	0.0256
direct_vc_estimate_se	0.1349	0.0568	0.0436	0.0404	0.038	0.0378	0.036	0.0353	0.0356	0.0358	0.0345	0.0348	0.0353	0.0358	0.0347	0.0336	0.0355	0.0341	0.0349	0.0353	0.035	0.0352	0.0356	0.0341	0.035	0.0355	0.0341	0.0339	0.0334	0.0336	0.0355	0.0356	0.0332	0.0343	0.0355	0.0347	0.0366	0.0374	0.0334	0.033	0.0337	0.0365	0.0343	0.0355	0.0336	0.0337	0.0343	0.0368	0.0334	0.0338	0.0333	0.0335	0.0341	0.0338	0.0326	0.0332	0.0345	0.035	0.0333	0.034	0.0328	0.0337	0.0338	0.0342	0.0339	0.0346	0.0337	0.033	0.0324	0.0344	0.034	0.0346	0.0328	0.035	0.033	0.035	0.0339	0.0336	0.0349	0.0329	0.0326	0.0322	0.0334	0.0348	0.0375	0.0334	0.0341	0.0354	0.034	0.035	0.035	0.0333	0.0339	0.0349	0.0347	0.0348	0.0348	0.0328	0.0334	0.0335
direct_vc_pvals	0.694	0.128	0.344	0.678	0.051	0.977	0.569	0.32	0.41	0.011	0.082	0.413	0.627	0.682	0.128	0.823	0.356	0.467	0.269	0.097	0.546	0.406	0.071	0.002	0.276	0.55	0.196	0.954	0.04	0.602	0.407	0.033	0.722	0.953	0.848	0.863	0.082	0.858	0.752	0.869	0.088	0.665	0.989	0.233	0.994	0.203	0.58	0.928	0.808	0.227	0.574	0.449	0.731	0.439	0.768	0.881	0.04	0.235	0.636	0.078	0.242	0.248	0.41	0.511	0.583	0.477	0.752	0.321	0.94	0.702	0.183	0.127	0.827	0.129	0.012	0.177	0.682	0.977	0.914	0.815	0.434	0.217	0.915	0.563	0.886	0.021	0.035	0.249	0.009	0.657	0.552	0.952	0.107	0.124	0.85	0.628	0.109	0.422	0.832	0.044
upper95_perm_direct	0.152	0.0617	0.0423	0.0419	0.0364	0.0374	0.0305	0.0328	0.0364	0.0369	0.044	0.0326	0.0358	0.0335	0.0342	0.0315	0.037	0.0315	0.0321	0.0347	0.0289	0.0349	0.0379	0.0301	0.0294	0.0356	0.0331	0.0298	0.0347	0.0318	0.0365	0.0347	0.0347	0.0312	0.0371	0.0413	0.0386	0.0323	0.0275	0.0327	0.0335	0.0367	0.0346	0.0382	0.0268	0.0422	0.0297	0.0384	0.0362	0.0333	0.0317	0.0336	0.0368	0.027	0.0286	0.0305	0.035	0.0355	0.0331	0.0288	0.0329	0.0325	0.035	0.0285	0.0344	0.0287	0.0332	0.0358	0.0279	0.0304	0.0332	0.0387	0.0312	0.0377	0.0306	0.028	0.036	0.0332	0.0363	0.0302	0.0373	0.0322	0.0331	0.032	0.0363	0.0298	0.0304	0.0294	0.0359	0.0327	0.0315	0.0318	0.0311	0.03	0.0273	0.0336	0.0346	0.0307	0.0308	0.0312
lower0_perm_direct	-0.027	-0.0116	-0.0088	-0.0079	-0.0078	-0.0077	-0.0072	-0.0069	-0.0074	-0.0074	-0.0067	-0.0069	-0.0073	-0.0071	-0.0069	-0.0065	-0.0073	-0.0071	-0.0068	-0.0068	-0.0068	-0.0069	-0.0069	-0.0071	-0.0068	-0.0073	-0.0069	-0.0066	-0.0067	-0.0066	-0.0069	-0.0071	-0.0064	-0.007	-0.0073	-0.0068	-0.0073	-0.0074	-0.0067	-0.0066	-0.0067	-0.0071	-0.0071	-0.0071	-0.0069	-0.0066	-0.0071	-0.0073	-0.0067	-0.0065	-0.0065	-0.0064	-0.0067	-0.0066	-0.0065	-0.0063	-0.0069	-0.0072	-0.0067	-0.0067	-0.0065	-0.0066	-0.0065	-0.007	-0.0066	-0.0068	-0.0068	-0.0064	-0.0063	-0.0068	-0.0067	-0.0067	-0.0067	-0.007	-0.0064	-0.007	-0.0067	-0.0067	-0.0069	-0.0067	-0.0063	-0.0064	-0.0065	-0.0069	-0.0074	-0.0066	-0.0067	-0.0071	-0.007	-0.0068	-0.0072	-0.0068	-0.0067	-0.0071	-0.0069	-0.0071	-0.007	-0.0068	-0.0067	-0.0068
sad_vc_estimate	0.0175	0.1159	-0.0016	-0.0042	0.0325	-0.0052	-0.0046	-0.0031	-0.0013	0.0707	0.0235	-0.0037	0.0041	-0.0013	0.0128	-0.0045	-0.0013	0.0201	0.0198	0.0258	0.0182	0.0166	0.0237	0.0529	-0.0047	-0.0049	0.0012	-0.0023	0.0402	-0.0048	-0.005	0.0667	-0.0044	-0.0022	-0.0032	0.0018	0.0162	0.0077	0.0003	-0.0039	0.0144	-0.0007	-0.0047	0.0391	-0.0044	0.0109	-0.0006	-0.0051	-0.0038	0.005	-0.0044	0.019	0.0014	0.0038	0.0034	-0.0047	0.0189	0.0119	-0.0034	0.0028	0.0137	0.0437	0.0013	-0.0047	-0.0045	-0.0034	-0.0045	-0.0006	-0.0044	-0.0022	0.0173	0.0088	-0.0042	0.0116	0.0465	0.0227	-0.0048	-0.0041	-0.004	0.0044	0.0116	0.0079	-0.0048	-0.0045	-0.0032	0.037	0.047	0.002	0.0616	0.0001	-0.0032	0.0016	0.0177	0.0244	-0.0048	-0.0016	0.0158	0.0058	-0.0021	0.0077
sad_vc_estimate_se	0.1475	0.0617	0.047	0.0438	0.0412	0.0407	0.039	0.0383	0.0384	0.0387	0.0374	0.0379	0.0383	0.0387	0.0375	0.0364	0.0383	0.0372	0.0377	0.0381	0.0379	0.0381	0.0385	0.037	0.0378	0.0384	0.0372	0.0368	0.0363	0.0363	0.0383	0.0388	0.036	0.0372	0.0384	0.0375	0.0395	0.0402	0.0362	0.0358	0.0366	0.0395	0.0373	0.0383	0.0364	0.0366	0.0371	0.0397	0.0364	0.0367	0.0361	0.0363	0.0369	0.0367	0.0357	0.0359	0.0372	0.0378	0.036	0.0367	0.0356	0.0365	0.0367	0.037	0.0367	0.0379	0.0364	0.0358	0.0351	0.0372	0.0369	0.0373	0.0357	0.038	0.0357	0.0377	0.0368	0.0366	0.0377	0.0357	0.0354	0.0349	0.0363	0.0376	0.0403	0.0361	0.0369	0.0381	0.0369	0.0378	0.0378	0.0361	0.0369	0.0376	0.0376	0.0376	0.0375	0.0357	0.0361	0.0363
sad_vc_pvals	0.355	0.007	0.549	0.722	0.074	0.904	0.799	0.665	0.548	0.013	0.111	0.711	0.327	0.552	0.179	0.859	0.57	0.126	0.13	0.087	0.137	0.151	0.099	0.023	0.872	0.902	0.437	0.608	0.033	0.958	0.892	0.007	0.87	0.613	0.681	0.429	0.164	0.267	0.44	0.764	0.181	0.471	0.879	0.036	0.822	0.209	0.52	0.895	0.744	0.337	0.847	0.126	0.429	0.319	0.374	0.937	0.1	0.182	0.718	0.38	0.182	0.024	0.429	0.881	0.838	0.699	0.867	0.484	0.88	0.615	0.125	0.237	0.842	0.229	0.017	0.084	0.949	0.79	0.757	0.333	0.201	0.279	0.971	0.806	0.678	0.033	0.03	0.393	0.012	0.461	0.689	0.426	0.138	0.068	0.869	0.574	0.156	0.3	0.597	0.242
upper95_perm_sad	0.1968	0.0747	0.0566	0.0484	0.0491	0.0445	0.0461	0.0408	0.0436	0.0526	0.0498	0.0466	0.0451	0.0465	0.0423	0.0413	0.0405	0.0489	0.0427	0.0453	0.0447	0.0402	0.0425	0.0443	0.0449	0.0421	0.0409	0.0411	0.044	0.046	0.0399	0.0426	0.0412	0.0387	0.0402	0.0499	0.0442	0.0437	0.0398	0.0407	0.0427	0.0444	0.0426	0.0432	0.0416	0.0396	0.0411	0.0447	0.045	0.0458	0.045	0.0414	0.0428	0.0368	0.0418	0.0451	0.036	0.0455	0.0429	0.0407	0.0413	0.0419	0.0429	0.0423	0.04	0.0412	0.0458	0.0404	0.0344	0.0397	0.0432	0.0413	0.0443	0.0524	0.0365	0.0393	0.0426	0.0386	0.0471	0.0409	0.0459	0.0428	0.0433	0.0395	0.0446	0.0358	0.0479	0.0441	0.0402	0.0403	0.0444	0.0448	0.0442	0.0368	0.0368	0.0389	0.0477	0.0397	0.0402	0.0403
lower0_perm_sad	-0.0305	-0.0125	-0.0094	-0.009	-0.0085	-0.0081	-0.0078	-0.0075	-0.0075	-0.008	-0.0073	-0.0076	-0.0077	-0.0075	-0.0073	-0.007	-0.0076	-0.0073	-0.0071	-0.0076	-0.0074	-0.0079	-0.0077	-0.0073	-0.0076	-0.0074	-0.0076	-0.0075	-0.0071	-0.007	-0.0076	-0.0079	-0.0071	-0.0072	-0.0077	-0.0074	-0.0078	-0.0079	-0.007	-0.0074	-0.0072	-0.0077	-0.0073	-0.0075	-0.0071	-0.0072	-0.0074	-0.008	-0.0074	-0.0073	-0.0073	-0.0073	-0.0068	-0.007	-0.0071	-0.007	-0.0073	-0.0078	-0.0074	-0.0071	-0.0071	-0.007	-0.0071	-0.0072	-0.0073	-0.0078	-0.0075	-0.0072	-0.0073	-0.0071	-0.0074	-0.0072	-0.007	-0.0074	-0.0071	-0.0072	-0.0074	-0.0072	-0.0073	-0.0073	-0.0068	-0.0067	-0.0072	-0.0074	-0.0079	-0.007	-0.0072	-0.0073	-0.0075	-0.0073	-0.0071	-0.007	-0.0076	-0.0075	-0.0072	-0.0072	-0.0075	-0.0068	-0.0071	-0.0069
covar_vc_estimate	0.0617	-0.1132	-0.0018	0.0137	-0.063	0.0101	0.0072	0.0011	0.0001	-0.1216	-0.0497	0.0039	0.0013	0.0052	-0.0255	0.0083	-0.0008	-0.0117	-0.0213	-0.0441	-0.006	-0.0132	-0.0481	-0.1067	0.0061	0.008	-0.0089	0.0096	-0.0697	0.0083	0.0078	-0.0967	0.0077	0.0096	0.008	0.0066	-0.0376	0.0056	0.0048	0.0079	-0.0338	0.004	0.0091	-0.0371	0.0089	-0.0211	0.0029	0.01	0.0073	-0.0112	0.0068	-0.0112	0.0036	-0.0032	0.004	0.0086	-0.0495	-0.017	0.0056	-0.0171	-0.0187	-0.0351	-0.0023	0.0073	0.0071	0.0044	0.008	-0.0027	0.0088	0.0129	-0.0276	-0.0242	0.0078	-0.0273	-0.0904	-0.0284	0.0094	0.009	0.0098	0.0047	-0.0093	-0.0162	0.0089	0.007	0.0112	-0.0715	-0.0722	-0.0069	-0.1149	0.0033	0.0047	0.0097	-0.0319	-0.0366	0.0097	0.0043	-0.0318	-0.0055	0.0107	-0.0298
covar_vc_estimate_se	0.3886	0.2136	0.1803	0.1724	0.1662	0.1652	0.1608	0.159	0.1595	0.1602	0.1568	0.158	0.1591	0.1602	0.1572	0.1543	0.1593	0.1562	0.1577	0.1587	0.1581	0.1586	0.1597	0.1558	0.1579	0.1593	0.1562	0.1552	0.1539	0.1542	0.1592	0.1601	0.1533	0.1562	0.1594	0.1572	0.1621	0.1641	0.1537	0.1528	0.1547	0.1621	0.1564	0.1592	0.1544	0.1547	0.1562	0.1627	0.1541	0.155	0.1536	0.154	0.1555	0.155	0.1523	0.1532	0.1565	0.158	0.1534	0.1551	0.1522	0.1546	0.1549	0.1558	0.155	0.1578	0.1544	0.1526	0.151	0.1564	0.1555	0.1568	0.1525	0.1583	0.1526	0.1578	0.1552	0.1547	0.1576	0.1525	0.1517	0.1505	0.1539	0.1574	0.1643	0.1536	0.1556	0.1588	0.1556	0.1579	0.1579	0.1535	0.1554	0.1575	0.1573	0.1575	0.1573	0.1524	0.1536	0.1541
covar_vc_pvals	0.007	0.018	0.49	0.035	0.029	0.074	0.214	0.405	0.436	0.003	0.052	0.341	0.427	0.299	0.129	0.129	0.438	0.302	0.172	0.055	0.397	0.259	0.051	0.003	0.23	0.162	0.325	0.075	0.009	0.115	0.16	0.002	0.129	0.061	0.155	0.216	0.08	0.254	0.289	0.144	0.081	0.351	0.082	0.087	0.089	0.181	0.353	0.094	0.165	0.296	0.168	0.302	0.311	0.419	0.294	0.09	0.029	0.224	0.237	0.193	0.192	0.073	0.485	0.171	0.17	0.344	0.131	0.479	0.08	0.021	0.104	0.16	0.109	0.146	0.004	0.1	0.057	0.085	0.07	0.287	0.335	0.239	0.1	0.215	0.039	0.007	0.014	0.353	0.002	0.372	0.256	0.047	0.081	0.054	0.072	0.316	0.102	0.406	0.035	0.097
upper975_perm_covar	0.0637	0.0267	0.0185	0.0191	0.0166	0.0171	0.0171	0.018	0.0174	0.0167	0.0144	0.017	0.0177	0.0169	0.0172	0.0159	0.016	0.0163	0.0176	0.0172	0.0179	0.016	0.017	0.0155	0.016	0.0158	0.0164	0.0164	0.0175	0.0163	0.0149	0.0159	0.0153	0.015	0.0159	0.0193	0.0166	0.0159	0.0162	0.0162	0.0154	0.0163	0.0157	0.0154	0.0154	0.0158	0.0164	0.0191	0.0144	0.0166	0.0151	0.015	0.0145	0.0152	0.0148	0.0148	0.0173	0.0161	0.0149	0.0159	0.0153	0.0155	0.0162	0.015	0.0148	0.0172	0.0155	0.0164	0.0148	0.016	0.0151	0.0167	0.0137	0.0147	0.0152	0.0161	0.0158	0.0158	0.0162	0.0145	0.0149	0.0144	0.0161	0.0174	0.0161	0.0171	0.0151	0.0152	0.0159	0.0157	0.0151	0.0143	0.0148	0.0147	0.0164	0.0152	0.0162	0.0153	0.0147	0.0143
lower025_perm_covar	-0.3297	-0.1306	-0.0862	-0.0859	-0.0846	-0.0755	-0.0712	-0.0662	-0.0774	-0.0831	-0.0829	-0.0777	-0.0743	-0.0775	-0.0773	-0.0662	-0.0728	-0.0746	-0.066	-0.0747	-0.0711	-0.074	-0.0767	-0.0746	-0.0667	-0.0737	-0.0703	-0.0654	-0.0689	-0.0785	-0.0687	-0.0762	-0.0737	-0.0682	-0.0697	-0.0838	-0.0763	-0.0666	-0.0629	-0.0699	-0.0805	-0.079	-0.0742	-0.0774	-0.0671	-0.0749	-0.0682	-0.0668	-0.0777	-0.072	-0.0701	-0.0674	-0.065	-0.0603	-0.0703	-0.0688	-0.0657	-0.0817	-0.065	-0.0671	-0.0708	-0.0652	-0.073	-0.0705	-0.0727	-0.062	-0.076	-0.0788	-0.0605	-0.0779	-0.0657	-0.0693	-0.0674	-0.0848	-0.0661	-0.0725	-0.0673	-0.0675	-0.0797	-0.0714	-0.0756	-0.0662	-0.0619	-0.0661	-0.0742	-0.0684	-0.0759	-0.0638	-0.0759	-0.0708	-0.0708	-0.0697	-0.0689	-0.0617	-0.0632	-0.0701	-0.0702	-0.0682	-0.0667	-0.0638
