	PC1	PC2	PC3	PC4	PC5	PC6	PC7	PC8	PC9	PC10	PC11	PC12	PC13	PC14	PC15	PC16	PC17	PC18	PC19	PC20	PC21	PC22	PC23	PC24	PC25	PC26	PC27	PC28	PC29	PC30	PC31	PC32	PC33	PC34	PC35	PC36	PC37	PC38	PC39	PC40	PC41	PC42	PC43	PC44	PC45	PC46	PC47	PC48	PC49	PC50	PC51	PC52	PC53	PC54	PC55	PC56	PC57	PC58	PC59	PC60	PC61	PC62	PC63	PC64	PC65	PC66	PC67	PC68	PC69	PC70	PC71	PC72	PC73	PC74	PC75	PC76	PC77	PC78	PC79	PC80	PC81	PC82	PC83	PC84	PC85	PC86	PC87	PC88	PC89	PC90	PC91	PC92	PC93	PC94	PC95	PC96	PC97	PC98	PC99	PC100
direct_vc_estimate	1.2277	-0.1545	-0.0517	0.0062	-0.0164	-0.0172	-0.0087	-0.0049	0.0485	-0.0003	-0.0064	-0.0062	-0.005	-0.0041	-0.0057	-0.0039	-0.0053	-0.0057	-0.0056	-0.0047	-0.0054	-0.004	-0.006	-0.0042	0.037	-0.0044	-0.0051	-0.0049	-0.0052	-0.005	-0.0038	-0.0047	-0.0054	-0.0023	0.048	-0.0051	0.0017	-0.0027	0.0076	0.002	-0.0039	0.0012	-0.0031	0.0157	-0.0015	0.0016	-0.0049	-0.002	-0.005	-0.0035	0.0044	0.0006	0.0032	-0.0046	0.0086	-0.0043	-0.0051	0.0085	-0.0029	0.0013	-0.0014	-0.0051	-0.0021	-0.0012	-0.0012	0.012	0.0461	0.0095	0.0048	0.0098	-0.004	-0.0039	-0.001	0.008	-0.0039	0.0115	-0.0042	0.0136	-0.0043	-0.0031	-0.0026	-0.0044	0.0081	0.0007	-0.0031	-0.002	0.0143	-0.0045	-0.0042	-0.0014	-0.0048	-0.003	0.0012	-0.0046	0.0015	-0.0045	0.0095	-0.0055	-0.004	0.0006
direct_vc_estimate_se	0.0928	0.0548	0.0214	0.0174	0.006	0.0047	0.0023	0.0023	0.0019	0.0017	0.0018	0.0017	0.0016	0.0015	0.0016	0.0016	0.0014	0.0015	0.0015	0.0014	0.0014	0.0015	0.0015	0.0013	0.0013	0.0013	0.0013	0.0013	0.0014	0.0013	0.0013	0.0013	0.0014	0.0013	0.0013	0.0014	0.0014	0.0014	0.0013	0.0013	0.0013	0.0014	0.0014	0.0013	0.0013	0.0013	0.0013	0.0015	0.0013	0.0012	0.0013	0.0013	0.0013	0.0013	0.0013	0.0013	0.0014	0.0012	0.0012	0.0013	0.0013	0.0013	0.0013	0.0012	0.0012	0.0013	0.0012	0.0012	0.0013	0.0013	0.0013	0.0013	0.0013	0.0013	0.0013	0.0013	0.0014	0.0012	0.0012	0.0013	0.0013	0.0012	0.0012	0.0013	0.0012	0.0012	0.0012	0.0014	0.0012	0.0013	0.0012	0.0012	0.0012	0.0013	0.0013	0.0012	0.0012	0.0014	0.0012	0.0013
direct_vc_pvals	0.065	0.622	0.621	0.371	0.659	0.836	0.935	0.571	0.01	0.423	0.824	0.801	0.721	0.612	0.84	0.591	0.95	0.979	0.913	0.758	0.902	0.612	0.965	0.732	0.01	0.762	0.95	0.892	0.832	0.911	0.709	0.835	0.943	0.547	0.008	0.895	0.333	0.577	0.188	0.354	0.686	0.397	0.599	0.09	0.468	0.332	0.943	0.54	0.858	0.64	0.287	0.34	0.344	0.759	0.203	0.72	0.821	0.161	0.6	0.378	0.499	0.976	0.518	0.471	0.502	0.115	0.001	0.12	0.31	0.142	0.736	0.702	0.418	0.162	0.737	0.117	0.733	0.113	0.801	0.637	0.58	0.88	0.159	0.384	0.627	0.536	0.073	0.757	0.75	0.45	0.986	0.614	0.297	0.829	0.287	0.854	0.161	0.985	0.762	0.384
upper95_perm_direct	1.4644	1.0169	0.3538	0.2724	0.1153	0.0789	0.0333	0.0363	0.0274	0.0279	0.0297	0.0341	0.0222	0.0206	0.0282	0.0268	0.0271	0.0229	0.0226	0.0334	0.0324	0.0234	0.0225	0.0296	0.0221	0.0233	0.0259	0.0239	0.0256	0.0262	0.0294	0.0209	0.0331	0.0233	0.0305	0.0248	0.0259	0.0292	0.0233	0.0285	0.0225	0.0354	0.0322	0.0248	0.0248	0.0258	0.0233	0.0334	0.0236	0.0233	0.0326	0.0221	0.0352	0.0186	0.0254	0.0186	0.0246	0.0238	0.0198	0.03	0.029	0.0197	0.0224	0.0203	0.0297	0.0239	0.0214	0.0173	0.0309	0.0242	0.0263	0.0295	0.0212	0.0204	0.0239	0.0209	0.0233	0.0254	0.0222	0.0268	0.0251	0.0211	0.0217	0.0229	0.0211	0.0259	0.0192	0.0378	0.0231	0.0224	0.0188	0.0209	0.0153	0.0282	0.018	0.0209	0.0235	0.0242	0.0188	0.0269
lower0_perm_direct	-0.4413	-0.2624	-0.1012	-0.0838	-0.0278	-0.0227	-0.0107	-0.011	-0.0093	-0.0081	-0.0083	-0.0084	-0.0074	-0.007	-0.0076	-0.0074	-0.0066	-0.007	-0.0069	-0.0069	-0.0069	-0.0069	-0.0074	-0.0063	-0.0061	-0.0061	-0.0063	-0.0062	-0.0067	-0.0062	-0.006	-0.006	-0.0067	-0.0061	-0.006	-0.0064	-0.0064	-0.0064	-0.006	-0.0064	-0.0064	-0.0068	-0.0065	-0.0061	-0.0062	-0.0061	-0.006	-0.0072	-0.0065	-0.006	-0.0061	-0.0062	-0.0061	-0.0064	-0.0064	-0.006	-0.0068	-0.0058	-0.0059	-0.0063	-0.006	-0.0064	-0.006	-0.0058	-0.0058	-0.006	-0.0058	-0.0054	-0.0063	-0.006	-0.0065	-0.0063	-0.0061	-0.006	-0.006	-0.0059	-0.0066	-0.0058	-0.0058	-0.0063	-0.0062	-0.0056	-0.0056	-0.0062	-0.0057	-0.0059	-0.0056	-0.0065	-0.0058	-0.0061	-0.0059	-0.0057	-0.0056	-0.0062	-0.0062	-0.0059	-0.0058	-0.0068	-0.0057	-0.0063
sad_vc_estimate	1.176	-0.1941	-0.0779	-0.004	-0.0131	-0.0179	-0.0087	-0.0083	0.0798	0.0015	-0.0061	-0.0064	-0.0054	-0.0039	0.0008	-0.001	-0.0054	-0.0052	-0.0027	-0.0035	-0.0056	-0.0055	-0.0057	-0.005	0.0459	-0.0033	-0.0051	-0.005	-0.0023	-0.004	-0.0038	-0.0049	-0.0052	0.0103	0.0562	-0.0042	0.0046	-0.0044	0.0092	0.0008	-0.0048	-0.0038	-0.002	0.0364	-0.0015	0.0072	-0.0046	-0.003	-0.004	0.0027	0.0161	0.0046	0.0055	-0.0048	0.0073	-0.0048	-0.0055	0.0038	-0.0017	-0.0013	-0.002	-0.0052	-0.0036	0.003	0.0016	0.0155	0.0684	0.0028	0.0038	0.0126	-0.0052	-0.0047	0.0015	0.0076	-0.0037	0.0208	0.0065	0.0393	-0.0046	-0.003	-0.003	-0.003	0.0113	0.0046	0.0034	-0.002	0.0214	-0.0053	-0.0046	0.0019	-0.0045	-0.0021	-0.0026	-0.0041	0.0036	-0.0038	-0.0006	0.0016	-0.0047	0.0016
sad_vc_estimate_se	0.0933	0.0551	0.0215	0.0175	0.006	0.0047	0.0023	0.0023	0.0019	0.0017	0.0018	0.0017	0.0016	0.0015	0.0016	0.0016	0.0014	0.0015	0.0015	0.0014	0.0014	0.0015	0.0015	0.0013	0.0013	0.0013	0.0013	0.0013	0.0014	0.0013	0.0013	0.0013	0.0014	0.0013	0.0013	0.0014	0.0014	0.0014	0.0013	0.0013	0.0013	0.0014	0.0014	0.0013	0.0013	0.0013	0.0013	0.0015	0.0013	0.0012	0.0013	0.0013	0.0013	0.0014	0.0013	0.0013	0.0014	0.0012	0.0013	0.0013	0.0013	0.0013	0.0013	0.0012	0.0012	0.0013	0.0012	0.0012	0.0013	0.0013	0.0013	0.0013	0.0013	0.0013	0.0013	0.0013	0.0014	0.0012	0.0012	0.0013	0.0013	0.0012	0.0012	0.0013	0.0012	0.0012	0.0012	0.0014	0.0012	0.0013	0.0013	0.0012	0.0012	0.0013	0.0013	0.0012	0.0012	0.0014	0.0012	0.0013
sad_vc_pvals	0.065	0.769	0.829	0.433	0.609	0.899	0.935	0.837	0.005	0.372	0.8	0.863	0.772	0.617	0.39	0.446	0.964	0.812	0.554	0.632	0.973	0.898	0.848	0.903	0.011	0.643	0.949	0.971	0.523	0.692	0.749	0.886	0.874	0.176	0.014	0.748	0.287	0.758	0.203	0.44	0.809	0.681	0.581	0.019	0.496	0.244	0.831	0.606	0.689	0.336	0.141	0.245	0.291	0.805	0.233	0.875	0.918	0.296	0.503	0.513	0.561	0.966	0.681	0.324	0.436	0.132	0.004	0.318	0.329	0.165	0.957	0.817	0.337	0.185	0.696	0.058	0.234	0.032	0.866	0.621	0.634	0.636	0.112	0.319	0.314	0.56	0.037	0.98	0.876	0.356	0.856	0.594	0.558	0.751	0.27	0.742	0.477	0.357	0.957	0.362
upper95_perm_sad	1.4997	0.9375	0.4199	0.3172	0.1103	0.0773	0.0321	0.046	0.0346	0.0349	0.0355	0.041	0.0313	0.0238	0.0313	0.0296	0.0323	0.0314	0.0305	0.0334	0.035	0.0309	0.0289	0.0348	0.0257	0.0274	0.0355	0.0276	0.0309	0.0255	0.0394	0.0306	0.0403	0.0297	0.0382	0.0279	0.0303	0.0363	0.0329	0.0338	0.0265	0.0425	0.0369	0.0267	0.0272	0.0287	0.0269	0.0405	0.0241	0.0288	0.041	0.024	0.0308	0.0279	0.0307	0.0257	0.0369	0.0253	0.0223	0.0342	0.0338	0.0307	0.0294	0.0262	0.0376	0.0343	0.0246	0.0256	0.0345	0.0352	0.0318	0.0339	0.0249	0.0241	0.0307	0.0249	0.0279	0.0335	0.0294	0.03	0.0327	0.0258	0.0213	0.0301	0.0291	0.0286	0.0201	0.0485	0.0317	0.029	0.0235	0.0301	0.0195	0.0307	0.0241	0.0279	0.0259	0.028	0.0233	0.0303
lower0_perm_sad	-0.4368	-0.2659	-0.1017	-0.0828	-0.0291	-0.0222	-0.0107	-0.0111	-0.0094	-0.0081	-0.0084	-0.0083	-0.0075	-0.0069	-0.0074	-0.0075	-0.0066	-0.0071	-0.007	-0.0069	-0.0069	-0.0069	-0.0073	-0.0063	-0.0063	-0.0063	-0.0063	-0.0061	-0.0067	-0.0062	-0.0061	-0.0061	-0.0067	-0.0059	-0.0059	-0.0063	-0.0065	-0.0064	-0.0059	-0.0064	-0.0064	-0.0068	-0.0066	-0.0062	-0.0063	-0.0059	-0.0061	-0.0071	-0.0064	-0.0061	-0.0064	-0.006	-0.0061	-0.0065	-0.0061	-0.0062	-0.0069	-0.0058	-0.006	-0.0064	-0.0062	-0.0063	-0.006	-0.0058	-0.0059	-0.006	-0.0058	-0.0054	-0.0064	-0.0061	-0.0064	-0.0063	-0.0062	-0.006	-0.0061	-0.006	-0.0064	-0.006	-0.0058	-0.0063	-0.0063	-0.0055	-0.0057	-0.0061	-0.0058	-0.0058	-0.0057	-0.0065	-0.0059	-0.006	-0.006	-0.0055	-0.0056	-0.0062	-0.0063	-0.0058	-0.0058	-0.0068	-0.0057	-0.0062
covar_vc_estimate	-2.405	0.358	0.1397	-0.0022	0.0633	0.0378	0.0174	0.0147	-0.1249	-0.0011	0.0126	0.0125	0.014	0.008	0.0089	0.0054	0.0107	0.0115	0.0101	0.0085	0.0112	0.0101	0.0118	0.0095	-0.0825	0.0079	0.0101	0.01	0.0089	0.0095	0.0076	0.0096	0.0106	-0.0028	-0.104	0.0112	-0.006	0.0076	-0.0168	-0.0027	0.0089	0.0041	0.0051	-0.0485	0.0031	-0.0079	0.0096	0.0051	0.0094	0.0034	-0.0182	-0.0048	-0.0086	0.0094	-0.0159	0.0107	0.0107	-0.0119	0.0047	0.0003	0.0035	0.0103	0.006	-0.001	0.0	-0.0273	-0.1124	-0.0112	-0.0086	-0.0224	0.0099	0.0118	-0.0002	-0.0156	0.0075	-0.0312	0.0034	-0.0474	0.0102	0.0061	0.0057	0.0099	-0.0192	-0.0049	0.0022	0.004	-0.0351	0.0108	0.0089	0.0001	0.0097	0.0051	0.0024	0.0113	-0.005	0.0084	-0.006	0.0113	0.0091	-0.0021
covar_vc_estimate_se	1.2169	0.9304	0.5796	0.5217	0.3059	0.2709	0.1879	0.1892	0.1739	0.1622	0.1653	0.1639	0.1567	0.1504	0.1565	0.1568	0.1471	0.1516	0.1514	0.1494	0.1496	0.1505	0.1549	0.1436	0.1422	0.1424	0.1433	0.1423	0.1485	0.1428	0.1409	0.1421	0.1479	0.1406	0.1402	0.1452	0.1454	0.1455	0.1407	0.1446	0.1441	0.1498	0.1467	0.1418	0.1427	0.14	0.1404	0.1534	0.1442	0.1392	0.1432	0.1425	0.1415	0.145	0.1437	0.1413	0.1493	0.1378	0.1394	0.1441	0.142	0.1437	0.1412	0.1379	0.1385	0.1405	0.1373	0.1344	0.1434	0.1409	0.1445	0.1437	0.1409	0.1396	0.1408	0.14	0.1453	0.1387	0.1386	0.1425	0.1422	0.1346	0.1353	0.1421	0.1368	0.1387	0.136	0.1459	0.1388	0.1416	0.1393	0.1358	0.1355	0.1422	0.143	0.1379	0.1391	0.1492	0.1367	0.1431
covar_vc_pvals	0.024	0.17	0.137	0.471	0.001	0.012	0.048	0.141	0.001	0.48	0.086	0.08	0.003	0.244	0.204	0.35	0.037	0.029	0.1	0.177	0.038	0.11	0.049	0.066	0.002	0.16	0.04	0.043	0.16	0.099	0.149	0.082	0.039	0.419	0.0	0.016	0.346	0.179	0.169	0.461	0.136	0.314	0.28	0.008	0.412	0.317	0.066	0.298	0.09	0.39	0.213	0.335	0.364	0.133	0.204	0.015	0.068	0.225	0.326	0.447	0.341	0.052	0.273	0.457	0.439	0.108	0.0	0.202	0.343	0.142	0.067	0.011	0.458	0.14	0.181	0.043	0.363	0.039	0.02	0.242	0.264	0.006	0.108	0.382	0.426	0.333	0.023	0.022	0.102	0.462	0.025	0.251	0.485	0.015	0.289	0.104	0.332	0.033	0.046	0.458
upper975_perm_covar	0.8022	0.485	0.1883	0.1509	0.0525	0.0402	0.0203	0.0207	0.017	0.0151	0.0155	0.0158	0.014	0.0136	0.0141	0.0139	0.0123	0.0131	0.0127	0.0131	0.013	0.0133	0.0138	0.0118	0.0115	0.0117	0.0116	0.0116	0.013	0.012	0.0117	0.0122	0.0122	0.0116	0.011	0.0121	0.0123	0.0119	0.0114	0.0121	0.0119	0.0129	0.0125	0.0114	0.0119	0.0111	0.0115	0.0134	0.0119	0.0112	0.0117	0.0116	0.0118	0.0127	0.0122	0.0114	0.0131	0.0112	0.0109	0.012	0.0118	0.0122	0.0114	0.0111	0.0115	0.0114	0.0108	0.0101	0.0116	0.0117	0.0118	0.012	0.0116	0.0112	0.0119	0.0112	0.0124	0.0113	0.0113	0.0117	0.0118	0.0106	0.0108	0.0118	0.0107	0.0112	0.0108	0.012	0.0116	0.0112	0.0107	0.0101	0.011	0.0118	0.012	0.011	0.0118	0.0131	0.0105	0.0117
lower025_perm_covar	-2.5717	-1.7812	-0.6897	-0.5848	-0.2037	-0.1277	-0.0565	-0.0768	-0.0559	-0.0613	-0.0599	-0.0667	-0.0497	-0.0418	-0.0499	-0.0578	-0.0531	-0.0529	-0.0448	-0.0638	-0.0652	-0.0523	-0.0541	-0.0568	-0.0422	-0.0477	-0.0649	-0.047	-0.0546	-0.0472	-0.0657	-0.0495	-0.0664	-0.054	-0.0604	-0.0457	-0.0535	-0.064	-0.0501	-0.0568	-0.0462	-0.0729	-0.0613	-0.0414	-0.0477	-0.0475	-0.0441	-0.0663	-0.0448	-0.0515	-0.0629	-0.0434	-0.0572	-0.0468	-0.0589	-0.0395	-0.0591	-0.0437	-0.039	-0.06	-0.0524	-0.0476	-0.053	-0.0433	-0.0633	-0.0518	-0.0429	-0.04	-0.0638	-0.0529	-0.0525	-0.0598	-0.0433	-0.0397	-0.0524	-0.0395	-0.049	-0.0638	-0.0477	-0.0479	-0.0537	-0.0429	-0.0372	-0.0568	-0.0486	-0.0522	-0.0363	-0.0836	-0.0488	-0.0482	-0.042	-0.0491	-0.0339	-0.0535	-0.0368	-0.0411	-0.0465	-0.0449	-0.0419	-0.0534
