	PC1	PC2	PC3	PC4	PC5	PC6	PC7	PC8	PC9	PC10	PC11	PC12	PC13	PC14	PC15	PC16	PC17	PC18	PC19	PC20	PC21	PC22	PC23	PC24	PC25	PC26	PC27	PC28	PC29	PC30	PC31	PC32	PC33	PC34	PC35	PC36	PC37	PC38	PC39	PC40	PC41	PC42	PC43	PC44	PC45	PC46	PC47	PC48	PC49	PC50	PC51	PC52	PC53	PC54	PC55	PC56	PC57	PC58	PC59	PC60	PC61	PC62	PC63	PC64	PC65	PC66	PC67	PC68	PC69	PC70	PC71	PC72	PC73	PC74	PC75	PC76	PC77	PC78	PC79	PC80	PC81	PC82	PC83	PC84	PC85	PC86	PC87	PC88	PC89	PC90	PC91	PC92	PC93	PC94	PC95	PC96	PC97	PC98	PC99	PC100
direct_vc_estimate	0.5096	0.1013	0.0192	-0.0233	-0.0032	-0.0005	0.0105	0.0058	0.0169	-0.0005	0.0124	-0.0011	-0.0018	-0.0001	0.0052	-0.0021	0.0086	-0.0008	0.0062	-0.0015	-0.0013	0.0008	-0.001	0.0004	-0.0016	0.0021	0.003	0.0013	-0.0014	-0.0018	-0.0022	0.0015	0.001	-0.0019	0.0114	-0.0012	-0.0021	0.0036	-0.0013	0.0006	0.0005	-0.0021	-0.0017	0.0032	-0.0008	-0.0012	0.0016	0.0011	-0.0008	-0.002	-0.0005	0.002	0.0071	-0.0012	-0.0008	-0.0017	-0.0023	-0.0019	0.0102	-0.0001	-0.0005	0.0054	0.0029	0.0101	0.0024	0.0016	0.0059	-0.001	0.005	-0.002	-0.0007	-0.0008	0.0093	0.006	0.0146	0.0042	0.0006	0.0026	0.0026	0.0044	-0.0004	-0.0019	-0.001	-0.0022	-0.0015	0.0001	-0.0018	0.0017	-0.0019	-0.0003	-0.0006	-0.0016	0.0025	-0.0017	-0.0013	0.0001	-0.0011	0.0	0.0021	-0.0015
direct_vc_estimate_se	0.0225	0.0141	0.0057	0.0045	0.001	0.0007	0.0006	0.0005	0.0004	0.0004	0.0004	0.0004	0.0004	0.0004	0.0004	0.0003	0.0003	0.0003	0.0003	0.0003	0.0003	0.0003	0.0003	0.0003	0.0003	0.0003	0.0003	0.0003	0.0003	0.0003	0.0003	0.0003	0.0003	0.0003	0.0003	0.0003	0.0003	0.0003	0.0003	0.0003	0.0003	0.0003	0.0003	0.0003	0.0003	0.0003	0.0003	0.0003	0.0003	0.0003	0.0003	0.0003	0.0003	0.0003	0.0003	0.0003	0.0003	0.0003	0.0003	0.0003	0.0003	0.0003	0.0003	0.0003	0.0003	0.0003	0.0003	0.0002	0.0003	0.0003	0.0003	0.0003	0.0003	0.0003	0.0003	0.0003	0.0003	0.0002	0.0003	0.0003	0.0003	0.0003	0.0003	0.0003	0.0003	0.0003	0.0002	0.0003	0.0003	0.0003	0.0003	0.0002	0.0003	0.0003	0.0003	0.0003	0.0003	0.0003	0.0003	0.0003
direct_vc_pvals	0.116	0.325	0.369	0.734	0.521	0.435	0.111	0.241	0.027	0.555	0.086	0.606	0.606	0.407	0.162	0.842	0.176	0.57	0.145	0.652	0.627	0.423	0.597	0.48	0.719	0.268	0.386	0.411	0.63	0.858	0.927	0.441	0.408	0.874	0.059	0.618	0.894	0.308	0.719	0.455	0.501	0.893	0.728	0.259	0.599	0.608	0.297	0.523	0.582	0.919	0.545	0.4	0.248	0.622	0.596	0.844	0.999	0.977	0.101	0.57	0.534	0.189	0.327	0.051	0.285	0.37	0.109	0.694	0.179	0.873	0.572	0.58	0.081	0.149	0.072	0.241	0.49	0.289	0.277	0.303	0.537	0.934	0.595	0.821	0.674	0.436	0.983	0.462	0.912	0.436	0.51	0.83	0.261	0.741	0.676	0.456	0.587	0.461	0.275	0.724
upper95_perm_direct	0.7751	0.599	0.2281	0.2801	0.0309	0.0216	0.0153	0.0238	0.0109	0.0177	0.0167	0.0179	0.0086	0.0113	0.0114	0.0113	0.0181	0.0137	0.0118	0.012	0.0116	0.0135	0.0107	0.0159	0.0119	0.0109	0.0197	0.0168	0.0105	0.0154	0.0245	0.0194	0.0149	0.0167	0.0119	0.0115	0.0179	0.0168	0.0204	0.0159	0.0178	0.0178	0.0198	0.013	0.0132	0.0101	0.0118	0.028	0.0186	0.0112	0.012	0.017	0.0211	0.017	0.0162	0.0108	0.0211	0.0152	0.0145	0.0177	0.0116	0.0146	0.0175	0.01	0.0127	0.0138	0.01	0.0123	0.0131	0.0135	0.0162	0.0138	0.0111	0.0116	0.0165	0.0135	0.0179	0.0122	0.0101	0.0171	0.0163	0.0147	0.0075	0.0139	0.0091	0.0109	0.0103	0.0212	0.0178	0.0075	0.0096	0.013	0.0119	0.0109	0.0119	0.0112	0.0131	0.012	0.0107	0.0114
lower0_perm_direct	-0.1783	-0.1157	-0.046	-0.0354	-0.0081	-0.0053	-0.0046	-0.0038	-0.0033	-0.0034	-0.0031	-0.0028	-0.0028	-0.003	-0.003	-0.0024	-0.0024	-0.0026	-0.0025	-0.0024	-0.0024	-0.0022	-0.0022	-0.002	-0.0022	-0.0025	-0.0023	-0.0023	-0.0024	-0.0021	-0.0025	-0.0022	-0.0021	-0.0023	-0.002	-0.0024	-0.0024	-0.0025	-0.0023	-0.0026	-0.0026	-0.0024	-0.0026	-0.0025	-0.0022	-0.0023	-0.0021	-0.0027	-0.0024	-0.0023	-0.0023	-0.0024	-0.0023	-0.0026	-0.0025	-0.002	-0.0024	-0.0021	-0.0024	-0.0023	-0.0023	-0.0025	-0.0022	-0.0021	-0.0024	-0.0022	-0.0022	-0.0017	-0.0026	-0.0023	-0.0024	-0.0024	-0.0022	-0.0023	-0.0021	-0.0024	-0.0027	-0.0019	-0.0021	-0.002	-0.0025	-0.0021	-0.002	-0.0026	-0.0021	-0.0022	-0.002	-0.0025	-0.0021	-0.0022	-0.0023	-0.002	-0.0023	-0.0022	-0.0022	-0.002	-0.0026	-0.0023	-0.0022	-0.0022
sad_vc_estimate	0.4545	0.0879	-0.0065	-0.0154	0.0301	-0.001	0.0147	0.0168	0.0442	0.0068	0.0143	0.0059	0.0008	0.0029	0.006	-0.0022	0.0065	-0.001	0.0131	-0.0014	0.0001	0.0011	-0.0004	0.0062	-0.002	0.0076	0.0016	-0.0018	-0.0022	-0.0015	0.0014	0.0002	0.0021	0.0011	0.0149	-0.0017	-0.0012	0.0091	-0.0014	-0.0014	0.0044	-0.002	-0.0021	-0.0016	-0.0012	-0.0012	-0.0006	0.0044	-0.0022	-0.0017	0.0032	0.0042	0.0228	0.0028	0.0008	-0.0004	-0.0022	-0.0019	0.0039	-0.0021	0.0015	0.0017	-0.002	0.0053	0.0005	0.008	0.0107	-0.0005	0.0023	-0.0018	-0.0005	-0.0016	0.0203	0.0003	0.015	0.0041	0.0045	0.0051	0.0097	0.0112	-0.0023	0.0017	-0.0013	-0.0003	-0.002	0.0007	-0.0016	0.0008	-0.002	-0.0019	0.0	-0.0018	-0.001	0.0021	-0.0015	-0.0014	-0.0023	0.0041	-0.0014	-0.0015
sad_vc_estimate_se	0.0227	0.0142	0.0058	0.0045	0.001	0.0007	0.0006	0.0005	0.0004	0.0004	0.0004	0.0004	0.0004	0.0004	0.0004	0.0003	0.0003	0.0003	0.0003	0.0003	0.0003	0.0003	0.0003	0.0003	0.0003	0.0003	0.0003	0.0003	0.0003	0.0003	0.0003	0.0003	0.0003	0.0003	0.0003	0.0003	0.0003	0.0003	0.0003	0.0003	0.0003	0.0003	0.0003	0.0003	0.0003	0.0003	0.0003	0.0003	0.0003	0.0003	0.0003	0.0003	0.0003	0.0003	0.0003	0.0003	0.0003	0.0003	0.0003	0.0003	0.0003	0.0003	0.0003	0.0003	0.0003	0.0003	0.0003	0.0002	0.0003	0.0003	0.0003	0.0003	0.0003	0.0003	0.0003	0.0003	0.0003	0.0002	0.0003	0.0003	0.0003	0.0003	0.0003	0.0003	0.0003	0.0003	0.0002	0.0003	0.0003	0.0003	0.0003	0.0003	0.0003	0.0003	0.0003	0.0003	0.0003	0.0003	0.0003	0.0003
sad_vc_pvals	0.151	0.407	0.537	0.626	0.129	0.528	0.063	0.145	0.005	0.278	0.124	0.364	0.351	0.277	0.211	0.935	0.258	0.663	0.1	0.737	0.518	0.461	0.56	0.246	0.896	0.185	0.569	0.805	0.998	0.816	0.561	0.627	0.39	0.588	0.083	0.735	0.659	0.166	0.75	0.704	0.249	0.876	0.843	0.693	0.694	0.673	0.564	0.383	0.961	0.81	0.338	0.239	0.051	0.396	0.478	0.635	0.916	0.972	0.343	0.956	0.439	0.431	0.911	0.184	0.567	0.233	0.143	0.623	0.394	0.815	0.596	0.798	0.044	0.48	0.133	0.316	0.297	0.237	0.15	0.135	0.949	0.408	0.697	0.591	0.997	0.479	0.837	0.571	0.997	0.995	0.517	0.965	0.6	0.344	0.782	0.735	0.938	0.295	0.728	0.748
upper95_perm_sad	0.9673	0.817	0.2754	0.2319	0.0538	0.0274	0.0171	0.0315	0.0197	0.0242	0.0221	0.0299	0.0127	0.0161	0.0192	0.0164	0.024	0.0218	0.0183	0.0184	0.019	0.0166	0.0145	0.0198	0.0114	0.0181	0.0289	0.0207	0.0158	0.0204	0.039	0.0292	0.0187	0.0309	0.0173	0.013	0.0219	0.0183	0.0244	0.0241	0.0161	0.0295	0.0209	0.0129	0.0177	0.0154	0.0128	0.0309	0.0227	0.0184	0.0203	0.0141	0.0232	0.023	0.0186	0.0177	0.0361	0.0188	0.0209	0.0193	0.0185	0.0227	0.0211	0.0153	0.0217	0.0229	0.0179	0.0171	0.0182	0.0187	0.0222	0.025	0.0185	0.0163	0.0255	0.0217	0.0216	0.0176	0.0168	0.0169	0.0247	0.0189	0.0121	0.02	0.0135	0.0149	0.013	0.0279	0.0232	0.0105	0.0155	0.0189	0.0156	0.0127	0.0187	0.0122	0.0177	0.0181	0.0146	0.0165
lower0_perm_sad	-0.1816	-0.115	-0.0467	-0.0358	-0.0086	-0.0054	-0.0048	-0.0038	-0.0034	-0.0034	-0.0032	-0.0029	-0.0028	-0.003	-0.0029	-0.0025	-0.0025	-0.0025	-0.0024	-0.0024	-0.0025	-0.0021	-0.0022	-0.002	-0.0023	-0.0025	-0.0023	-0.0023	-0.0023	-0.0021	-0.0025	-0.0022	-0.0022	-0.0023	-0.0019	-0.0023	-0.0024	-0.0026	-0.0024	-0.0026	-0.0026	-0.0024	-0.0025	-0.0026	-0.0022	-0.0022	-0.0022	-0.0027	-0.0023	-0.0022	-0.0023	-0.0024	-0.0023	-0.0026	-0.0025	-0.0021	-0.0025	-0.0021	-0.0026	-0.0023	-0.0023	-0.0024	-0.0023	-0.0021	-0.0023	-0.0022	-0.0022	-0.0018	-0.0027	-0.0023	-0.0024	-0.0023	-0.0022	-0.0023	-0.0021	-0.0023	-0.0028	-0.0019	-0.0021	-0.002	-0.0026	-0.0021	-0.002	-0.0026	-0.0021	-0.0022	-0.002	-0.0026	-0.0021	-0.0021	-0.0022	-0.0019	-0.0024	-0.0022	-0.0023	-0.002	-0.0026	-0.0023	-0.0022	-0.0022
covar_vc_estimate	-0.9641	-0.1897	-0.0095	0.0397	-0.0105	0.0015	-0.025	-0.0205	-0.0553	-0.004	-0.0266	-0.002	0.0018	-0.0023	-0.0111	0.0046	-0.015	0.0019	-0.0183	0.0029	0.0014	-0.0019	0.0014	-0.0049	0.0037	-0.0086	-0.0044	0.002	0.0045	0.0033	0.0036	-0.0016	-0.003	0.0027	-0.0261	0.0031	0.0037	-0.0118	0.0026	0.0014	-0.0041	0.0048	0.0038	0.0008	0.002	0.0024	-0.0005	-0.005	0.0047	0.0043	-0.0017	-0.006	-0.0261	-0.0002	0.0002	0.0028	0.0045	0.0038	-0.013	0.0046	-0.0006	-0.0065	0.0029	-0.0148	-0.0026	-0.0081	-0.0161	0.0016	-0.007	0.0046	0.0011	0.0061	-0.0278	-0.0046	-0.0295	-0.0084	-0.0044	-0.0074	-0.0107	-0.0144	0.0041	0.0047	0.0024	0.0034	0.0039	-0.0008	0.0035	-0.0025	0.0039	0.0038	0.0006	0.0035	-0.0004	0.0016	0.0028	0.0019	0.0052	-0.0031	0.0009	0.003
covar_vc_estimate_se	0.8136	0.6433	0.4094	0.3633	0.1738	0.1392	0.1325	0.1179	0.11	0.1099	0.1067	0.1018	0.1018	0.1043	0.1034	0.0949	0.0943	0.0976	0.0958	0.0938	0.0942	0.0884	0.0901	0.0873	0.0905	0.0958	0.092	0.092	0.0947	0.0879	0.0954	0.0899	0.0888	0.0916	0.0858	0.0926	0.0942	0.097	0.0934	0.0967	0.0964	0.0943	0.0959	0.0945	0.0908	0.0918	0.0901	0.1	0.0938	0.0897	0.0918	0.0934	0.0927	0.098	0.0955	0.0859	0.0958	0.0877	0.0947	0.0923	0.0924	0.0934	0.0905	0.0888	0.0925	0.0897	0.0883	0.0805	0.0979	0.0925	0.0942	0.0932	0.0902	0.0924	0.0878	0.0928	0.0998	0.0831	0.0878	0.0858	0.0959	0.0887	0.0856	0.0983	0.0888	0.0897	0.0849	0.096	0.0885	0.0877	0.0899	0.0855	0.0928	0.0905	0.0897	0.0861	0.0976	0.0923	0.0896	0.0899
covar_vc_pvals	0.087	0.421	0.463	0.207	0.327	0.412	0.047	0.177	0.002	0.487	0.058	0.41	0.466	0.379	0.15	0.061	0.215	0.274	0.081	0.222	0.32	0.489	0.309	0.425	0.124	0.22	0.433	0.235	0.077	0.102	0.091	0.32	0.469	0.147	0.029	0.206	0.116	0.209	0.156	0.302	0.393	0.051	0.124	0.374	0.251	0.275	0.49	0.463	0.056	0.045	0.475	0.348	0.08	0.398	0.376	0.145	0.047	0.067	0.197	0.058	0.457	0.349	0.141	0.088	0.477	0.328	0.096	0.227	0.275	0.046	0.317	0.016	0.025	0.341	0.054	0.295	0.443	0.25	0.176	0.178	0.117	0.03	0.253	0.189	0.086	0.462	0.063	0.38	0.064	0.097	0.384	0.074	0.488	0.311	0.155	0.27	0.068	0.439	0.396	0.183
upper975_perm_covar	0.3572	0.2209	0.1	0.0759	0.0188	0.0111	0.0112	0.0087	0.0075	0.0067	0.0065	0.0061	0.0062	0.0064	0.0065	0.0052	0.0046	0.0053	0.0051	0.0064	0.006	0.0048	0.0045	0.0043	0.0051	0.0057	0.005	0.0054	0.0055	0.0045	0.0052	0.0044	0.0048	0.0057	0.0042	0.0054	0.0057	0.0059	0.0052	0.0071	0.0066	0.0059	0.0055	0.0054	0.0054	0.0051	0.005	0.0059	0.0059	0.0046	0.0047	0.0051	0.0056	0.006	0.0055	0.0041	0.0053	0.0048	0.0054	0.0057	0.0056	0.0055	0.0048	0.0053	0.0054	0.005	0.005	0.0039	0.0058	0.0054	0.0057	0.0053	0.0047	0.0051	0.0046	0.0053	0.0062	0.0044	0.0047	0.0045	0.0055	0.0046	0.0043	0.0058	0.0049	0.0049	0.0041	0.0051	0.0049	0.0051	0.0053	0.0046	0.0054	0.0056	0.005	0.0043	0.0068	0.0049	0.0054	0.0047
lower025_perm_covar	-1.7641	-1.2231	-0.4695	-0.4502	-0.0751	-0.041	-0.0305	-0.0496	-0.0288	-0.0396	-0.0361	-0.0439	-0.0199	-0.0256	-0.0295	-0.0257	-0.0366	-0.0316	-0.029	-0.0243	-0.0292	-0.0307	-0.0229	-0.0341	-0.021	-0.0261	-0.0434	-0.0359	-0.0262	-0.0304	-0.0617	-0.0439	-0.0311	-0.0468	-0.0264	-0.0223	-0.035	-0.0332	-0.0419	-0.0354	-0.0299	-0.0426	-0.0362	-0.0231	-0.0301	-0.0222	-0.0229	-0.0503	-0.0385	-0.0266	-0.0287	-0.0251	-0.0401	-0.038	-0.0304	-0.0236	-0.0524	-0.033	-0.0325	-0.0325	-0.0267	-0.0368	-0.0337	-0.0248	-0.0305	-0.0355	-0.0263	-0.0287	-0.0291	-0.0266	-0.0334	-0.0362	-0.0275	-0.0253	-0.0392	-0.0348	-0.0366	-0.0256	-0.0278	-0.0322	-0.0409	-0.0314	-0.0198	-0.0336	-0.0203	-0.0231	-0.0201	-0.0452	-0.0383	-0.0182	-0.0249	-0.033	-0.0264	-0.0221	-0.0303	-0.0217	-0.0307	-0.0307	-0.0235	-0.0264
