	PC1	PC2	PC3	PC4	PC5	PC6	PC7	PC8	PC9	PC10	PC11	PC12	PC13	PC14	PC15	PC16	PC17	PC18	PC19	PC20	PC21	PC22	PC23	PC24	PC25	PC26	PC27	PC28	PC29	PC30	PC31	PC32	PC33	PC34	PC35	PC36	PC37	PC38	PC39	PC40	PC41	PC42	PC43	PC44	PC45	PC46	PC47	PC48	PC49	PC50	PC51	PC52	PC53	PC54	PC55	PC56	PC57	PC58	PC59	PC60	PC61	PC62	PC63	PC64	PC65	PC66	PC67	PC68	PC69	PC70	PC71	PC72	PC73	PC74	PC75	PC76	PC77	PC78	PC79	PC80	PC81	PC82	PC83	PC84	PC85	PC86	PC87	PC88	PC89	PC90	PC91	PC92	PC93	PC94	PC95	PC96	PC97	PC98	PC99	PC100
direct_vc_estimate	-0.0185	0.023	-0.0025	-0.0034	-0.0054	0.0155	0.0001	-0.0052	0.0174	-0.0047	-0.0041	-0.0035	-0.0049	-0.0023	-0.0055	0.0081	0.0059	-0.0053	-0.0049	0.0215	-0.0004	-0.0034	0.0065	0.0004	-0.005	-0.0049	-0.0053	-0.0054	-0.0009	-0.0011	0.002	-0.0022	0.0253	-0.0018	-0.0046	-0.0047	0.027	0.0075	0.0001	0.0012	0.0007	-0.0047	0.0068	-0.0046	-0.0016	-0.0058	-0.0032	-0.0038	-0.0055	0.0129	0.008	-0.0031	0.0115	0.0019	0.0031	0.0192	-0.0051	0.0081	-0.0024	-0.006	-0.0016	0.002	-0.0022	-0.0037	-0.0033	-0.0052	-0.005	0.0053	-0.0042	-0.0023	-0.0025	0.0114	-0.0049	0.0012	0.0041	-0.0023	-0.0003	-0.0059	0.0882	0.0022	-0.0048	0.0341	0.0043	-0.004	-0.0043	0.0014	-0.0002	-0.0046	0.0129	0.0048	0.0016	-0.0005	-0.0042	-0.0044	0.0095	0.002	0.0059	0.0055	-0.0041	0.023
direct_vc_estimate_se	0.0035	0.0016	0.001	0.0011	0.001	0.001	0.001	0.001	0.0011	0.001	0.001	0.001	0.001	0.001	0.0012	0.0011	0.001	0.001	0.001	0.0009	0.0012	0.0008	0.001	0.0009	0.0012	0.001	0.001	0.001	0.0011	0.001	0.0009	0.0009	0.001	0.0009	0.0009	0.0009	0.001	0.001	0.0009	0.0009	0.0009	0.0009	0.0011	0.0009	0.001	0.0011	0.001	0.0009	0.001	0.0009	0.0009	0.001	0.0009	0.001	0.0008	0.0008	0.001	0.0011	0.0008	0.0011	0.0009	0.0008	0.0009	0.0009	0.001	0.001	0.001	0.0008	0.0008	0.0009	0.0009	0.0009	0.0009	0.0008	0.001	0.0011	0.0008	0.0012	0.001	0.0011	0.0009	0.0009	0.0009	0.0009	0.0008	0.0009	0.001	0.0009	0.0008	0.0009	0.0009	0.0009	0.0008	0.0009	0.0008	0.0008	0.0009	0.0008	0.0009	0.0009
direct_vc_pvals	0.927	0.208	0.58	0.655	0.976	0.328	0.42	0.857	0.15	0.814	0.746	0.709	0.805	0.567	0.828	0.263	0.317	0.918	0.868	0.11	0.549	0.739	0.369	0.459	0.734	0.872	0.989	0.979	0.527	0.548	0.408	0.587	0.079	0.573	0.952	0.92	0.11	0.395	0.528	0.493	0.425	0.977	0.33	0.897	0.468	0.931	0.695	0.744	0.979	0.263	0.172	0.65	0.159	0.434	0.309	0.079	0.951	0.262	0.584	0.94	0.634	0.318	0.628	0.698	0.694	0.897	0.912	0.251	0.937	0.589	0.615	0.182	0.946	0.415	0.275	0.629	0.489	0.872	0.005	0.42	0.999	0.023	0.235	0.737	0.916	0.39	0.571	0.896	0.176	0.284	0.406	0.653	0.894	0.831	0.235	0.397	0.362	0.258	0.779	0.094
upper95_perm_direct	0.0768	0.0834	0.0344	0.0473	0.0552	0.0701	0.0322	0.0477	0.0432	0.0301	0.0497	0.0482	0.0434	0.0394	0.0528	0.0454	0.0422	0.0646	0.0514	0.0378	0.059	0.029	0.0522	0.0389	0.063	0.0514	0.0375	0.0709	0.0491	0.0435	0.0374	0.0311	0.0369	0.0306	0.049	0.0494	0.0537	0.0619	0.0389	0.0444	0.0274	0.0379	0.0481	0.0482	0.0242	0.0455	0.0452	0.0323	0.0384	0.0561	0.0201	0.0416	0.0303	0.0432	0.0245	0.0287	0.0386	0.0423	0.0299	0.0429	0.0425	0.0273	0.0305	0.0313	0.0465	0.0396	0.0442	0.0245	0.0258	0.0368	0.0286	0.0331	0.0433	0.0337	0.0304	0.0493	0.0344	0.0413	0.0483	0.0444	0.0335	0.026	0.021	0.0303	0.0359	0.0307	0.0596	0.0294	0.0341	0.0306	0.0327	0.0594	0.0468	0.0434	0.0389	0.0334	0.0529	0.0286	0.0237	0.0397
lower0_perm_direct	-0.0256	-0.012	-0.0078	-0.0083	-0.0073	-0.0076	-0.0072	-0.0077	-0.0081	-0.0073	-0.0071	-0.0074	-0.0078	-0.0073	-0.0083	-0.0077	-0.0072	-0.0076	-0.0074	-0.0064	-0.0087	-0.0061	-0.0073	-0.0064	-0.0092	-0.0072	-0.0072	-0.0075	-0.0079	-0.0071	-0.0069	-0.0068	-0.007	-0.0062	-0.0063	-0.0065	-0.0074	-0.0077	-0.0069	-0.0062	-0.0066	-0.0066	-0.0082	-0.0067	-0.0077	-0.0081	-0.007	-0.0065	-0.0075	-0.0074	-0.0068	-0.007	-0.0065	-0.0068	-0.0061	-0.0063	-0.0071	-0.0079	-0.0061	-0.0084	-0.0074	-0.0061	-0.0062	-0.0065	-0.0071	-0.0075	-0.0072	-0.0062	-0.0062	-0.0069	-0.0064	-0.0064	-0.007	-0.0062	-0.0072	-0.008	-0.0062	-0.0087	-0.0081	-0.0081	-0.0068	-0.0067	-0.0065	-0.0067	-0.0061	-0.007	-0.0074	-0.0064	-0.0059	-0.0074	-0.0064	-0.0065	-0.0065	-0.0067	-0.0059	-0.0067	-0.0068	-0.0064	-0.0068	-0.0066
sad_vc_estimate	0.0022	0.0469	0.0308	-0.0037	-0.0019	0.0285	-0.0053	0.0026	0.0335	-0.0045	-0.0028	0.0005	-0.0037	-0.0032	-0.0062	0.0114	0.0188	-0.0053	0.0007	0.0325	0.0421	-0.0012	-0.0009	-0.0019	-0.0028	0.0002	0.0005	-0.0045	-0.0057	-0.0052	0.0095	0.0027	0.0057	-0.0026	0.0078	-0.0041	0.0178	0.0335	0.007	-0.0031	-0.0001	-0.0012	-0.0033	-0.0048	-0.0033	-0.0051	0.0018	-0.0023	-0.0026	0.0077	0.0181	0.0013	0.0039	-0.0051	0.005	0.0421	-0.0052	0.02	-0.0044	-0.0027	-0.002	0.0062	-0.0043	-0.0041	-0.0035	-0.0026	-0.0052	-0.001	0.0024	-0.0024	-0.004	0.0053	-0.0046	0.0013	0.0147	0.024	0.0207	-0.0063	0.1059	-0.0034	0.0028	0.0387	0.0211	-0.0015	-0.0023	-0.0032	0.0156	-0.0042	0.0	0.008	0.0112	-0.002	-0.0039	-0.0009	0.039	0.0048	0.0332	0.0024	-0.0043	0.0297
sad_vc_estimate_se	0.0035	0.0016	0.0011	0.0011	0.001	0.001	0.001	0.001	0.0011	0.001	0.001	0.001	0.001	0.001	0.0012	0.0011	0.001	0.0011	0.001	0.0009	0.0012	0.0008	0.001	0.0009	0.0012	0.001	0.001	0.001	0.0011	0.001	0.0009	0.0009	0.001	0.0009	0.0009	0.0009	0.001	0.0011	0.0009	0.0009	0.0009	0.0009	0.0011	0.0009	0.001	0.0011	0.001	0.0009	0.001	0.0009	0.0009	0.001	0.0009	0.001	0.0009	0.0009	0.001	0.0011	0.0008	0.0011	0.0009	0.0008	0.0009	0.0009	0.001	0.001	0.001	0.0008	0.0008	0.0009	0.0009	0.0009	0.0009	0.0008	0.001	0.0011	0.0009	0.0012	0.001	0.0011	0.0009	0.0009	0.0009	0.0009	0.0008	0.0009	0.001	0.0009	0.0008	0.0009	0.0009	0.0009	0.0008	0.0009	0.0008	0.0008	0.0009	0.0008	0.0009	0.0009
sad_vc_pvals	0.445	0.204	0.071	0.757	0.68	0.331	0.946	0.55	0.16	0.81	0.694	0.544	0.745	0.734	0.953	0.336	0.234	0.874	0.591	0.105	0.142	0.581	0.65	0.609	0.662	0.579	0.556	0.896	0.953	0.938	0.281	0.437	0.416	0.661	0.405	0.827	0.312	0.214	0.331	0.73	0.497	0.645	0.717	0.953	0.708	0.783	0.562	0.667	0.67	0.314	0.139	0.478	0.415	0.992	0.34	0.065	0.959	0.177	0.905	0.628	0.656	0.277	0.882	0.836	0.768	0.696	0.997	0.533	0.358	0.613	0.814	0.34	0.861	0.512	0.2	0.232	0.143	0.975	0.004	0.727	0.416	0.042	0.09	0.566	0.698	0.665	0.287	0.859	0.623	0.293	0.266	0.694	0.845	0.578	0.104	0.398	0.092	0.411	0.838	0.108
upper95_perm_sad	0.1246	0.1528	0.0434	0.0794	0.0729	0.1002	0.0503	0.0839	0.0764	0.0508	0.0707	0.0649	0.0588	0.0574	0.0937	0.0745	0.067	0.0715	0.0707	0.0585	0.0814	0.046	0.0795	0.0422	0.069	0.066	0.059	0.1166	0.0646	0.0454	0.0505	0.0495	0.0593	0.0355	0.0679	0.0655	0.0862	0.1051	0.0499	0.0564	0.0434	0.0632	0.0699	0.0551	0.0412	0.049	0.0728	0.0507	0.0606	0.0499	0.0415	0.0565	0.0494	0.0539	0.0425	0.0555	0.0638	0.054	0.0385	0.0584	0.0615	0.038	0.0497	0.0577	0.0648	0.0688	0.062	0.0335	0.0318	0.0433	0.0402	0.0468	0.0629	0.05	0.0477	0.09	0.0504	0.0596	0.0703	0.0839	0.0424	0.0401	0.0338	0.0401	0.054	0.0345	0.0661	0.0516	0.0634	0.0486	0.0511	0.064	0.0518	0.0596	0.07	0.0464	0.0565	0.0429	0.037	0.051
lower0_perm_sad	-0.0265	-0.0116	-0.008	-0.0085	-0.0081	-0.0071	-0.0079	-0.0079	-0.0081	-0.0074	-0.0075	-0.0079	-0.0073	-0.0071	-0.0086	-0.008	-0.0072	-0.0077	-0.0074	-0.007	-0.0088	-0.0063	-0.0077	-0.0069	-0.009	-0.0079	-0.0071	-0.0077	-0.008	-0.0073	-0.0065	-0.0067	-0.0077	-0.0064	-0.0069	-0.0066	-0.0075	-0.0077	-0.0062	-0.0065	-0.0068	-0.0067	-0.0082	-0.0067	-0.0071	-0.0084	-0.0071	-0.0066	-0.0076	-0.0069	-0.0069	-0.0073	-0.0066	-0.0072	-0.0064	-0.0063	-0.007	-0.0081	-0.0061	-0.0083	-0.0066	-0.0063	-0.0067	-0.0065	-0.0072	-0.0076	-0.007	-0.0061	-0.006	-0.0068	-0.0064	-0.0067	-0.0071	-0.0068	-0.0072	-0.0082	-0.0066	-0.0091	-0.0075	-0.0085	-0.0066	-0.0071	-0.0066	-0.0067	-0.0061	-0.0068	-0.0075	-0.0062	-0.0066	-0.007	-0.0064	-0.0067	-0.0063	-0.007	-0.006	-0.0061	-0.0069	-0.0062	-0.0064	-0.0065
covar_vc_estimate	0.0413	-0.0666	-0.0099	0.0071	0.0112	-0.0425	0.0094	0.0078	-0.0488	0.0092	0.0071	0.0041	0.0089	0.0056	0.0134	-0.0193	-0.0223	0.0118	0.0141	-0.0531	-0.0212	0.0052	-0.0039	0.0017	0.0083	0.0078	0.0103	0.0105	0.0104	0.0095	-0.0101	0.0006	-0.0262	0.0045	0.0105	0.009	-0.0441	-0.0341	-0.0056	0.0031	-0.0006	0.0091	0.0003	0.0094	0.0052	0.0123	0.0029	0.0064	0.0108	-0.0201	-0.0247	0.003	-0.0143	0.0105	-0.008	-0.0575	0.0103	-0.0263	0.0079	0.0112	0.0036	-0.0078	0.0108	0.0114	0.0068	0.0092	0.0102	-0.0028	0.0073	0.0047	0.0069	-0.016	0.0096	-0.0026	-0.0168	-0.0088	-0.0116	0.0128	-0.1933	0.0027	0.0095	-0.0727	-0.0211	0.0062	0.0079	0.0032	-0.0101	0.0101	-0.0088	-0.0127	-0.0106	0.0025	0.0097	0.0069	-0.0404	-0.0065	-0.0308	-0.0077	0.0085	-0.0524
covar_vc_estimate_se	0.2745	0.1861	0.1503	0.1543	0.1472	0.1469	0.1457	0.1498	0.1534	0.1466	0.1453	0.1471	0.1466	0.1465	0.1595	0.1509	0.1452	0.15	0.1473	0.1367	0.1603	0.1339	0.1479	0.1379	0.1626	0.1457	0.1456	0.1473	0.1512	0.1449	0.14	0.1417	0.1442	0.1355	0.1361	0.1391	0.1488	0.1504	0.1362	0.1376	0.1401	0.1379	0.1537	0.1394	0.145	0.1543	0.1445	0.1378	0.1488	0.1415	0.1406	0.1445	0.1361	0.1433	0.135	0.1352	0.1442	0.1529	0.1344	0.1562	0.1422	0.1333	0.1354	0.1388	0.145	0.1469	0.1437	0.1328	0.1303	0.1411	0.1373	0.1375	0.1413	0.1349	0.1454	0.1528	0.135	0.1595	0.1478	0.1553	0.139	0.1417	0.1369	0.1397	0.1337	0.1415	0.1478	0.1385	0.1334	0.1419	0.1378	0.1374	0.1341	0.1423	0.1341	0.1346	0.1416	0.1347	0.1366	0.1386
covar_vc_pvals	0.073	0.213	0.373	0.212	0.059	0.343	0.144	0.149	0.139	0.132	0.178	0.245	0.128	0.236	0.047	0.336	0.289	0.048	0.021	0.064	0.379	0.244	0.382	0.366	0.192	0.133	0.063	0.06	0.107	0.108	0.359	0.423	0.223	0.286	0.042	0.09	0.2	0.317	0.485	0.264	0.471	0.084	0.366	0.065	0.299	0.1	0.245	0.183	0.062	0.31	0.11	0.333	0.29	0.061	0.341	0.045	0.076	0.196	0.15	0.116	0.257	0.323	0.028	0.053	0.175	0.132	0.071	0.435	0.144	0.291	0.183	0.255	0.077	0.469	0.245	0.497	0.339	0.109	0.0	0.314	0.083	0.009	0.117	0.246	0.101	0.358	0.465	0.049	0.463	0.284	0.364	0.207	0.03	0.191	0.159	0.453	0.2	0.373	0.149	0.051
upper975_perm_covar	0.0612	0.0281	0.017	0.0202	0.016	0.0149	0.0172	0.0159	0.0168	0.0163	0.0166	0.0146	0.016	0.0153	0.0187	0.0178	0.0154	0.0157	0.0165	0.0151	0.0198	0.0142	0.016	0.0154	0.0213	0.016	0.0153	0.018	0.0185	0.0149	0.0138	0.0154	0.0154	0.0144	0.0143	0.0146	0.0156	0.019	0.014	0.0148	0.0163	0.0148	0.0167	0.0148	0.0176	0.0215	0.016	0.0142	0.0157	0.0137	0.0167	0.0142	0.0127	0.0155	0.0151	0.0151	0.0169	0.0188	0.0149	0.0192	0.0162	0.0137	0.0133	0.0167	0.015	0.016	0.0158	0.0153	0.0138	0.0163	0.0133	0.0152	0.0153	0.0132	0.0178	0.0204	0.0129	0.0231	0.0169	0.0194	0.0151	0.0149	0.0157	0.0145	0.0133	0.015	0.016	0.0135	0.0134	0.0159	0.0151	0.0124	0.0122	0.0149	0.0142	0.0136	0.0172	0.0134	0.015	0.0153
lower025_perm_covar	-0.1912	-0.2064	-0.0727	-0.1182	-0.1196	-0.1629	-0.0801	-0.116	-0.1181	-0.078	-0.1078	-0.1025	-0.0933	-0.083	-0.1276	-0.1175	-0.0984	-0.1123	-0.1015	-0.0921	-0.1299	-0.069	-0.124	-0.0745	-0.1228	-0.1136	-0.0892	-0.1535	-0.1104	-0.0813	-0.0819	-0.0821	-0.1	-0.06	-0.1163	-0.1068	-0.1256	-0.143	-0.0759	-0.0944	-0.0638	-0.0966	-0.1042	-0.1037	-0.0667	-0.0777	-0.1074	-0.0771	-0.0905	-0.0832	-0.0664	-0.0915	-0.0771	-0.0884	-0.0588	-0.0765	-0.0894	-0.0858	-0.0604	-0.0947	-0.0936	-0.0604	-0.0741	-0.0801	-0.1081	-0.0995	-0.0988	-0.0524	-0.0535	-0.0805	-0.0708	-0.0798	-0.0956	-0.0755	-0.0686	-0.1301	-0.0824	-0.0947	-0.1074	-0.1206	-0.0734	-0.0631	-0.0505	-0.0703	-0.0783	-0.0569	-0.1121	-0.0716	-0.0925	-0.0789	-0.0775	-0.1132	-0.09	-0.0949	-0.102	-0.0779	-0.0913	-0.0575	-0.0586	-0.0769
