	PC1	PC2	PC3	PC4	PC5	PC6	PC7	PC8	PC9	PC10	PC11	PC12	PC13	PC14	PC15	PC16	PC17	PC18	PC19	PC20	PC21	PC22	PC23	PC24	PC25	PC26	PC27	PC28	PC29	PC30	PC31	PC32	PC33	PC34	PC35	PC36	PC37	PC38	PC39	PC40	PC41	PC42	PC43	PC44	PC45	PC46	PC47	PC48	PC49	PC50	PC51	PC52	PC53	PC54	PC55	PC56	PC57	PC58	PC59	PC60	PC61	PC62	PC63	PC64	PC65	PC66	PC67	PC68	PC69	PC70	PC71	PC72	PC73	PC74	PC75	PC76	PC77	PC78	PC79	PC80	PC81	PC82	PC83	PC84	PC85	PC86	PC87	PC88	PC89	PC90	PC91	PC92	PC93	PC94	PC95	PC96	PC97	PC98	PC99	PC100
direct_vc_estimate	-0.2364	0.3177	0.0682	0.0583	-0.0092	0.0002	-0.0043	-0.0024	0.0253	0.012	0.0017	0.0066	-0.004	0.0098	-0.0045	-0.0032	-0.0023	-0.0017	-0.0041	0.0115	-0.0019	-0.0026	-0.0034	-0.0036	0.0083	-0.0036	0.0092	-0.0035	-0.0037	-0.0023	-0.0029	-0.0029	-0.0005	-0.0034	0.0246	-0.0039	0.0147	-0.0038	-0.0024	0.0065	0.0001	-0.004	-0.003	0.0165	-0.0012	0.004	-0.0036	0.0179	0.0	-0.0013	0.012	-0.0005	-0.0017	0.0049	-0.0037	-0.0005	0.0025	-0.0003	-0.0033	-0.0037	-0.0026	-0.0014	-0.0037	-0.0034	-0.001	-0.0022	0.0275	0.0257	0.0066	0.0098	-0.0035	-0.0038	-0.0023	-0.0024	-0.003	-0.0022	-0.0033	0.0096	0.001	-0.0019	-0.0003	-0.002	0.0159	0.0032	-0.0024	0.001	0.0115	0.0083	-0.0014	-0.0008	-0.0027	-0.0033	-0.0007	0.0067	-0.0008	-0.0031	0.0072	-0.0009	-0.0035	-0.0037
direct_vc_estimate_se	0.0773	0.0473	0.0185	0.015	0.0052	0.0039	0.0019	0.002	0.0017	0.0014	0.0015	0.0015	0.0014	0.0013	0.0014	0.0013	0.0012	0.0013	0.0013	0.0012	0.0012	0.0012	0.0013	0.0011	0.0011	0.0011	0.0011	0.0011	0.0012	0.0011	0.0011	0.0011	0.0012	0.0011	0.0011	0.0012	0.0012	0.0012	0.0011	0.0011	0.0011	0.0012	0.0012	0.0011	0.0011	0.0011	0.0011	0.0013	0.0011	0.001	0.0011	0.0011	0.0011	0.0012	0.0011	0.0011	0.0012	0.001	0.0011	0.0011	0.0011	0.0011	0.0011	0.0011	0.0011	0.0011	0.001	0.001	0.0011	0.0011	0.0011	0.0012	0.0011	0.0011	0.0011	0.0011	0.0012	0.001	0.0011	0.0011	0.0011	0.001	0.001	0.0011	0.001	0.0011	0.001	0.0012	0.0011	0.0011	0.0011	0.001	0.001	0.0011	0.0011	0.001	0.0011	0.0012	0.001	0.0011
direct_vc_pvals	0.796	0.135	0.244	0.21	0.582	0.411	0.591	0.513	0.042	0.101	0.316	0.202	0.755	0.089	0.994	0.674	0.575	0.499	0.905	0.147	0.578	0.601	0.69	0.874	0.126	0.969	0.148	0.846	0.886	0.634	0.731	0.695	0.441	0.879	0.033	0.942	0.127	0.924	0.631	0.165	0.42	0.907	0.715	0.071	0.523	0.233	0.874	0.112	0.352	0.536	0.107	0.508	0.607	0.226	0.955	0.423	0.289	0.462	0.793	0.893	0.663	0.548	0.936	0.906	0.508	0.652	0.011	0.027	0.219	0.118	0.839	0.951	0.595	0.669	0.689	0.58	0.767	0.14	0.353	0.573	0.444	0.603	0.035	0.294	0.668	0.366	0.05	0.183	0.542	0.44	0.692	0.904	0.468	0.198	0.423	0.803	0.167	0.502	0.992	0.923
upper95_perm_direct	1.0176	0.7284	0.2829	0.245	0.0875	0.0585	0.0226	0.0371	0.025	0.0208	0.0223	0.0218	0.0206	0.0173	0.0211	0.02	0.0184	0.0202	0.02	0.0241	0.0267	0.0197	0.0179	0.0208	0.0159	0.0218	0.0236	0.0198	0.0179	0.0189	0.0227	0.017	0.0187	0.0216	0.0214	0.0235	0.0282	0.0244	0.0177	0.0179	0.0251	0.0232	0.0284	0.0215	0.0186	0.018	0.0205	0.0314	0.0139	0.0186	0.0197	0.0212	0.0272	0.0203	0.0212	0.013	0.0207	0.0196	0.0144	0.0266	0.024	0.0191	0.0187	0.0196	0.0206	0.0208	0.0174	0.019	0.0218	0.0184	0.0209	0.0242	0.0157	0.0202	0.0153	0.0156	0.0224	0.0212	0.0186	0.0247	0.0236	0.0159	0.0142	0.0229	0.0188	0.0163	0.0126	0.0252	0.0181	0.0183	0.0167	0.0196	0.0166	0.0229	0.0167	0.017	0.0212	0.0204	0.0211	0.018
lower0_perm_direct	-0.3162	-0.1937	-0.0751	-0.0611	-0.0213	-0.0161	-0.0078	-0.0082	-0.007	-0.0059	-0.0062	-0.0061	-0.0056	-0.0053	-0.0054	-0.0055	-0.005	-0.0052	-0.0051	-0.0052	-0.005	-0.005	-0.0054	-0.0045	-0.0044	-0.0044	-0.0048	-0.0045	-0.0048	-0.0044	-0.0044	-0.0047	-0.0048	-0.0043	-0.0044	-0.005	-0.0046	-0.0047	-0.0043	-0.0046	-0.0046	-0.0049	-0.0048	-0.0045	-0.0046	-0.0045	-0.0048	-0.0054	-0.0047	-0.0043	-0.0045	-0.0045	-0.0046	-0.0049	-0.0045	-0.0044	-0.0049	-0.0042	-0.0043	-0.0046	-0.0045	-0.0046	-0.0046	-0.0043	-0.0043	-0.0044	-0.0042	-0.0041	-0.0046	-0.0045	-0.0046	-0.0049	-0.0044	-0.0044	-0.0046	-0.0045	-0.0047	-0.0042	-0.0044	-0.0046	-0.0045	-0.0041	-0.0041	-0.0044	-0.0043	-0.0043	-0.0042	-0.0049	-0.0044	-0.0046	-0.0042	-0.0042	-0.0041	-0.0047	-0.0044	-0.0043	-0.0044	-0.0049	-0.0042	-0.0045
sad_vc_estimate	-0.2287	0.0727	0.1527	0.0444	0.0484	-0.0048	-0.0053	0.0081	0.0527	0.0169	0.0047	0.0069	-0.0025	0.0147	-0.0031	0.0011	-0.0018	0.0011	-0.002	0.008	-0.0004	-0.0	-0.0041	-0.0035	0.0102	-0.0037	0.0089	-0.0032	-0.0017	-0.0037	-0.0029	-0.003	-0.0002	-0.0015	0.0315	-0.0022	0.0202	-0.0037	-0.0015	0.0041	0.0026	-0.0026	-0.0028	0.0372	0.001	0.0102	-0.0033	0.0115	0.0036	0.005	0.0277	0.0022	0.0013	0.0059	-0.0037	-0.0033	0.0018	-0.0015	-0.0029	-0.003	-0.0024	-0.0022	-0.0024	-0.0034	0.0005	-0.0026	0.044	0.019	0.0041	0.0122	-0.0027	-0.0015	0.0006	-0.0014	-0.0034	0.0005	0.0027	0.0332	0.0064	-0.002	-0.0005	-0.0029	0.0198	0.0067	0.0029	0.001	0.0189	0.0048	-0.0011	-0.0026	-0.0033	-0.0027	-0.0033	0.018	0.0008	-0.0035	0.0006	0.0164	-0.0028	-0.0033
sad_vc_estimate_se	0.0779	0.0476	0.0187	0.0151	0.0053	0.004	0.0019	0.002	0.0017	0.0015	0.0015	0.0015	0.0014	0.0013	0.0014	0.0014	0.0012	0.0013	0.0013	0.0012	0.0012	0.0013	0.0013	0.0011	0.0011	0.0011	0.0012	0.0011	0.0012	0.0011	0.0011	0.0011	0.0012	0.0011	0.0011	0.0012	0.0012	0.0012	0.0011	0.0011	0.0011	0.0012	0.0012	0.0011	0.0011	0.0011	0.0011	0.0013	0.0012	0.0011	0.0011	0.0011	0.0011	0.0012	0.0011	0.0011	0.0012	0.001	0.0011	0.0011	0.0011	0.0011	0.0011	0.0011	0.0011	0.0011	0.001	0.001	0.0011	0.0011	0.0011	0.0012	0.0011	0.0011	0.0011	0.0011	0.0012	0.0011	0.0011	0.0011	0.0011	0.001	0.001	0.0011	0.001	0.0011	0.001	0.0012	0.0011	0.0011	0.0011	0.001	0.001	0.0011	0.0011	0.001	0.0011	0.0012	0.001	0.0011
sad_vc_pvals	0.795	0.323	0.159	0.299	0.139	0.498	0.72	0.279	0.012	0.103	0.293	0.252	0.628	0.093	0.638	0.36	0.582	0.399	0.58	0.23	0.524	0.49	0.845	0.855	0.112	0.981	0.204	0.809	0.553	0.984	0.739	0.749	0.478	0.616	0.033	0.644	0.098	0.88	0.549	0.275	0.317	0.689	0.741	0.021	0.38	0.144	0.8	0.192	0.261	0.29	0.044	0.405	0.471	0.28	0.949	0.816	0.419	0.624	0.683	0.747	0.668	0.632	0.649	0.881	0.47	0.719	0.012	0.068	0.328	0.141	0.709	0.592	0.409	0.591	0.833	0.432	0.393	0.021	0.251	0.618	0.533	0.768	0.051	0.274	0.313	0.422	0.039	0.321	0.557	0.665	0.834	0.755	0.909	0.089	0.406	0.981	0.388	0.093	0.747	0.778
upper95_perm_sad	1.5289	0.7786	0.3591	0.2968	0.1086	0.0606	0.0301	0.053	0.0358	0.0287	0.0314	0.0345	0.0251	0.0239	0.0251	0.027	0.0231	0.0264	0.027	0.03	0.0306	0.0289	0.0255	0.0234	0.0189	0.0288	0.0287	0.0247	0.0275	0.0273	0.0342	0.0232	0.0266	0.0292	0.0285	0.0259	0.0312	0.0331	0.0234	0.0243	0.0227	0.0284	0.0339	0.0286	0.0197	0.0215	0.0275	0.032	0.0203	0.0285	0.0284	0.0288	0.0294	0.0297	0.0235	0.0224	0.0309	0.0279	0.0196	0.0293	0.0279	0.0281	0.0282	0.0235	0.0259	0.0242	0.0247	0.0245	0.028	0.0256	0.0262	0.0318	0.0211	0.0274	0.0223	0.0249	0.037	0.0271	0.0261	0.0311	0.0246	0.0224	0.0225	0.0304	0.0229	0.0236	0.0188	0.0333	0.0243	0.0205	0.0212	0.0264	0.0194	0.0276	0.0216	0.0207	0.0222	0.026	0.0244	0.0235
lower0_perm_sad	-0.3146	-0.1918	-0.0763	-0.0606	-0.0209	-0.0158	-0.0079	-0.0082	-0.0072	-0.0059	-0.0064	-0.0062	-0.0056	-0.0051	-0.0056	-0.0054	-0.0049	-0.0052	-0.0053	-0.0051	-0.005	-0.0053	-0.0054	-0.0045	-0.0044	-0.0045	-0.0047	-0.0046	-0.0047	-0.0045	-0.0045	-0.0045	-0.0047	-0.0044	-0.0044	-0.0047	-0.0049	-0.0049	-0.0045	-0.0046	-0.0046	-0.005	-0.0049	-0.0047	-0.0046	-0.0045	-0.0047	-0.0054	-0.0047	-0.0043	-0.0047	-0.0044	-0.0044	-0.0048	-0.0045	-0.0044	-0.005	-0.0042	-0.0044	-0.0046	-0.0045	-0.0047	-0.0046	-0.0044	-0.0044	-0.0044	-0.0042	-0.0041	-0.0047	-0.0045	-0.0047	-0.0047	-0.0044	-0.0046	-0.0045	-0.0044	-0.0047	-0.0043	-0.0044	-0.0046	-0.0045	-0.0041	-0.0041	-0.0046	-0.0044	-0.0043	-0.0044	-0.0048	-0.0045	-0.0044	-0.0044	-0.0042	-0.0042	-0.0046	-0.0045	-0.0042	-0.0044	-0.0049	-0.0043	-0.0045
covar_vc_estimate	0.4642	-0.3479	-0.2107	-0.1026	-0.0118	0.0051	0.0097	-0.0026	-0.0738	-0.0286	-0.0062	-0.0135	0.0113	-0.0241	0.0091	0.0036	0.0041	0.0011	0.0075	-0.0194	0.0025	0.0032	0.0077	0.0078	-0.0184	0.0073	-0.0182	0.0067	0.0067	0.0072	0.0057	0.0058	0.0006	0.0084	-0.0557	0.0084	-0.0346	0.0081	0.004	-0.0105	-0.0024	0.0088	0.0058	-0.0501	0.0006	-0.0134	0.0069	-0.029	-0.0031	-0.0017	-0.0371	-0.0012	0.001	-0.0108	0.0074	0.0052	-0.0044	0.0019	0.0062	0.007	0.0049	0.0036	0.007	0.0072	0.0007	0.0048	-0.0698	-0.0443	-0.0106	-0.0219	0.0064	0.0081	0.0025	0.004	0.0065	0.0024	0.0037	-0.0369	-0.0063	0.0039	0.0007	0.0083	-0.0356	-0.0095	0.0018	-0.0021	-0.0297	-0.0129	0.0024	0.0039	0.0061	0.0063	0.0059	-0.0226	0.0001	0.007	-0.0064	-0.0079	0.0068	0.0071
covar_vc_estimate_se	1.0295	0.8016	0.4998	0.4491	0.2647	0.2295	0.1607	0.164	0.1521	0.1393	0.1424	0.1415	0.1359	0.1299	0.1351	0.1344	0.1264	0.1305	0.1304	0.1284	0.1281	0.129	0.1331	0.1224	0.1198	0.1214	0.1239	0.122	0.1244	0.1211	0.1212	0.1215	0.1248	0.1199	0.1195	0.1253	0.1244	0.1254	0.1203	0.1231	0.1229	0.1277	0.1261	0.122	0.1224	0.1216	0.1229	0.1333	0.124	0.1183	0.1232	0.1216	0.1219	0.1252	0.1225	0.1204	0.1281	0.1177	0.1201	0.1236	0.1228	0.1236	0.1227	0.1187	0.1191	0.12	0.1179	0.1161	0.1226	0.1212	0.1233	0.1247	0.1212	0.1204	0.1211	0.1212	0.125	0.1183	0.1196	0.1227	0.121	0.1161	0.1166	0.1219	0.1181	0.1191	0.1178	0.1266	0.1199	0.1222	0.1193	0.1169	0.1169	0.1226	0.1218	0.1181	0.1205	0.1276	0.1179	0.1222
covar_vc_pvals	0.107	0.23	0.168	0.282	0.42	0.457	0.212	0.496	0.007	0.06	0.343	0.209	0.003	0.056	0.046	0.357	0.303	0.463	0.113	0.146	0.303	0.33	0.114	0.028	0.079	0.04	0.158	0.093	0.126	0.07	0.153	0.17	0.455	0.014	0.016	0.024	0.066	0.032	0.273	0.217	0.414	0.03	0.15	0.016	0.48	0.158	0.091	0.114	0.342	0.496	0.04	0.46	0.335	0.254	0.057	0.204	0.401	0.336	0.149	0.084	0.223	0.29	0.079	0.029	0.414	0.184	0.002	0.021	0.286	0.099	0.133	0.037	0.388	0.233	0.133	0.387	0.244	0.034	0.338	0.277	0.422	0.01	0.015	0.312	0.401	0.457	0.021	0.258	0.335	0.309	0.119	0.083	0.119	0.106	0.492	0.039	0.281	0.271	0.061	0.073
upper975_perm_covar	0.5906	0.369	0.147	0.1167	0.042	0.0301	0.0148	0.0161	0.0138	0.0113	0.0121	0.0119	0.0109	0.0102	0.0106	0.0105	0.0093	0.01	0.0101	0.0093	0.0098	0.0103	0.0101	0.0088	0.0084	0.0087	0.0088	0.0086	0.0092	0.009	0.0094	0.0089	0.0091	0.0086	0.0085	0.0094	0.0094	0.0095	0.0087	0.0098	0.0095	0.0101	0.0093	0.0086	0.009	0.0088	0.0092	0.0103	0.0092	0.0084	0.0091	0.0088	0.0094	0.0094	0.0089	0.0086	0.0095	0.0084	0.0088	0.0093	0.0091	0.009	0.0091	0.0083	0.0082	0.0087	0.0084	0.008	0.0087	0.0088	0.0092	0.0093	0.0089	0.0082	0.009	0.0085	0.0091	0.0084	0.0085	0.0095	0.0087	0.0078	0.0079	0.0088	0.0083	0.0084	0.0083	0.0093	0.0092	0.0089	0.0086	0.0081	0.0083	0.0092	0.0088	0.0082	0.0091	0.0096	0.0084	0.0086
lower025_perm_covar	-2.5145	-1.3669	-0.6478	-0.4889	-0.1895	-0.1093	-0.0484	-0.0789	-0.056	-0.0446	-0.0521	-0.0575	-0.044	-0.0341	-0.0422	-0.0443	-0.0385	-0.0438	-0.0439	-0.0521	-0.0553	-0.0464	-0.0404	-0.0378	-0.0324	-0.0486	-0.0471	-0.04	-0.0401	-0.0432	-0.0494	-0.0374	-0.0426	-0.0449	-0.0506	-0.0436	-0.0535	-0.0557	-0.0381	-0.0453	-0.0463	-0.0482	-0.06	-0.0485	-0.0374	-0.04	-0.0416	-0.0568	-0.0337	-0.0469	-0.0466	-0.0454	-0.0558	-0.0466	-0.0398	-0.0357	-0.0484	-0.0431	-0.0307	-0.0522	-0.0479	-0.0448	-0.0447	-0.0395	-0.0405	-0.046	-0.0408	-0.0446	-0.0467	-0.0436	-0.0444	-0.0501	-0.0418	-0.0465	-0.0411	-0.0405	-0.0577	-0.0432	-0.0422	-0.0493	-0.0458	-0.034	-0.0325	-0.0468	-0.0362	-0.0382	-0.0303	-0.0521	-0.0393	-0.0343	-0.0365	-0.0469	-0.0345	-0.0452	-0.0402	-0.0354	-0.0398	-0.0474	-0.0407	-0.0357
